digraph Tree {
node [shape=box] ;
0 [label="agency_zCy9zG00HEqGeKu4AWZYNQ <= 0.5\ngini = 0.5\nsamples = 724092\nvalue = [362046.0, 362046.0]"] ;
1 [label="cause_Rain <= 0.5\ngini = 0.452\nsamples = 305296\nvalue = [126195.513, 239384.975]"] ;
0 -> 1 [labeldistance=2.5, labelangle=45, headlabel="True"] ;
5 [label="cause_Incident <= 0.5\ngini = 0.425\nsamples = 259917\nvalue = [100250.681, 227369.621]"] ;
1 -> 5 ;
7 [label="effect_CirculationRestored <= 0.5\ngini = 0.28\nsamples = 81645\nvalue = [21264.545, 104952.497]"] ;
5 -> 7 ;
21 [label="cause_VehicularAccident <= 0.5\ngini = 0.264\nsamples = 76920\nvalue = [18961.266, 102395.811]"] ;
7 -> 21 ;
25 [label="agency_JUR9bFXmVkWDHqu4AXaY0g <= 0.5\ngini = 0.234\nsamples = 65856\nvalue = [14576.555, 93101.883]"] ;
21 -> 25 ;
45 [label="agency_NuuRQ2I1Q0a50Kv-AVKlLA <= 0.5\ngini = 0.271\nsamples = 53054\nvalue = [13415.128, 69520.466]"] ;
25 -> 45 ;
101 [label="cause_FallenTree <= 0.5\ngini = 0.264\nsamples = 51552\nvalue = [12740.457, 68519.186]"] ;
45 -> 101 ;
105 [label="agency_GtvOEQAFZ0GtU6u4AXwvPg <= 0.5\ngini = 0.262\nsamples = 51340\nvalue = [12602.13, 68519.186]"] ;
101 -> 105 ;
113 [label="effect_InterimService <= 0.5\ngini = 0.251\nsamples = 47506\nvalue = [11192.758, 64937.686]"] ;
105 -> 113 ;
143 [label="effect_RouteDetour <= 0.5\ngini = 0.268\nsamples = 40690\nvalue = [10193.149, 53632.641]"] ;
113 -> 143 ;
183 [label="cause_Overturn <= 0.5\ngini = 0.267\nsamples = 40577\nvalue = [10119.418, 53632.641]"] ;
143 -> 183 ;
203 [label="cause_Event <= 0.5\ngini = 0.266\nsamples = 40479\nvalue = [10055.474, 53632.641]"] ;
183 -> 203 ;
275 [label="effect_LaneReduction <= 0.5\ngini = 0.265\nsamples = 40426\nvalue = [10020.892, 53632.641]"] ;
203 -> 275 ;
307 [label="cause_Flood <= 0.5\ngini = 0.268\nsamples = 40109\nvalue = [10020.892, 52954.424]"] ;
275 -> 307 ;
315 [label="effect_TrafficImpact <= 0.5\ngini = 0.27\nsamples = 39827\nvalue = [10020.892, 52351.089]"] ;
307 -> 315 ;
335 [label="cause_March <= 0.5\ngini = 0.265\nsamples = 37357\nvalue = [9245.738, 49608.267]"] ;
315 -> 335 ;
337 [label="cause_StreetWorks <= 0.5\ngini = 0.267\nsamples = 37043\nvalue = [9245.738, 48936.469]"] ;
335 -> 337 ;
401 [label="effect_SecuritySpeed <= 0.5\ngini = 0.265\nsamples = 36431\nvalue = [9032.375, 48326.715]"] ;
337 -> 401 ;
415 [label="cause_HeavyTraffic <= 0.5\ngini = 0.263\nsamples = 35527\nvalue = [8736.146, 47363.946]"] ;
401 -> 415 ;
419 [label="effect_Delays <= 0.5\ngini = 0.26\nsamples = 35036\nvalue = [8522.783, 47013.071]"] ;
415 -> 419 ;
423 [label="cause_Maintenance <= 0.5\ngini = 0.268\nsamples = 31726\nvalue = [7938.154, 41848.351]"] ;
419 -> 423 ;
427 [label="effect_FullCapacity <= 0.5\ngini = 0.272\nsamples = 30469\nvalue = [7715.004, 39890.721]"] ;
423 -> 427 ;
445 [label="cause_GasLeak <= 0.5\ngini = 0.273\nsamples = 30366\nvalue = [7715.004, 39670.354]"] ;
427 -> 445 ;
461 [label="agency_HE59N3RXM0q5vKu4AXlQZg <= 0.5\ngini = 0.273\nsamples = 30285\nvalue = [7715.004, 39497.055]"] ;
445 -> 461 ;
463 [label="cause_EmergencyServices <= 0.5\ngini = 0.272\nsamples = 30006\nvalue = [7608.649, 39248.875]"] ;
461 -> 463 ;
503 [label="effect_CirculationShutdown <= 0.5\ngini = 0.271\nsamples = 29862\nvalue = [7557.755, 39107.669]"] ;
463 -> 503 ;
545 [label="effect_SuspensionOfService <= 0.5\ngini = 0.268\nsamples = 23231\nvalue = [5813.005, 30641.722]"] ;
503 -> 545 ;
547 [label="gini = 0.0\nsamples = 140\nvalue = [0.0, 299.528]"] ;
545 -> 547 ;
548 [label="cause_BrokenVehicle <= 0.5\ngini = 0.27\nsamples = 23091\nvalue = [5813.005, 30342.194]"] ;
545 -> 548 ;
549 [label="gini = 0.268\nsamples = 22231\nvalue = [5562.45, 29323.798]"] ;
548 -> 549 ;
550 [label="gini = 0.317\nsamples = 860\nvalue = [250.555, 1018.395]"] ;
548 -> 550 ;
546 [label="gini = 0.283\nsamples = 6631\nvalue = [1744.75, 8465.947]"] ;
503 -> 546 ;
504 [label="gini = 0.389\nsamples = 144\nvalue = [50.894, 141.206]"] ;
463 -> 504 ;
464 [label="gini = 0.42\nsamples = 279\nvalue = [106.355, 248.18]"] ;
461 -> 464 ;
462 [label="gini = 0.0\nsamples = 81\nvalue = [0.0, 173.298]"] ;
445 -> 462 ;
446 [label="gini = 0.0\nsamples = 103\nvalue = [0.0, 220.367]"] ;
427 -> 446 ;
428 [label="agency_HE59N3RXM0q5vKu4AXlQZg <= 0.5\ngini = 0.184\nsamples = 1257\nvalue = [223.15, 1957.63]"] ;
423 -> 428 ;
583 [label="gini = 0.18\nsamples = 1184\nvalue = [206.186, 1857.074]"] ;
428 -> 583 ;
584 [label="gini = 0.247\nsamples = 73\nvalue = [16.965, 100.556]"] ;
428 -> 584 ;
424 [label="cause_BrokenVehicle <= 0.5\ngini = 0.183\nsamples = 3310\nvalue = [584.628, 5164.72]"] ;
419 -> 424 ;
473 [label="agency_HE59N3RXM0q5vKu4AXlQZg <= 0.5\ngini = 0.194\nsamples = 3128\nvalue = [584.628, 4775.333]"] ;
424 -> 473 ;
529 [label="cause_Demonstration <= 0.5\ngini = 0.182\nsamples = 2546\nvalue = [448.258, 3977.305]"] ;
473 -> 529 ;
541 [label="cause_EmergencyServices <= 0.5\ngini = 0.212\nsamples = 1055\nvalue = [213.363, 1557.546]"] ;
529 -> 541 ;
603 [label="gini = 0.212\nsamples = 258\nvalue = [52.199, 380.829]"] ;
541 -> 603 ;
604 [label="gini = 0.212\nsamples = 797\nvalue = [161.164, 1176.717]"] ;
541 -> 604 ;
542 [label="gini = 0.161\nsamples = 1491\nvalue = [234.895, 2419.759]"] ;
529 -> 542 ;
530 [label="gini = 0.249\nsamples = 582\nvalue = [136.37, 798.028]"] ;
473 -> 530 ;
474 [label="gini = 0.0\nsamples = 182\nvalue = [0.0, 389.386]"] ;
424 -> 474 ;
420 [label="agency_JfA8Bw8Zp024Kqu4AXiSpQ <= 0.5\ngini = 0.47\nsamples = 491\nvalue = [213.363, 350.876]"] ;
415 -> 420 ;
421 [label="gini = 0.277\nsamples = 271\nvalue = [69.816, 350.876]"] ;
420 -> 421 ;
422 [label="gini = -0.0\nsamples = 220\nvalue = [143.547, 0.0]"] ;
420 -> 422 ;
416 [label="agency_JfA8Bw8Zp024Kqu4AXiSpQ <= 0.5\ngini = 0.36\nsamples = 904\nvalue = [296.229, 962.769]"] ;
401 -> 416 ;
417 [label="gini = 0.0\nsamples = 241\nvalue = [0.0, 515.616]"] ;
416 -> 417 ;
418 [label="gini = 0.479\nsamples = 663\nvalue = [296.229, 447.153]"] ;
416 -> 418 ;
402 [label="effect_SuspensionOfService <= 0.5\ngini = 0.384\nsamples = 612\nvalue = [213.363, 609.754]"] ;
337 -> 402 ;
403 [label="effect_SecuritySpeed <= 0.5\ngini = 0.219\nsamples = 419\nvalue = [87.433, 609.754]"] ;
402 -> 403 ;
441 [label="gini = 0.311\nsamples = 305\nvalue = [87.433, 365.852]"] ;
403 -> 441 ;
442 [label="gini = -0.0\nsamples = 114\nvalue = [0.0, 243.901]"] ;
403 -> 442 ;
404 [label="gini = -0.0\nsamples = 193\nvalue = [125.93, 0.0]"] ;
402 -> 404 ;
338 [label="gini = 0.0\nsamples = 314\nvalue = [0.0, 671.799]"] ;
335 -> 338 ;
336 [label="cause_March <= 0.5\ngini = 0.344\nsamples = 2470\nvalue = [775.154, 2742.821]"] ;
315 -> 336 ;
339 [label="gini = 0.3\nsamples = 1724\nvalue = [478.273, 2120.231]"] ;
336 -> 339 ;
340 [label="gini = 0.437\nsamples = 746\nvalue = [296.881, 622.59]"] ;
336 -> 340 ;
316 [label="gini = 0.0\nsamples = 282\nvalue = [0.0, 603.335]"] ;
307 -> 316 ;
308 [label="gini = 0.0\nsamples = 317\nvalue = [0.0, 678.217]"] ;
275 -> 308 ;
276 [label="gini = 0.0\nsamples = 53\nvalue = [34.582, 0.0]"] ;
203 -> 276 ;
204 [label="gini = 0.0\nsamples = 98\nvalue = [63.944, 0.0]"] ;
183 -> 204 ;
184 [label="gini = 0.0\nsamples = 113\nvalue = [73.731, 0.0]"] ;
143 -> 184 ;
144 [label="cause_StreetWorks <= 0.5\ngini = 0.149\nsamples = 6816\nvalue = [999.61, 11305.045]"] ;
113 -> 144 ;
209 [label="cause_Waterlogging <= 0.5\ngini = 0.143\nsamples = 6741\nvalue = [950.673, 11305.045]"] ;
144 -> 209 ;
223 [label="cause_Demonstration <= 0.5\ngini = 0.131\nsamples = 6530\nvalue = [846.275, 11195.931]"] ;
209 -> 223 ;
431 [label="gini = 0.0\nsamples = 603\nvalue = [0.0, 1290.11]"] ;
223 -> 431 ;
432 [label="agency_JfA8Bw8Zp024Kqu4AXiSpQ <= 0.5\ngini = 0.145\nsamples = 5927\nvalue = [846.275, 9905.821]"] ;
223 -> 432 ;
555 [label="gini = 0.0\nsamples = 68\nvalue = [0.0, 145.485]"] ;
432 -> 555 ;
556 [label="gini = 0.147\nsamples = 5859\nvalue = [846.275, 9760.336]"] ;
432 -> 556 ;
224 [label="agency_HE59N3RXM0q5vKu4AXlQZg <= 0.5\ngini = 0.5\nsamples = 211\nvalue = [104.398, 109.114]"] ;
209 -> 224 ;
225 [label="gini = 0.0\nsamples = 160\nvalue = [104.398, 0.0]"] ;
224 -> 225 ;
226 [label="gini = 0.0\nsamples = 51\nvalue = [0.0, 109.114]"] ;
224 -> 226 ;
210 [label="gini = 0.0\nsamples = 75\nvalue = [48.937, 0.0]"] ;
144 -> 210 ;
114 [label="cause_Overturn <= 0.5\ngini = 0.405\nsamples = 3834\nvalue = [1409.371, 3581.5]"] ;
105 -> 114 ;
117 [label="cause_StreetWorks <= 0.5\ngini = 0.452\nsamples = 3357\nvalue = [1385.882, 2637.987]"] ;
114 -> 117 ;
261 [label="cause_Fire <= 0.5\ngini = 0.465\nsamples = 3206\nvalue = [1372.18, 2359.853]"] ;
117 -> 261 ;
281 [label="agency_JfA8Bw8Zp024Kqu4AXiSpQ <= 0.5\ngini = 0.473\nsamples = 3131\nvalue = [1372.18, 2199.392]"] ;
261 -> 281 ;
329 [label="effect_Delays <= 0.5\ngini = 0.499\nsamples = 634\nvalue = [322.981, 297.389]"] ;
281 -> 329 ;
451 [label="effect_LaneReduction <= 0.5\ngini = 0.47\nsamples = 313\nvalue = [172.257, 104.835]"] ;
329 -> 451 ;
499 [label="gini = 0.434\nsamples = 233\nvalue = [133.107, 62.045]"] ;
451 -> 499 ;
500 [label="gini = 0.499\nsamples = 80\nvalue = [39.149, 42.79]"] ;
451 -> 500 ;
452 [label="cause_EmergencyServices <= 0.5\ngini = 0.493\nsamples = 321\nvalue = [150.724, 192.554]"] ;
329 -> 452 ;
453 [label="gini = 0.307\nsamples = 83\nvalue = [23.49, 100.556]"] ;
452 -> 453 ;
454 [label="gini = 0.487\nsamples = 238\nvalue = [127.235, 91.998]"] ;
452 -> 454 ;
330 [label="effect_Delays <= 0.5\ngini = 0.458\nsamples = 2497\nvalue = [1049.199, 1902.003]"] ;
281 -> 330 ;
331 [label="cause_BrokenVehicle <= 0.5\ngini = 0.471\nsamples = 2406\nvalue = [1049.199, 1707.31]"] ;
330 -> 331 ;
333 [label="cause_Demonstration <= 0.5\ngini = 0.467\nsamples = 2343\nvalue = [1008.092, 1707.31]"] ;
331 -> 333 ;
369 [label="effect_CirculationShutdown <= 0.5\ngini = 0.499\nsamples = 628\nvalue = [308.626, 331.62]"] ;
333 -> 369 ;
373 [label="gini = 0.427\nsamples = 382\nvalue = [148.115, 331.62]"] ;
369 -> 373 ;
374 [label="gini = -0.0\nsamples = 246\nvalue = [160.512, 0.0]"] ;
369 -> 374 ;
370 [label="effect_CirculationShutdown <= 0.5\ngini = 0.447\nsamples = 1715\nvalue = [699.466, 1375.69]"] ;
333 -> 370 ;
371 [label="gini = 0.0\nsamples = 216\nvalue = [140.937, 0.0]"] ;
370 -> 371 ;
372 [label="gini = 0.411\nsamples = 1499\nvalue = [558.529, 1375.69]"] ;
370 -> 372 ;
334 [label="gini = 0.0\nsamples = 63\nvalue = [41.107, 0.0]"] ;
331 -> 334 ;
332 [label="gini = 0.0\nsamples = 91\nvalue = [0.0, 194.693]"] ;
330 -> 332 ;
282 [label="gini = 0.0\nsamples = 75\nvalue = [0.0, 160.461]"] ;
261 -> 282 ;
262 [label="agency_GewRJAw5tUmC4Ku4AX1-SQ <= 0.5\ngini = 0.089\nsamples = 151\nvalue = [13.702, 278.133]"] ;
117 -> 262 ;
537 [label="gini = 0.238\nsamples = 61\nvalue = [13.702, 85.579]"] ;
262 -> 537 ;
538 [label="gini = 0.0\nsamples = 90\nvalue = [0.0, 192.554]"] ;
262 -> 538 ;
118 [label="effect_Delays <= 0.5\ngini = 0.047\nsamples = 477\nvalue = [23.49, 943.513]"] ;
114 -> 118 ;
539 [label="gini = 0.137\nsamples = 173\nvalue = [23.49, 293.11]"] ;
118 -> 539 ;
540 [label="gini = -0.0\nsamples = 304\nvalue = [0.0, 650.404]"] ;
118 -> 540 ;
106 [label="gini = -0.0\nsamples = 212\nvalue = [138.327, 0.0]"] ;
101 -> 106 ;
102 [label="cause_EmergencyServices <= 0.5\ngini = 0.481\nsamples = 1502\nvalue = [674.671, 1001.28]"] ;
45 -> 102 ;
141 [label="effect_TrafficImpact <= 0.5\ngini = 0.5\nsamples = 1353\nvalue = [674.671, 682.496]"] ;
102 -> 141 ;
197 [label="effect_SuspensionOfService <= 0.5\ngini = 0.49\nsamples = 1106\nvalue = [513.507, 682.496]"] ;
141 -> 197 ;
237 [label="effect_Delays <= 0.5\ngini = 0.5\nsamples = 1038\nvalue = [513.507, 537.011]"] ;
197 -> 237 ;
305 [label="effect_InterimService <= 0.5\ngini = 0.496\nsamples = 938\nvalue = [448.258, 537.011]"] ;
237 -> 305 ;
399 [label="effect_RouteDetour <= 0.5\ngini = 0.438\nsamples = 267\nvalue = [106.355, 222.507]"] ;
305 -> 399 ;
521 [label="gini = 0.48\nsamples = 140\nvalue = [62.639, 94.137]"] ;
399 -> 521 ;
522 [label="gini = 0.379\nsamples = 127\nvalue = [43.717, 128.369]"] ;
399 -> 522 ;
400 [label="gini = 0.499\nsamples = 671\nvalue = [341.903, 314.504]"] ;
305 -> 400 ;
306 [label="gini = -0.0\nsamples = 100\nvalue = [65.249, 0.0]"] ;
237 -> 306 ;
238 [label="gini = 0.0\nsamples = 68\nvalue = [0.0, 145.485]"] ;
197 -> 238 ;
198 [label="gini = 0.0\nsamples = 247\nvalue = [161.164, 0.0]"] ;
141 -> 198 ;
142 [label="gini = 0.0\nsamples = 149\nvalue = [0.0, 318.783]"] ;
102 -> 142 ;
46 [label="cause_COVID19 <= 0.5\ngini = 0.089\nsamples = 12802\nvalue = [1161.426, 23581.417]"] ;
25 -> 46 ;
115 [label="effect_HighWaitingTime <= 0.5\ngini = 0.04\nsamples = 9964\nvalue = [418.897, 19944.291]"] ;
46 -> 115 ;
207 [label="cause_Maintenance <= 0.5\ngini = 0.027\nsamples = 9597\nvalue = [272.739, 19638.344]"] ;
115 -> 207 ;
383 [label="gini = -0.0\nsamples = 6695\nvalue = [0.0, 14323.86]"] ;
207 -> 383 ;
384 [label="effect_SuspensionOfService <= 0.5\ngini = 0.093\nsamples = 2902\nvalue = [272.739, 5314.484]"] ;
207 -> 384 ;
385 [label="gini = -0.0\nsamples = 1524\nvalue = [0.0, 3260.577]"] ;
384 -> 385 ;
386 [label="gini = 0.207\nsamples = 1378\nvalue = [272.739, 2053.907]"] ;
384 -> 386 ;
208 [label="gini = 0.438\nsamples = 367\nvalue = [146.157, 305.947]"] ;
115 -> 208 ;
116 [label="effect_Delays <= 0.5\ngini = 0.282\nsamples = 2838\nvalue = [742.53, 3637.127]"] ;
46 -> 116 ;
131 [label="effect_SuspensionOfService <= 0.5\ngini = 0.257\nsamples = 2692\nvalue = [647.267, 3637.127]"] ;
116 -> 131 ;
227 [label="gini = 0.0\nsamples = 546\nvalue = [0.0, 1168.159]"] ;
131 -> 227 ;
228 [label="gini = 0.329\nsamples = 2146\nvalue = [647.267, 2468.967]"] ;
131 -> 228 ;
132 [label="gini = 0.0\nsamples = 146\nvalue = [95.263, 0.0]"] ;
116 -> 132 ;
26 [label="agency_NuuRQ2I1Q0a50Kv-AVKlLA <= 0.5\ngini = 0.436\nsamples = 11064\nvalue = [4384.711, 9293.928]"] ;
21 -> 26 ;
49 [label="effect_Delays <= 0.5\ngini = 0.411\nsamples = 10075\nvalue = [3760.281, 9225.465]"] ;
26 -> 49 ;
171 [label="agency_JUR9bFXmVkWDHqu4AXaY0g <= 0.5\ngini = 0.044\nsamples = 370\nvalue = [16.965, 735.983]"] ;
49 -> 171 ;
501 [label="gini = 0.272\nsamples = 67\nvalue = [16.965, 87.719]"] ;
171 -> 501 ;
502 [label="gini = -0.0\nsamples = 303\nvalue = [0.0, 648.264]"] ;
171 -> 502 ;
172 [label="agency_JUR9bFXmVkWDHqu4AXaY0g <= 0.5\ngini = 0.425\nsamples = 9705\nvalue = [3743.317, 8489.481]"] ;
49 -> 172 ;
173 [label="agency_HE59N3RXM0q5vKu4AXlQZg <= 0.5\ngini = 0.41\nsamples = 9226\nvalue = [3430.776, 8489.481]"] ;
172 -> 173 ;
455 [label="agency_JfA8Bw8Zp024Kqu4AXiSpQ <= 0.5\ngini = 0.412\nsamples = 9088\nvalue = [3399.456, 8296.928]"] ;
173 -> 455 ;
559 [label="gini = 0.398\nsamples = 1709\nvalue = [616.6, 1634.567]"] ;
455 -> 559 ;
560 [label="gini = 0.416\nsamples = 7379\nvalue = [2782.856, 6662.36]"] ;
455 -> 560 ;
456 [label="gini = 0.241\nsamples = 138\nvalue = [31.319, 192.554]"] ;
173 -> 456 ;
174 [label="gini = 0.0\nsamples = 479\nvalue = [312.541, 0.0]"] ;
172 -> 174 ;
50 [label="agency_JfA8Bw8Zp024Kqu4AXiSpQ <= 0.5\ngini = 0.178\nsamples = 989\nvalue = [624.43, 68.464]"] ;
26 -> 50 ;
411 [label="agency_JUR9bFXmVkWDHqu4AXaY0g <= 0.5\ngini = 0.342\nsamples = 406\nvalue = [244.03, 68.464]"] ;
50 -> 411 ;
413 [label="gini = 0.446\nsamples = 85\nvalue = [34.582, 68.464]"] ;
411 -> 413 ;
414 [label="gini = 0.0\nsamples = 321\nvalue = [209.448, 0.0]"] ;
411 -> 414 ;
412 [label="gini = -0.0\nsamples = 583\nvalue = [380.4, 0.0]"] ;
50 -> 412 ;
22 [label="agency_JfA8Bw8Zp024Kqu4AXiSpQ <= 0.5\ngini = 0.499\nsamples = 4725\nvalue = [2303.278, 2556.686]"] ;
7 -> 22 ;
51 [label="cause_Maintenance <= 0.5\ngini = 0.158\nsamples = 661\nvalue = [102.44, 1078.301]"] ;
22 -> 51 ;
195 [label="agency_NuuRQ2I1Q0a50Kv-AVKlLA <= 0.5\ngini = 0.078\nsamples = 574\nvalue = [45.674, 1078.301]"] ;
51 -> 195 ;
205 [label="gini = 0.0\nsamples = 504\nvalue = [0.0, 1078.301]"] ;
195 -> 205 ;
206 [label="gini = -0.0\nsamples = 70\nvalue = [45.674, 0.0]"] ;
195 -> 206 ;
196 [label="gini = -0.0\nsamples = 87\nvalue = [56.766, 0.0]"] ;
51 -> 196 ;
52 [label="agency_GtvOEQAFZ0GtU6u4AXwvPg <= 0.5\ngini = 0.481\nsamples = 4064\nvalue = [2200.838, 1478.385]"] ;
22 -> 52 ;
95 [label="gini = 0.498\nsamples = 3234\nvalue = [1659.274, 1478.385]"] ;
52 -> 95 ;
96 [label="cause_Demonstration <= 0.5\ngini = 0.0\nsamples = 830\nvalue = [541.564, 0.0]"] ;
52 -> 96 ;
607 [label="gini = 0.0\nsamples = 115\nvalue = [75.036, 0.0]"] ;
96 -> 607 ;
608 [label="gini = 0.0\nsamples = 715\nvalue = [466.528, 0.0]"] ;
96 -> 608 ;
8 [label="agency_JUR9bFXmVkWDHqu4AXaY0g <= 0.5\ngini = 0.477\nsamples = 178272\nvalue = [78986.136, 122417.123]"] ;
5 -> 8 ;
11 [label="effect_InterimService <= 0.5\ngini = 0.089\nsamples = 5905\nvalue = [533.082, 10885.706]"] ;
8 -> 11 ;
121 [label="effect_CirculationRestored <= 0.5\ngini = 0.044\nsamples = 5146\nvalue = [234.243, 10241.721]"] ;
11 -> 121 ;
303 [label="agency_HE59N3RXM0q5vKu4AXlQZg <= 0.5\ngini = 0.035\nsamples = 5041\nvalue = [185.959, 10175.397]"] ;
121 -> 303 ;
477 [label="effect_Delays <= 0.5\ngini = 0.023\nsamples = 4512\nvalue = [109.618, 9293.928]"] ;
303 -> 477 ;
553 [label="effect_SecuritySpeed <= 0.5\ngini = 0.039\nsamples = 2659\nvalue = [109.618, 5329.46]"] ;
477 -> 553 ;
577 [label="agency_GtvOEQAFZ0GtU6u4AXwvPg <= 0.5\ngini = 0.045\nsamples = 2339\nvalue = [109.618, 4644.825]"] ;
553 -> 577 ;
585 [label="effect_HighWaitingTime <= 0.5\ngini = 0.049\nsamples = 2175\nvalue = [109.618, 4293.949]"] ;
577 -> 585 ;
589 [label="gini = 0.044\nsamples = 1813\nvalue = [82.213, 3609.313]"] ;
585 -> 589 ;
590 [label="gini = 0.074\nsamples = 362\nvalue = [27.404, 684.636]"] ;
585 -> 590 ;
586 [label="gini = 0.0\nsamples = 164\nvalue = [0.0, 350.876]"] ;
577 -> 586 ;
578 [label="gini = 0.0\nsamples = 320\nvalue = [0.0, 684.636]"] ;
553 -> 578 ;
554 [label="gini = 0.0\nsamples = 1853\nvalue = [0.0, 3964.468]"] ;
477 -> 554 ;
478 [label="effect_SecuritySpeed <= 0.5\ngini = 0.147\nsamples = 529\nvalue = [76.341, 881.468]"] ;
303 -> 478 ;
479 [label="effect_Delays <= 0.5\ngini = 0.22\nsamples = 365\nvalue = [76.341, 530.593]"] ;
478 -> 479 ;
535 [label="gini = 0.313\nsamples = 129\nvalue = [37.192, 154.043]"] ;
479 -> 535 ;
536 [label="gini = 0.171\nsamples = 236\nvalue = [39.149, 376.55]"] ;
479 -> 536 ;
480 [label="gini = 0.0\nsamples = 164\nvalue = [0.0, 350.876]"] ;
478 -> 480 ;
304 [label="gini = 0.488\nsamples = 105\nvalue = [48.284, 66.324]"] ;
121 -> 304 ;
122 [label="agency_JfA8Bw8Zp024Kqu4AXiSpQ <= 0.5\ngini = 0.433\nsamples = 759\nvalue = [298.839, 643.985]"] ;
11 -> 122 ;
285 [label="gini = 0.083\nsamples = 116\nvalue = [9.787, 216.088]"] ;
122 -> 285 ;
286 [label="gini = 0.481\nsamples = 643\nvalue = [289.052, 427.897]"] ;
122 -> 286 ;
12 [label="effect_Delays <= 0.5\ngini = 0.485\nsamples = 172367\nvalue = [78453.055, 111531.417]"] ;
8 -> 12 ;
13 [label="effect_SecuritySpeed <= 0.5\ngini = 0.452\nsamples = 89329\nvalue = [36941.192, 69989.013]"] ;
12 -> 13 ;
17 [label="effect_CirculationRestored <= 0.5\ngini = 0.356\nsamples = 28337\nvalue = [9192.234, 30485.539]"] ;
13 -> 17 ;
39 [label="effect_CirculationShutdown <= 0.5\ngini = 0.338\nsamples = 26630\nvalue = [8233.731, 29976.342]"] ;
17 -> 39 ;
73 [label="effect_SuspensionOfService <= 0.5\ngini = 0.329\nsamples = 25775\nvalue = [7763.94, 29687.511]"] ;
39 -> 73 ;
93 [label="effect_Evacuation <= 0.5\ngini = 0.362\nsamples = 20462\nvalue = [6739.536, 21679.414]"] ;
73 -> 93 ;
163 [label="effect_InterimService <= 0.5\ngini = 0.359\nsamples = 20309\nvalue = [6639.706, 21679.414]"] ;
93 -> 163 ;
247 [label="effect_HighWaitingTime <= 0.5\ngini = 0.364\nsamples = 20065\nvalue = [6639.706, 21157.379]"] ;
163 -> 247 ;
249 [label="gini = 0.0\nsamples = 498\nvalue = [324.938, 0.0]"] ;
247 -> 249 ;
250 [label="gini = 0.354\nsamples = 19567\nvalue = [6314.767, 21157.379]"] ;
247 -> 250 ;
248 [label="gini = 0.0\nsamples = 244\nvalue = [0.0, 522.035]"] ;
163 -> 248 ;
164 [label="gini = 0.0\nsamples = 153\nvalue = [99.83, 0.0]"] ;
93 -> 164 ;
94 [label="gini = 0.201\nsamples = 5313\nvalue = [1024.404, 8008.097]"] ;
73 -> 94 ;
74 [label="gini = 0.472\nsamples = 855\nvalue = [469.79, 288.831]"] ;
39 -> 74 ;
40 [label="gini = 0.453\nsamples = 1707\nvalue = [958.503, 509.198]"] ;
17 -> 40 ;
18 [label="gini = 0.485\nsamples = 60992\nvalue = [27748.958, 39503.474]"] ;
13 -> 18 ;
14 [label="gini = 0.5\nsamples = 83038\nvalue = [41511.862, 41542.404]"] ;
12 -> 14 ;
6 [label="effect_SuspensionOfService <= 0.5\ngini = 0.433\nsamples = 45379\nvalue = [25944.832, 12015.355]"] ;
1 -> 6 ;
19 [label="agency_HE59N3RXM0q5vKu4AXlQZg <= 0.5\ngini = 0.415\nsamples = 44810\nvalue = [25944.832, 10797.987]"] ;
6 -> 19 ;
47 [label="effect_HighWaitingTime <= 0.5\ngini = 0.405\nsamples = 44351\nvalue = [25843.044, 10149.723]"] ;
19 -> 47 ;
61 [label="effect_CirculationRestored <= 0.5\ngini = 0.399\nsamples = 44192\nvalue = [25843.044, 9809.544]"] ;
47 -> 61 ;
67 [label="effect_SecuritySpeed <= 0.5\ngini = 0.394\nsamples = 44063\nvalue = [25843.044, 9533.551]"] ;
61 -> 67 ;
155 [label="agency_JfA8Bw8Zp024Kqu4AXiSpQ <= 0.5\ngini = 0.422\nsamples = 25899\nvalue = [14920.416, 6486.922]"] ;
67 -> 155 ;
377 [label="gini = 0.424\nsamples = 25732\nvalue = [14811.45, 6486.922]"] ;
155 -> 377 ;
378 [label="gini = 0.0\nsamples = 167\nvalue = [108.965, 0.0]"] ;
155 -> 378 ;
156 [label="agency_JUR9bFXmVkWDHqu4AXaY0g <= 0.5\ngini = 0.341\nsamples = 18164\nvalue = [10922.629, 3046.628]"] ;
67 -> 156 ;
221 [label="gini = 0.495\nsamples = 704\nvalue = [368.003, 299.528]"] ;
156 -> 221 ;
222 [label="gini = 0.328\nsamples = 17460\nvalue = [10554.626, 2747.1]"] ;
156 -> 222 ;
68 [label="gini = 0.0\nsamples = 129\nvalue = [0.0, 275.994]"] ;
61 -> 68 ;
62 [label="gini = 0.0\nsamples = 159\nvalue = [0.0, 340.178]"] ;
47 -> 62 ;
48 [label="effect_CirculationRestored <= 0.5\ngini = 0.235\nsamples = 459\nvalue = [101.788, 648.264]"] ;
19 -> 48 ;
251 [label="effect_InterimService <= 0.5\ngini = 0.166\nsamples = 403\nvalue = [65.249, 648.264]"] ;
48 -> 251 ;
487 [label="effect_SecuritySpeed <= 0.5\ngini = 0.113\nsamples = 312\nvalue = [35.234, 551.987]"] ;
251 -> 487 ;
563 [label="gini = 0.141\nsamples = 254\nvalue = [35.234, 427.897]"] ;
487 -> 563 ;
564 [label="gini = -0.0\nsamples = 58\nvalue = [0.0, 124.09]"] ;
487 -> 564 ;
488 [label="gini = 0.362\nsamples = 91\nvalue = [30.014, 96.277]"] ;
251 -> 488 ;
252 [label="gini = -0.0\nsamples = 56\nvalue = [36.539, 0.0]"] ;
48 -> 252 ;
20 [label="agency_JfA8Bw8Zp024Kqu4AXiSpQ <= 0.5\ngini = 0.0\nsamples = 569\nvalue = [0.0, 1217.368]"] ;
6 -> 20 ;
605 [label="gini = 0.0\nsamples = 426\nvalue = [0.0, 911.421]"] ;
20 -> 605 ;
606 [label="gini = 0.0\nsamples = 143\nvalue = [0.0, 305.947]"] ;
20 -> 606 ;
2 [label="agency_JfA8Bw8Zp024Kqu4AXiSpQ <= 0.5\ngini = 0.45\nsamples = 418796\nvalue = [235850.487, 122661.025]"] ;
0 -> 2 [labeldistance=2.5, labelangle=-45, headlabel="False"] ;
3 [label="agency_JUR9bFXmVkWDHqu4AXaY0g <= 0.5\ngini = 0.399\nsamples = 353002\nvalue = [206382.878, 78519.145]"] ;
2 -> 3 ;
9 [label="agency_GtvOEQAFZ0GtU6u4AXwvPg <= 0.5\ngini = 0.383\nsamples = 346422\nvalue = [204313.842, 71225.636]"] ;
3 -> 9 ;
23 [label="cause_BrokenVehicle <= 0.5\ngini = 0.442\nsamples = 79715\nvalue = [45211.462, 22302.005]"] ;
9 -> 23 ;
63 [label="effect_TrafficImpact <= 0.5\ngini = 0.448\nsamples = 77083\nvalue = [43516.302, 22229.262]"] ;
23 -> 63 ;
75 [label="cause_Fire <= 0.5\ngini = 0.435\nsamples = 65875\nvalue = [37608.686, 17620.809]"] ;
63 -> 75 ;
99 [label="cause_GasLeak <= 0.5\ngini = 0.431\nsamples = 65372\nvalue = [37422.075, 17156.54]"] ;
75 -> 99 ;
111 [label="effect_CirculationRestored <= 0.5\ngini = 0.428\nsamples = 65046\nvalue = [37313.11, 16816.362]"] ;
99 -> 111 ;
119 [label="agency_HE59N3RXM0q5vKu4AXlQZg <= 0.5\ngini = 0.432\nsamples = 63836\nvalue = [36523.601, 16816.362]"] ;
111 -> 119 ;
177 [label="cause_EmergencyServices <= 0.5\ngini = 0.425\nsamples = 59948\nvalue = [34465.657, 15245.979]"] ;
119 -> 177 ;
235 [label="cause_Flood <= 0.5\ngini = 0.431\nsamples = 54000\nvalue = [30905.037, 14195.491]"] ;
177 -> 235 ;
265 [label="cause_Demonstration <= 0.5\ngini = 0.433\nsamples = 53573\nvalue = [30626.425, 14195.491]"] ;
235 -> 265 ;
277 [label="effect_CirculationShutdown <= 0.5\ngini = 0.441\nsamples = 42697\nvalue = [24247.062, 11844.196]"] ;
265 -> 277 ;
287 [label="cause_Overturn <= 0.5\ngini = 0.435\nsamples = 39031\nvalue = [22267.417, 10492.04]"] ;
277 -> 287 ;
319 [label="effect_Delays <= 0.5\ngini = 0.432\nsamples = 37692\nvalue = [21554.901, 9963.587]"] ;
287 -> 319 ;
323 [label="cause_StreetWorks <= 0.5\ngini = 0.322\nsamples = 3530\nvalue = [2138.199, 541.29]"] ;
319 -> 323 ;
327 [label="cause_FallenTree <= 0.5\ngini = 0.426\nsamples = 1978\nvalue = [1136.632, 504.919]"] ;
323 -> 327 ;
575 [label="cause_Sinkhole <= 0.5\ngini = 0.423\nsamples = 1887\nvalue = [1086.391, 474.966]"] ;
327 -> 575 ;
579 [label="gini = 0.419\nsamples = 1628\nvalue = [940.233, 400.084]"] ;
575 -> 579 ;
580 [label="gini = 0.448\nsamples = 259\nvalue = [146.157, 74.882]"] ;
575 -> 580 ;
576 [label="gini = 0.468\nsamples = 91\nvalue = [50.241, 29.953]"] ;
327 -> 576 ;
328 [label="effect_LaneReduction <= 0.5\ngini = 0.068\nsamples = 1552\nvalue = [1001.567, 36.371]"] ;
323 -> 328 ;
597 [label="gini = 0.0\nsamples = 99\nvalue = [64.596, 0.0]"] ;
328 -> 597 ;
598 [label="gini = 0.072\nsamples = 1453\nvalue = [936.971, 36.371]"] ;
328 -> 598 ;
324 [label="cause_StreetWorks <= 0.5\ngini = 0.44\nsamples = 34162\nvalue = [19416.702, 9422.297]"] ;
319 -> 324 ;
325 [label="cause_Leak <= 0.5\ngini = 0.433\nsamples = 32737\nvalue = [18706.796, 8701.291]"] ;
324 -> 325 ;
345 [label="cause_HeavyTraffic <= 0.5\ngini = 0.432\nsamples = 32653\nvalue = [18672.867, 8632.827]"] ;
325 -> 345 ;
381 [label="cause_March <= 0.5\ngini = 0.433\nsamples = 32501\nvalue = [18573.689, 8632.827]"] ;
345 -> 381 ;
387 [label="cause_Incident <= 0.5\ngini = 0.434\nsamples = 32362\nvalue = [18482.993, 8632.827]"] ;
381 -> 387 ;
485 [label="cause_Waterlogging <= 0.5\ngini = 0.435\nsamples = 31482\nvalue = [17961.656, 8459.529]"] ;
387 -> 485 ;
497 [label="agency_NuuRQ2I1Q0a50Kv-AVKlLA <= 0.5\ngini = 0.435\nsamples = 31334\nvalue = [17884.663, 8395.344]"] ;
485 -> 497 ;
571 [label="cause_VehicularAccident <= 0.5\ngini = 0.435\nsamples = 30561\nvalue = [17437.057, 8209.209]"] ;
497 -> 571 ;
601 [label="gini = 0.447\nsamples = 67\nvalue = [37.844, 19.255]"] ;
571 -> 601 ;
602 [label="gini = 0.435\nsamples = 30494\nvalue = [17399.213, 8189.953]"] ;
571 -> 602 ;
572 [label="gini = 0.415\nsamples = 773\nvalue = [447.606, 186.135]"] ;
497 -> 572 ;
498 [label="gini = 0.496\nsamples = 148\nvalue = [76.993, 64.185]"] ;
485 -> 498 ;
486 [label="gini = 0.374\nsamples = 880\nvalue = [521.337, 173.298]"] ;
387 -> 486 ;
388 [label="gini = 0.0\nsamples = 139\nvalue = [90.696, 0.0]"] ;
381 -> 388 ;
382 [label="gini = 0.0\nsamples = 152\nvalue = [99.178, 0.0]"] ;
345 -> 382 ;
346 [label="gini = 0.443\nsamples = 84\nvalue = [33.929, 68.464]"] ;
325 -> 346 ;
326 [label="gini = 0.5\nsamples = 1425\nvalue = [709.906, 721.007]"] ;
324 -> 326 ;
320 [label="effect_LaneReduction <= 0.5\ngini = 0.489\nsamples = 1339\nvalue = [712.516, 528.453]"] ;
287 -> 320 ;
321 [label="gini = 0.358\nsamples = 1071\nvalue = [639.437, 194.693]"] ;
320 -> 321 ;
322 [label="gini = 0.295\nsamples = 268\nvalue = [73.079, 333.76]"] ;
320 -> 322 ;
288 [label="agency_NuuRQ2I1Q0a50Kv-AVKlLA <= 0.5\ngini = 0.482\nsamples = 3666\nvalue = [1979.645, 1352.155]"] ;
277 -> 288 ;
289 [label="cause_VehicularAccident <= 0.5\ngini = 0.488\nsamples = 3457\nvalue = [1843.275, 1352.155]"] ;
288 -> 289 ;
357 [label="cause_COVID19 <= 0.5\ngini = 0.491\nsamples = 3358\nvalue = [1778.679, 1352.155]"] ;
289 -> 357 ;
375 [label="cause_Overturn <= 0.5\ngini = 0.487\nsamples = 3260\nvalue = [1742.14, 1262.297]"] ;
357 -> 375 ;
443 [label="cause_March <= 0.5\ngini = 0.489\nsamples = 3210\nvalue = [1709.515, 1262.297]"] ;
375 -> 443 ;
509 [label="cause_StreetWorks <= 0.5\ngini = 0.491\nsamples = 2772\nvalue = [1465.485, 1125.37]"] ;
443 -> 509 ;
543 [label="gini = 0.499\nsamples = 432\nvalue = [219.888, 203.251]"] ;
509 -> 543 ;
544 [label="gini = 0.489\nsamples = 2340\nvalue = [1245.597, 922.119]"] ;
509 -> 544 ;
510 [label="gini = 0.46\nsamples = 438\nvalue = [244.03, 136.927]"] ;
443 -> 510 ;
444 [label="gini = 0.0\nsamples = 50\nvalue = [32.624, 0.0]"] ;
375 -> 444 ;
376 [label="gini = 0.411\nsamples = 98\nvalue = [36.539, 89.858]"] ;
357 -> 376 ;
358 [label="gini = 0.0\nsamples = 99\nvalue = [64.596, 0.0]"] ;
289 -> 358 ;
290 [label="cause_Incident <= 0.5\ngini = 0.0\nsamples = 209\nvalue = [136.37, 0.0]"] ;
288 -> 290 ;
611 [label="gini = 0.0\nsamples = 143\nvalue = [93.306, 0.0]"] ;
290 -> 611 ;
612 [label="gini = 0.0\nsamples = 66\nvalue = [43.064, 0.0]"] ;
290 -> 612 ;
278 [label="agency_NuuRQ2I1Q0a50Kv-AVKlLA <= 0.5\ngini = 0.394\nsamples = 10876\nvalue = [6379.363, 2351.295]"] ;
265 -> 278 ;
279 [label="effect_LaneReduction <= 0.5\ngini = 0.339\nsamples = 8514\nvalue = [5123.326, 1416.34]"] ;
278 -> 279 ;
439 [label="effect_RouteDetour <= 0.5\ngini = 0.344\nsamples = 8315\nvalue = [4993.481, 1416.34]"] ;
279 -> 439 ;
505 [label="effect_Delays <= 0.5\ngini = 0.346\nsamples = 8254\nvalue = [4953.68, 1416.34]"] ;
439 -> 505 ;
581 [label="gini = 0.347\nsamples = 7914\nvalue = [4746.841, 1367.132]"] ;
505 -> 581 ;
582 [label="gini = 0.31\nsamples = 340\nvalue = [206.838, 49.208]"] ;
505 -> 582 ;
506 [label="gini = 0.0\nsamples = 61\nvalue = [39.802, 0.0]"] ;
439 -> 506 ;
440 [label="gini = 0.0\nsamples = 199\nvalue = [129.845, 0.0]"] ;
279 -> 440 ;
280 [label="gini = 0.489\nsamples = 2362\nvalue = [1256.037, 934.955]"] ;
278 -> 280 ;
266 [label="gini = 0.0\nsamples = 427\nvalue = [278.612, 0.0]"] ;
235 -> 266 ;
236 [label="effect_CirculationShutdown <= 0.5\ngini = 0.352\nsamples = 5948\nvalue = [3560.62, 1050.488]"] ;
177 -> 236 ;
245 [label="effect_LaneReduction <= 0.5\ngini = 0.337\nsamples = 5852\nvalue = [3524.734, 962.769]"] ;
236 -> 245 ;
271 [label="agency_NuuRQ2I1Q0a50Kv-AVKlLA <= 0.5\ngini = 0.371\nsamples = 4873\nvalue = [2892.474, 941.374]"] ;
245 -> 271 ;
457 [label="gini = 0.376\nsamples = 4749\nvalue = [2811.566, 941.374]"] ;
271 -> 457 ;
458 [label="gini = 0.0\nsamples = 124\nvalue = [80.908, 0.0]"] ;
271 -> 458 ;
272 [label="gini = 0.063\nsamples = 979\nvalue = [632.26, 21.395]"] ;
245 -> 272 ;
246 [label="gini = 0.412\nsamples = 96\nvalue = [35.887, 87.719]"] ;
236 -> 246 ;
178 [label="cause_Incident <= 0.5\ngini = 0.491\nsamples = 3888\nvalue = [2057.943, 1570.383]"] ;
119 -> 178 ;
179 [label="cause_Demonstration <= 0.5\ngini = 0.471\nsamples = 3494\nvalue = [1920.921, 1176.717]"] ;
178 -> 179 ;
193 [label="cause_VehicularAccident <= 0.5\ngini = 0.418\nsamples = 2646\nvalue = [1529.429, 646.125]"] ;
179 -> 193 ;
311 [label="gini = 0.0\nsamples = 265\nvalue = [172.909, 0.0]"] ;
193 -> 311 ;
312 [label="effect_Delays <= 0.5\ngini = 0.437\nsamples = 2381\nvalue = [1356.52, 646.125]"] ;
193 -> 312 ;
353 [label="gini = 0.0\nsamples = 169\nvalue = [110.27, 0.0]"] ;
312 -> 353 ;
354 [label="gini = 0.45\nsamples = 2212\nvalue = [1246.25, 646.125]"] ;
312 -> 354 ;
194 [label="effect_Delays <= 0.5\ngini = 0.489\nsamples = 848\nvalue = [391.492, 530.593]"] ;
179 -> 194 ;
341 [label="gini = 0.48\nsamples = 791\nvalue = [354.3, 530.593]"] ;
194 -> 341 ;
342 [label="gini = -0.0\nsamples = 57\nvalue = [37.192, 0.0]"] ;
194 -> 342 ;
180 [label="gini = 0.383\nsamples = 394\nvalue = [137.022, 393.665]"] ;
178 -> 180 ;
120 [label="gini = 0.0\nsamples = 1210\nvalue = [789.509, 0.0]"] ;
111 -> 120 ;
112 [label="effect_Delays <= 0.5\ngini = 0.367\nsamples = 326\nvalue = [108.965, 340.178]"] ;
99 -> 112 ;
351 [label="gini = 0.493\nsamples = 103\nvalue = [54.156, 42.79]"] ;
112 -> 351 ;
352 [label="gini = 0.263\nsamples = 223\nvalue = [54.809, 297.389]"] ;
112 -> 352 ;
100 [label="effect_Delays <= 0.5\ngini = 0.409\nsamples = 503\nvalue = [186.611, 464.269]"] ;
75 -> 100 ;
465 [label="gini = 0.497\nsamples = 115\nvalue = [55.461, 64.185]"] ;
100 -> 465 ;
466 [label="gini = 0.372\nsamples = 388\nvalue = [131.15, 400.084]"] ;
100 -> 466 ;
76 [label="cause_Overturn <= 0.5\ngini = 0.492\nsamples = 11208\nvalue = [5907.615, 4608.453]"] ;
63 -> 76 ;
107 [label="agency_HE59N3RXM0q5vKu4AXlQZg <= 0.5\ngini = 0.485\nsamples = 10697\nvalue = [5749.714, 4032.932]"] ;
76 -> 107 ;
157 [label="cause_Incident <= 0.5\ngini = 0.478\nsamples = 10388\nvalue = [5651.841, 3692.753]"] ;
107 -> 157 ;
185 [label="cause_Flood <= 0.5\ngini = 0.473\nsamples = 10246\nvalue = [5619.869, 3493.781]"] ;
157 -> 185 ;
263 [label="cause_Demonstration <= 0.5\ngini = 0.476\nsamples = 9962\nvalue = [5434.563, 3493.781]"] ;
185 -> 263 ;
267 [label="agency_GewRJAw5tUmC4Ku4AX1-SQ <= 0.5\ngini = 0.482\nsamples = 9182\nvalue = [4957.595, 3388.946]"] ;
263 -> 267 ;
347 [label="cause_StreetWorks <= 0.5\ngini = 0.484\nsamples = 8996\nvalue = [4840.147, 3376.109]"] ;
267 -> 347 ;
389 [label="cause_Waterlogging <= 0.5\ngini = 0.487\nsamples = 8250\nvalue = [4408.201, 3196.392]"] ;
347 -> 389 ;
433 [label="cause_EmergencyServices <= 0.5\ngini = 0.488\nsamples = 8190\nvalue = [4369.052, 3196.392]"] ;
389 -> 433 ;
513 [label="cause_VehicularAccident <= 0.5\ngini = 0.49\nsamples = 7031\nvalue = [3733.529, 2800.587]"] ;
433 -> 513 ;
515 [label="agency_NuuRQ2I1Q0a50Kv-AVKlLA <= 0.5\ngini = 0.5\nsamples = 675\nvalue = [335.378, 344.457]"] ;
513 -> 515 ;
517 [label="cause_March <= 0.5\ngini = 0.466\nsamples = 470\nvalue = [201.618, 344.457]"] ;
515 -> 517 ;
557 [label="gini = 0.478\nsamples = 342\nvalue = [152.029, 233.204]"] ;
517 -> 557 ;
558 [label="gini = 0.427\nsamples = 128\nvalue = [49.589, 111.253]"] ;
517 -> 558 ;
518 [label="gini = -0.0\nsamples = 205\nvalue = [133.76, 0.0]"] ;
515 -> 518 ;
516 [label="agency_NuuRQ2I1Q0a50Kv-AVKlLA <= 0.5\ngini = 0.487\nsamples = 6356\nvalue = [3398.151, 2456.13]"] ;
513 -> 516 ;
519 [label="gini = 0.483\nsamples = 6299\nvalue = [3398.151, 2334.179]"] ;
516 -> 519 ;
520 [label="gini = 0.0\nsamples = 57\nvalue = [0.0, 121.951]"] ;
516 -> 520 ;
514 [label="gini = 0.473\nsamples = 1159\nvalue = [635.522, 395.805]"] ;
433 -> 514 ;
434 [label="gini = 0.0\nsamples = 60\nvalue = [39.149, 0.0]"] ;
389 -> 434 ;
390 [label="gini = 0.415\nsamples = 746\nvalue = [431.946, 179.717]"] ;
347 -> 390 ;
348 [label="gini = 0.178\nsamples = 186\nvalue = [117.448, 12.837]"] ;
267 -> 348 ;
268 [label="agency_NuuRQ2I1Q0a50Kv-AVKlLA <= 0.5\ngini = 0.295\nsamples = 780\nvalue = [476.968, 104.835]"] ;
263 -> 268 ;
283 [label="gini = 0.163\nsamples = 689\nvalue = [436.514, 42.79]"] ;
268 -> 283 ;
284 [label="gini = 0.478\nsamples = 91\nvalue = [40.454, 62.045]"] ;
268 -> 284 ;
264 [label="gini = 0.0\nsamples = 284\nvalue = [185.306, 0.0]"] ;
185 -> 264 ;
186 [label="gini = 0.239\nsamples = 142\nvalue = [31.972, 198.972]"] ;
157 -> 186 ;
158 [label="cause_Waterlogging <= 0.5\ngini = 0.347\nsamples = 309\nvalue = [97.873, 340.178]"] ;
107 -> 158 ;
217 [label="cause_StreetWorks <= 0.5\ngini = 0.199\nsamples = 225\nvalue = [43.064, 340.178]"] ;
158 -> 217 ;
219 [label="gini = 0.0\nsamples = 159\nvalue = [0.0, 340.178]"] ;
217 -> 219 ;
220 [label="gini = 0.0\nsamples = 66\nvalue = [43.064, 0.0]"] ;
217 -> 220 ;
218 [label="gini = 0.0\nsamples = 84\nvalue = [54.809, 0.0]"] ;
158 -> 218 ;
108 [label="gini = 0.338\nsamples = 511\nvalue = [157.902, 575.522]"] ;
76 -> 108 ;
64 [label="effect_Delays <= 0.5\ngini = 0.079\nsamples = 2632\nvalue = [1695.161, 72.743]"] ;
23 -> 64 ;
533 [label="gini = 0.0\nsamples = 879\nvalue = [573.536, 0.0]"] ;
64 -> 533 ;
534 [label="gini = 0.114\nsamples = 1753\nvalue = [1121.625, 72.743]"] ;
64 -> 534 ;
24 [label="effect_CirculationShutdown <= 0.5\ngini = 0.36\nsamples = 266707\nvalue = [159102.38, 48923.632]"] ;
9 -> 24 ;
35 [label="cause_Sinkhole <= 0.5\ngini = 0.341\nsamples = 224871\nvalue = [135250.073, 37627.144]"] ;
24 -> 35 ;
53 [label="agency_jLjibFoim0iwWau4AWoEdQ <= 0.5\ngini = 0.338\nsamples = 224421\nvalue = [135109.788, 37124.365]"] ;
35 -> 53 ;
103 [label="cause_Incident <= 0.5\ngini = 0.337\nsamples = 224346\nvalue = [135109.788, 36963.904]"] ;
53 -> 103 ;
133 [label="cause_Waterlogging <= 0.5\ngini = 0.34\nsamples = 219965\nvalue = [132312.577, 36762.792]"] ;
103 -> 133 ;
159 [label="cause_Overturn <= 0.5\ngini = 0.342\nsamples = 217875\nvalue = [130952.795, 36749.955]"] ;
133 -> 159 ;
181 [label="agency_pky7jovXYkaw-awAAMrQ3g <= 0.5\ngini = 0.345\nsamples = 214230\nvalue = [128631.247, 36563.82]"] ;
159 -> 181 ;
187 [label="agency_GewRJAw5tUmC4Ku4AX1-SQ <= 0.5\ngini = 0.344\nsamples = 213897\nvalue = [128480.522, 36345.592]"] ;
181 -> 187 ;
211 [label="cause_Flood <= 0.5\ngini = 0.342\nsamples = 210992\nvalue = [126850.61, 35474.821]"] ;
187 -> 211 ;
241 [label="cause_Fire <= 0.5\ngini = 0.34\nsamples = 210040\nvalue = [126335.798, 35126.085]"] ;
211 -> 241 ;
253 [label="cause_VehicularAccident <= 0.5\ngini = 0.339\nsamples = 207798\nvalue = [125070.626, 34477.821]"] ;
241 -> 253 ;
255 [label="effect_LaneReduction <= 0.5\ngini = 0.314\nsamples = 69454\nvalue = [42198.278, 10228.884]"] ;
253 -> 255 ;
257 [label="cause_March <= 0.5\ngini = 0.3\nsamples = 58436\nvalue = [35683.85, 8016.655]"] ;
255 -> 257 ;
297 [label="effect_Delays <= 0.5\ngini = 0.295\nsamples = 57094\nvalue = [34915.221, 7665.779]"] ;
257 -> 297 ;
299 [label="cause_FallenTree <= 0.5\ngini = 0.25\nsamples = 16776\nvalue = [10401.944, 1784.332]"] ;
297 -> 299 ;
301 [label="cause_BrokenVehicle <= 0.5\ngini = 0.24\nsamples = 16510\nvalue = [10264.922, 1664.52]"] ;
299 -> 301 ;
393 [label="cause_Demonstration <= 0.5\ngini = 0.228\nsamples = 15089\nvalue = [9412.774, 1418.479]"] ;
301 -> 393 ;
395 [label="cause_StreetWorks <= 0.5\ngini = 0.191\nsamples = 9008\nvalue = [5670.763, 678.217]"] ;
393 -> 395 ;
397 [label="cause_EmergencyServices <= 0.5\ngini = 0.168\nsamples = 8154\nvalue = [5159.866, 526.314]"] ;
395 -> 397 ;
405 [label="gini = 0.0\nsamples = 1269\nvalue = [828.006, 0.0]"] ;
397 -> 405 ;
406 [label="gini = 0.193\nsamples = 6885\nvalue = [4331.86, 526.314]"] ;
397 -> 406 ;
398 [label="effect_TrafficImpact <= 0.5\ngini = 0.353\nsamples = 854\nvalue = [510.897, 151.904]"] ;
395 -> 398 ;
565 [label="gini = 0.302\nsamples = 246\nvalue = [150.072, 34.232]"] ;
398 -> 565 ;
566 [label="gini = 0.371\nsamples = 608\nvalue = [360.825, 117.672]"] ;
398 -> 566 ;
396 [label="effect_CirculationRestored <= 0.5\ngini = 0.276\nsamples = 6081\nvalue = [3742.012, 740.262]"] ;
393 -> 396 ;
523 [label="agency_NuuRQ2I1Q0a50Kv-AVKlLA <= 0.5\ngini = 0.302\nsamples = 2878\nvalue = [1755.842, 400.084]"] ;
396 -> 523 ;
567 [label="gini = 0.298\nsamples = 2749\nvalue = [1679.501, 374.41]"] ;
523 -> 567 ;
568 [label="gini = 0.377\nsamples = 129\nvalue = [76.341, 25.674]"] ;
523 -> 568 ;
524 [label="agency_NuuRQ2I1Q0a50Kv-AVKlLA <= 0.5\ngini = 0.25\nsamples = 3203\nvalue = [1986.17, 340.178]"] ;
396 -> 524 ;
525 [label="gini = 0.258\nsamples = 3059\nvalue = [1892.212, 340.178]"] ;
524 -> 525 ;
526 [label="gini = 0.0\nsamples = 144\nvalue = [93.958, 0.0]"] ;
524 -> 526 ;
394 [label="gini = 0.348\nsamples = 1421\nvalue = [852.148, 246.041]"] ;
301 -> 394 ;
302 [label="gini = 0.498\nsamples = 266\nvalue = [137.022, 119.811]"] ;
299 -> 302 ;
300 [label="agency_NuuRQ2I1Q0a50Kv-AVKlLA <= 0.5\ngini = 0.312\nsamples = 40318\nvalue = [24513.276, 5881.448]"] ;
297 -> 300 ;
309 [label="cause_FallenTree <= 0.5\ngini = 0.316\nsamples = 39645\nvalue = [24074.153, 5881.448]"] ;
300 -> 309 ;
361 [label="cause_HeavyTraffic <= 0.5\ngini = 0.318\nsamples = 39217\nvalue = [23794.888, 5881.448]"] ;
309 -> 361 ;
435 [label="cause_Rain <= 0.5\ngini = 0.319\nsamples = 38950\nvalue = [23620.674, 5881.448]"] ;
361 -> 435 ;
449 [label="cause_Leak <= 0.5\ngini = 0.32\nsamples = 38742\nvalue = [23484.957, 5881.448]"] ;
435 -> 449 ;
475 [label="cause_Demonstration <= 0.5\ngini = 0.318\nsamples = 37624\nvalue = [22828.555, 5641.825]"] ;
449 -> 475 ;
489 [label="cause_GasLeak <= 0.5\ngini = 0.322\nsamples = 34086\nvalue = [20651.207, 5211.788]"] ;
475 -> 489 ;
491 [label="cause_StreetWorks <= 0.5\ngini = 0.323\nsamples = 33967\nvalue = [20573.561, 5211.788]"] ;
489 -> 491 ;
511 [label="cause_EmergencyServices <= 0.5\ngini = 0.32\nsamples = 31288\nvalue = [18971.706, 4732.544]"] ;
491 -> 511 ;
593 [label="cause_BrokenVehicle <= 0.5\ngini = 0.317\nsamples = 14383\nvalue = [8730.273, 2145.905]"] ;
511 -> 593 ;
595 [label="gini = 0.0\nsamples = 166\nvalue = [108.313, 0.0]"] ;
593 -> 595 ;
596 [label="gini = 0.319\nsamples = 14217\nvalue = [8621.96, 2145.905]"] ;
593 -> 596 ;
594 [label="gini = 0.322\nsamples = 16905\nvalue = [10241.433, 2586.639]"] ;
511 -> 594 ;
512 [label="gini = 0.355\nsamples = 2679\nvalue = [1601.855, 479.245]"] ;
491 -> 512 ;
492 [label="gini = 0.0\nsamples = 119\nvalue = [77.646, 0.0]"] ;
489 -> 492 ;
490 [label="gini = 0.275\nsamples = 3538\nvalue = [2177.348, 430.037]"] ;
475 -> 490 ;
476 [label="gini = 0.392\nsamples = 1118\nvalue = [656.402, 239.622]"] ;
449 -> 476 ;
450 [label="gini = 0.0\nsamples = 208\nvalue = [135.717, 0.0]"] ;
435 -> 450 ;
436 [label="gini = 0.0\nsamples = 267\nvalue = [174.214, 0.0]"] ;
361 -> 436 ;
362 [label="gini = 0.0\nsamples = 428\nvalue = [279.264, 0.0]"] ;
309 -> 362 ;
310 [label="gini = 0.0\nsamples = 673\nvalue = [439.124, 0.0]"] ;
300 -> 310 ;
298 [label="effect_TrafficImpact <= 0.5\ngini = 0.43\nsamples = 1342\nvalue = [768.629, 350.876]"] ;
257 -> 298 ;
429 [label="gini = 0.328\nsamples = 542\nvalue = [327.548, 85.579]"] ;
298 -> 429 ;
430 [label="gini = 0.469\nsamples = 800\nvalue = [441.081, 265.296]"] ;
298 -> 430 ;
258 [label="cause_BrokenVehicle <= 0.5\ngini = 0.378\nsamples = 11018\nvalue = [6514.428, 2212.229]"] ;
255 -> 258 ;
259 [label="cause_Leak <= 0.5\ngini = 0.405\nsamples = 9641\nvalue = [5615.954, 2212.229]"] ;
258 -> 259 ;
343 [label="cause_FallenTree <= 0.5\ngini = 0.41\nsamples = 9402\nvalue = [5460.009, 2212.229]"] ;
259 -> 343 ;
379 [label="cause_Event <= 0.5\ngini = 0.414\nsamples = 9221\nvalue = [5341.909, 2212.229]"] ;
343 -> 379 ;
469 [label="cause_EmergencyServices <= 0.5\ngini = 0.416\nsamples = 9144\nvalue = [5291.668, 2212.229]"] ;
379 -> 469 ;
471 [label="cause_StreetWorks <= 0.5\ngini = 0.441\nsamples = 3491\nvalue = [1982.907, 967.048]"] ;
469 -> 471 ;
587 [label="gini = 0.433\nsamples = 1242\nvalue = [709.906, 329.481]"] ;
471 -> 587 ;
588 [label="gini = 0.445\nsamples = 2249\nvalue = [1273.002, 637.567]"] ;
471 -> 588 ;
472 [label="gini = 0.397\nsamples = 5653\nvalue = [3308.761, 1245.181]"] ;
469 -> 472 ;
470 [label="gini = 0.0\nsamples = 77\nvalue = [50.241, 0.0]"] ;
379 -> 470 ;
380 [label="gini = 0.0\nsamples = 181\nvalue = [118.1, 0.0]"] ;
343 -> 380 ;
344 [label="gini = 0.0\nsamples = 239\nvalue = [155.944, 0.0]"] ;
259 -> 344 ;
260 [label="gini = 0.0\nsamples = 1377\nvalue = [898.474, 0.0]"] ;
258 -> 260 ;
256 [label="agency_NuuRQ2I1Q0a50Kv-AVKlLA <= 0.5\ngini = 0.35\nsamples = 138344\nvalue = [82872.348, 24248.937]"] ;
253 -> 256 ;
349 [label="effect_LaneReduction <= 0.5\ngini = 0.352\nsamples = 135126\nvalue = [80883.568, 23885.224]"] ;
256 -> 349 ;
359 [label="effect_HighWaitingTime <= 0.5\ngini = 0.355\nsamples = 126696\nvalue = [75744.582, 22699.949]"] ;
349 -> 359 ;
407 [label="effect_Delays <= 0.5\ngini = 0.355\nsamples = 126458\nvalue = [75589.29, 22699.949]"] ;
359 -> 407 ;
493 [label="effect_TrafficImpact <= 0.5\ngini = 0.373\nsamples = 12272\nvalue = [7275.88, 2398.364]"] ;
407 -> 493 ;
569 [label="gini = 0.422\nsamples = 180\nvalue = [103.745, 44.929]"] ;
493 -> 569 ;
570 [label="gini = 0.372\nsamples = 12092\nvalue = [7172.135, 2353.435]"] ;
493 -> 570 ;
494 [label="gini = 0.353\nsamples = 114186\nvalue = [68313.41, 20301.585]"] ;
407 -> 494 ;
408 [label="gini = 0.0\nsamples = 238\nvalue = [155.292, 0.0]"] ;
359 -> 408 ;
360 [label="gini = 0.305\nsamples = 8430\nvalue = [5138.986, 1185.275]"] ;
349 -> 360 ;
350 [label="effect_TrafficImpact <= 0.5\ngini = 0.261\nsamples = 3218\nvalue = [1988.78, 363.713]"] ;
256 -> 350 ;
391 [label="gini = 0.245\nsamples = 3136\nvalue = [1947.021, 325.202]"] ;
350 -> 391 ;
392 [label="gini = 0.499\nsamples = 82\nvalue = [41.759, 38.511]"] ;
350 -> 392 ;
254 [label="effect_CirculationRestored <= 0.5\ngini = 0.448\nsamples = 2242\nvalue = [1265.172, 648.264]"] ;
241 -> 254 ;
273 [label="agency_NuuRQ2I1Q0a50Kv-AVKlLA <= 0.5\ngini = 0.47\nsamples = 1941\nvalue = [1068.773, 648.264]"] ;
254 -> 273 ;
313 [label="effect_TrafficImpact <= 0.5\ngini = 0.481\nsamples = 1784\nvalue = [966.333, 648.264]"] ;
273 -> 313 ;
599 [label="gini = 0.479\nsamples = 1139\nvalue = [618.557, 408.642]"] ;
313 -> 599 ;
600 [label="gini = 0.483\nsamples = 645\nvalue = [347.775, 239.622]"] ;
313 -> 600 ;
314 [label="gini = 0.0\nsamples = 157\nvalue = [102.44, 0.0]"] ;
273 -> 314 ;
274 [label="gini = 0.0\nsamples = 301\nvalue = [196.399, 0.0]"] ;
254 -> 274 ;
242 [label="agency_NuuRQ2I1Q0a50Kv-AVKlLA <= 0.5\ngini = 0.482\nsamples = 952\nvalue = [514.812, 348.736]"] ;
211 -> 242 ;
243 [label="effect_Delays <= 0.5\ngini = 0.372\nsamples = 868\nvalue = [514.812, 169.019]"] ;
242 -> 243 ;
447 [label="gini = 0.403\nsamples = 744\nvalue = [433.904, 169.019]"] ;
243 -> 447 ;
448 [label="gini = -0.0\nsamples = 124\nvalue = [80.908, 0.0]"] ;
243 -> 448 ;
244 [label="gini = -0.0\nsamples = 84\nvalue = [0.0, 179.717]"] ;
242 -> 244 ;
212 [label="effect_Delays <= 0.5\ngini = 0.454\nsamples = 2905\nvalue = [1629.912, 870.771]"] ;
187 -> 212 ;
213 [label="effect_LaneReduction <= 0.5\ngini = 0.0\nsamples = 1622\nvalue = [1058.334, 0.0]"] ;
212 -> 213 ;
609 [label="gini = 0.0\nsamples = 819\nvalue = [534.387, 0.0]"] ;
213 -> 609 ;
610 [label="gini = 0.0\nsamples = 803\nvalue = [523.947, 0.0]"] ;
213 -> 610 ;
214 [label="cause_VehicularAccident <= 0.5\ngini = 0.478\nsamples = 1283\nvalue = [571.578, 870.771]"] ;
212 -> 214 ;
215 [label="cause_BrokenVehicle <= 0.5\ngini = 0.131\nsamples = 355\nvalue = [226.413, 17.116]"] ;
214 -> 215 ;
531 [label="gini = 0.262\nsamples = 151\nvalue = [93.306, 17.116]"] ;
215 -> 531 ;
532 [label="gini = 0.0\nsamples = 204\nvalue = [133.107, 0.0]"] ;
215 -> 532 ;
216 [label="gini = 0.41\nsamples = 928\nvalue = [345.166, 853.655]"] ;
214 -> 216 ;
188 [label="effect_LaneReduction <= 0.5\ngini = 0.483\nsamples = 333\nvalue = [150.724, 218.228]"] ;
181 -> 188 ;
189 [label="effect_Delays <= 0.5\ngini = 0.0\nsamples = 231\nvalue = [150.724, 0.0]"] ;
188 -> 189 ;
615 [label="gini = 0.0\nsamples = 109\nvalue = [71.121, 0.0]"] ;
189 -> 615 ;
616 [label="gini = 0.0\nsamples = 122\nvalue = [79.603, 0.0]"] ;
189 -> 616 ;
190 [label="gini = 0.0\nsamples = 102\nvalue = [0.0, 218.228]"] ;
188 -> 190 ;
182 [label="effect_Delays <= 0.5\ngini = 0.137\nsamples = 3645\nvalue = [2321.548, 186.135]"] ;
159 -> 182 ;
459 [label="gini = 0.0\nsamples = 1006\nvalue = [656.402, 0.0]"] ;
182 -> 459 ;
460 [label="agency_NuuRQ2I1Q0a50Kv-AVKlLA <= 0.5\ngini = 0.181\nsamples = 2639\nvalue = [1665.146, 186.135]"] ;
182 -> 460 ;
481 [label="gini = 0.209\nsamples = 2203\nvalue = [1380.662, 186.135]"] ;
460 -> 481 ;
482 [label="gini = 0.0\nsamples = 436\nvalue = [284.484, 0.0]"] ;
460 -> 482 ;
160 [label="effect_Delays <= 0.5\ngini = 0.019\nsamples = 2090\nvalue = [1359.782, 12.837]"] ;
133 -> 160 ;
573 [label="gini = -0.0\nsamples = 1595\nvalue = [1040.716, 0.0]"] ;
160 -> 573 ;
574 [label="agency_NuuRQ2I1Q0a50Kv-AVKlLA <= 0.5\ngini = 0.074\nsamples = 495\nvalue = [319.066, 12.837]"] ;
160 -> 574 ;
591 [label="gini = 0.091\nsamples = 397\nvalue = [255.122, 12.837]"] ;
574 -> 591 ;
592 [label="gini = 0.0\nsamples = 98\nvalue = [63.944, 0.0]"] ;
574 -> 592 ;
134 [label="effect_Delays <= 0.5\ngini = 0.125\nsamples = 4381\nvalue = [2797.211, 201.112]"] ;
103 -> 134 ;
561 [label="gini = 0.0\nsamples = 221\nvalue = [144.2, 0.0]"] ;
134 -> 561 ;
562 [label="gini = 0.131\nsamples = 4160\nvalue = [2653.011, 201.112]"] ;
134 -> 562 ;
104 [label="gini = -0.0\nsamples = 75\nvalue = [0.0, 160.461]"] ;
53 -> 104 ;
54 [label="effect_CirculationRestored <= 0.5\ngini = 0.341\nsamples = 450\nvalue = [140.285, 502.779]"] ;
35 -> 54 ;
85 [label="gini = 0.0\nsamples = 235\nvalue = [0.0, 502.779]"] ;
54 -> 85 ;
86 [label="gini = -0.0\nsamples = 215\nvalue = [140.285, 0.0]"] ;
54 -> 86 ;
36 [label="cause_EmergencyServices <= 0.5\ngini = 0.436\nsamples = 41836\nvalue = [23852.307, 11296.487]"] ;
24 -> 36 ;
165 [label="agency_pky7jovXYkaw-awAAMrQ3g <= 0.5\ngini = 0.432\nsamples = 41168\nvalue = [23552.163, 10851.474]"] ;
36 -> 165 ;
167 [label="cause_Demonstration <= 0.5\ngini = 0.429\nsamples = 40984\nvalue = [23496.049, 10641.805]"] ;
165 -> 167 ;
291 [label="agency_NuuRQ2I1Q0a50Kv-AVKlLA <= 0.5\ngini = 0.394\nsamples = 11293\nvalue = [6622.741, 2445.433]"] ;
167 -> 291 ;
295 [label="cause_Leak <= 0.5\ngini = 0.406\nsamples = 10604\nvalue = [6173.178, 2445.433]"] ;
291 -> 295 ;
409 [label="cause_March <= 0.5\ngini = 0.409\nsamples = 10449\nvalue = [6072.042, 2445.433]"] ;
295 -> 409 ;
425 [label="cause_StreetWorks <= 0.5\ngini = 0.428\nsamples = 6377\nvalue = [3659.146, 1645.265]"] ;
409 -> 425 ;
467 [label="cause_VehicularAccident <= 0.5\ngini = 0.456\nsamples = 2016\nvalue = [1128.802, 611.893]"] ;
425 -> 467 ;
551 [label="gini = 0.45\nsamples = 1723\nvalue = [970.9, 502.779]"] ;
467 -> 551 ;
552 [label="gini = 0.483\nsamples = 293\nvalue = [157.902, 109.114]"] ;
467 -> 552 ;
468 [label="gini = 0.412\nsamples = 4361\nvalue = [2530.344, 1033.372]"] ;
425 -> 468 ;
426 [label="gini = 0.374\nsamples = 4072\nvalue = [2412.896, 800.168]"] ;
409 -> 426 ;
410 [label="gini = 0.0\nsamples = 155\nvalue = [101.135, 0.0]"] ;
295 -> 410 ;
296 [label="gini = 0.0\nsamples = 689\nvalue = [449.563, 0.0]"] ;
291 -> 296 ;
292 [label="agency_NuuRQ2I1Q0a50Kv-AVKlLA <= 0.5\ngini = 0.44\nsamples = 29691\nvalue = [16873.308, 8196.372]"] ;
167 -> 292 ;
293 [label="agency_GewRJAw5tUmC4Ku4AX1-SQ <= 0.5\ngini = 0.434\nsamples = 28674\nvalue = [16376.114, 7650.803]"] ;
292 -> 293 ;
317 [label="gini = 0.431\nsamples = 28063\nvalue = [16064.225, 7366.251]"] ;
293 -> 317 ;
318 [label="gini = 0.499\nsamples = 611\nvalue = [311.889, 284.552]"] ;
293 -> 318 ;
294 [label="gini = 0.499\nsamples = 1017\nvalue = [497.195, 545.569]"] ;
292 -> 294 ;
168 [label="gini = 0.333\nsamples = 184\nvalue = [56.114, 209.67]"] ;
165 -> 168 ;
166 [label="agency_pky7jovXYkaw-awAAMrQ3g <= 0.5\ngini = 0.481\nsamples = 668\nvalue = [300.144, 445.013]"] ;
36 -> 166 ;
269 [label="gini = 0.45\nsamples = 562\nvalue = [230.98, 445.013]"] ;
166 -> 269 ;
270 [label="gini = -0.0\nsamples = 106\nvalue = [69.164, 0.0]"] ;
166 -> 270 ;
10 [label="effect_Delays <= 0.5\ngini = 0.344\nsamples = 6580\nvalue = [2069.036, 7293.509]"] ;
3 -> 10 ;
27 [label="cause_EmergencyServices <= 0.5\ngini = 0.225\nsamples = 4599\nvalue = [981.34, 6621.71]"] ;
10 -> 27 ;
87 [label="cause_Incident <= 0.5\ngini = 0.2\nsamples = 4383\nvalue = [840.403, 6621.71]"] ;
27 -> 87 ;
199 [label="agency_GewRJAw5tUmC4Ku4AX1-SQ <= 0.5\ngini = 0.151\nsamples = 3603\nvalue = [535.039, 5954.19]"] ;
87 -> 199 ;
363 [label="agency_GtvOEQAFZ0GtU6u4AXwvPg <= 0.5\ngini = 0.184\nsamples = 3006\nvalue = [535.039, 4676.917]"] ;
199 -> 363 ;
365 [label="gini = 0.103\nsamples = 1987\nvalue = [206.186, 3575.081]"] ;
363 -> 365 ;
366 [label="effect_LaneReduction <= 0.5\ngini = 0.354\nsamples = 1019\nvalue = [328.853, 1101.835]"] ;
363 -> 366 ;
367 [label="gini = 0.0\nsamples = 504\nvalue = [328.853, 0.0]"] ;
366 -> 367 ;
368 [label="gini = -0.0\nsamples = 515\nvalue = [0.0, 1101.835]"] ;
366 -> 368 ;
364 [label="gini = 0.0\nsamples = 597\nvalue = [0.0, 1277.273]"] ;
199 -> 364 ;
200 [label="agency_GtvOEQAFZ0GtU6u4AXwvPg <= 0.5\ngini = 0.431\nsamples = 780\nvalue = [305.364, 667.52]"] ;
87 -> 200 ;
201 [label="gini = -0.0\nsamples = 468\nvalue = [305.364, 0.0]"] ;
200 -> 201 ;
202 [label="gini = -0.0\nsamples = 312\nvalue = [0.0, 667.52]"] ;
200 -> 202 ;
88 [label="gini = 0.0\nsamples = 216\nvalue = [140.937, 0.0]"] ;
27 -> 88 ;
28 [label="cause_Fire <= 0.5\ngini = 0.472\nsamples = 1981\nvalue = [1087.695, 671.799]"] ;
10 -> 28 ;
57 [label="agency_GewRJAw5tUmC4Ku4AX1-SQ <= 0.5\ngini = 0.341\nsamples = 1809\nvalue = [1087.695, 303.807]"] ;
28 -> 57 ;
59 [label="gini = -0.0\nsamples = 1667\nvalue = [1087.695, 0.0]"] ;
57 -> 59 ;
60 [label="gini = -0.0\nsamples = 142\nvalue = [0.0, 303.807]"] ;
57 -> 60 ;
58 [label="gini = -0.0\nsamples = 172\nvalue = [0.0, 367.992]"] ;
28 -> 58 ;
4 [label="effect_CirculationRestored <= 0.5\ngini = 0.48\nsamples = 65794\nvalue = [29467.609, 44141.88]"] ;
2 -> 4 ;
15 [label="effect_CirculationShutdown <= 0.5\ngini = 0.461\nsamples = 56493\nvalue = [23908.421, 42470.941]"] ;
4 -> 15 ;
29 [label="agency_GtvOEQAFZ0GtU6u4AXwvPg <= 0.5\ngini = 0.488\nsamples = 34860\nvalue = [16040.735, 21985.361]"] ;
15 -> 29 ;
31 [label="cause_Demonstration <= 0.5\ngini = 0.408\nsamples = 17486\nvalue = [6468.102, 16202.329]"] ;
29 -> 31 ;
33 [label="cause_Flood <= 0.5\ngini = 0.37\nsamples = 15480\nvalue = [5210.76, 16033.31]"] ;
31 -> 33 ;
69 [label="cause_VehicularAccident <= 0.5\ngini = 0.362\nsamples = 15137\nvalue = [4986.957, 16033.31]"] ;
33 -> 69 ;
109 [label="effect_Delays <= 0.5\ngini = 0.446\nsamples = 5408\nvalue = [2200.185, 4355.994]"] ;
69 -> 109 ;
123 [label="cause_Incident <= 0.5\ngini = 0.379\nsamples = 3025\nvalue = [1040.716, 3059.465]"] ;
109 -> 123 ;
127 [label="cause_Pilgrimage <= 0.5\ngini = 0.356\nsamples = 2844\nvalue = [922.616, 3059.465]"] ;
123 -> 127 ;
129 [label="cause_StreetWorks <= 0.5\ngini = 0.33\nsamples = 2668\nvalue = [807.779, 3059.465]"] ;
127 -> 129 ;
229 [label="cause_March <= 0.5\ngini = 0.272\nsamples = 2003\nvalue = [507.635, 2620.871]"] ;
129 -> 229 ;
233 [label="cause_EmergencyServices <= 0.5\ngini = 0.097\nsamples = 869\nvalue = [85.476, 1578.941]"] ;
229 -> 233 ;
527 [label="gini = 0.0\nsamples = 203\nvalue = [0.0, 434.316]"] ;
233 -> 527 ;
528 [label="gini = 0.129\nsamples = 666\nvalue = [85.476, 1144.625]"] ;
233 -> 528 ;
234 [label="gini = 0.41\nsamples = 1134\nvalue = [422.159, 1041.93]"] ;
229 -> 234 ;
230 [label="agency_GewRJAw5tUmC4Ku4AX1-SQ <= 0.5\ngini = 0.482\nsamples = 665\nvalue = [300.144, 438.595]"] ;
129 -> 230 ;
231 [label="gini = -0.0\nsamples = 460\nvalue = [300.144, 0.0]"] ;
230 -> 231 ;
232 [label="gini = -0.0\nsamples = 205\nvalue = [0.0, 438.595]"] ;
230 -> 232 ;
130 [label="gini = 0.0\nsamples = 176\nvalue = [114.838, 0.0]"] ;
127 -> 130 ;
128 [label="effect_TrafficImpact <= 0.5\ngini = 0.0\nsamples = 181\nvalue = [118.1, 0.0]"] ;
123 -> 128 ;
613 [label="gini = 0.0\nsamples = 115\nvalue = [75.036, 0.0]"] ;
128 -> 613 ;
614 [label="gini = 0.0\nsamples = 66\nvalue = [43.064, 0.0]"] ;
128 -> 614 ;
124 [label="agency_NuuRQ2I1Q0a50Kv-AVKlLA <= 0.5\ngini = 0.498\nsamples = 2383\nvalue = [1159.469, 1296.529]"] ;
109 -> 124 ;
149 [label="cause_EmergencyServices <= 0.5\ngini = 0.492\nsamples = 1962\nvalue = [1036.149, 800.168]"] ;
124 -> 149 ;
151 [label="cause_Fire <= 0.5\ngini = 0.339\nsamples = 1120\nvalue = [674.019, 186.135]"] ;
149 -> 151 ;
153 [label="gini = -0.0\nsamples = 1033\nvalue = [674.019, 0.0]"] ;
151 -> 153 ;
154 [label="gini = -0.0\nsamples = 87\nvalue = [0.0, 186.135]"] ;
151 -> 154 ;
152 [label="gini = 0.467\nsamples = 842\nvalue = [362.13, 614.033]"] ;
149 -> 152 ;
150 [label="cause_Waterlogging <= 0.5\ngini = 0.319\nsamples = 421\nvalue = [123.32, 496.361]"] ;
124 -> 150 ;
437 [label="gini = 0.377\nsamples = 360\nvalue = [123.32, 365.852]"] ;
150 -> 437 ;
438 [label="gini = -0.0\nsamples = 61\nvalue = [0.0, 130.509]"] ;
150 -> 438 ;
110 [label="effect_TrafficImpact <= 0.5\ngini = 0.311\nsamples = 9729\nvalue = [2786.771, 11677.316]"] ;
69 -> 110 ;
239 [label="agency_NuuRQ2I1Q0a50Kv-AVKlLA <= 0.5\ngini = 0.329\nsamples = 8951\nvalue = [2701.948, 10290.929]"] ;
110 -> 239 ;
355 [label="gini = 0.324\nsamples = 8678\nvalue = [2579.28, 10109.072]"] ;
239 -> 355 ;
356 [label="gini = 0.481\nsamples = 273\nvalue = [122.668, 181.856]"] ;
239 -> 356 ;
240 [label="gini = 0.109\nsamples = 778\nvalue = [84.823, 1386.387]"] ;
110 -> 240 ;
70 [label="gini = 0.0\nsamples = 343\nvalue = [223.803, 0.0]"] ;
33 -> 70 ;
34 [label="effect_Delays <= 0.5\ngini = 0.209\nsamples = 2006\nvalue = [1257.342, 169.019]"] ;
31 -> 34 ;
65 [label="gini = -0.0\nsamples = 1927\nvalue = [1257.342, 0.0]"] ;
34 -> 65 ;
66 [label="gini = -0.0\nsamples = 79\nvalue = [0.0, 169.019]"] ;
34 -> 66 ;
32 [label="agency_NuuRQ2I1Q0a50Kv-AVKlLA <= 0.5\ngini = 0.47\nsamples = 17374\nvalue = [9572.634, 5783.031]"] ;
29 -> 32 ;
43 [label="effect_TrafficImpact <= 0.5\ngini = 0.487\nsamples = 14928\nvalue = [7976.651, 5783.031]"] ;
32 -> 43 ;
71 [label="effect_Delays <= 0.5\ngini = 0.417\nsamples = 6280\nvalue = [3632.394, 1525.454]"] ;
43 -> 71 ;
135 [label="gini = 0.0\nsamples = 1013\nvalue = [660.969, 0.0]"] ;
71 -> 135 ;
136 [label="cause_VehicularAccident <= 0.5\ngini = 0.448\nsamples = 5267\nvalue = [2971.425, 1525.454]"] ;
71 -> 136 ;
137 [label="cause_Demonstration <= 0.5\ngini = 0.325\nsamples = 2601\nvalue = [1573.798, 404.363]"] ;
136 -> 137 ;
139 [label="cause_EmergencyServices <= 0.5\ngini = 0.208\nsamples = 2376\nvalue = [1489.627, 198.972]"] ;
137 -> 139 ;
175 [label="gini = -0.0\nsamples = 1821\nvalue = [1188.178, 0.0]"] ;
139 -> 175 ;
176 [label="gini = 0.479\nsamples = 555\nvalue = [301.449, 198.972]"] ;
139 -> 176 ;
140 [label="gini = 0.412\nsamples = 225\nvalue = [84.171, 205.391]"] ;
137 -> 140 ;
138 [label="gini = 0.494\nsamples = 2666\nvalue = [1397.627, 1121.091]"] ;
136 -> 138 ;
72 [label="cause_StreetWorks <= 0.5\ngini = 0.5\nsamples = 8648\nvalue = [4344.257, 4257.578]"] ;
43 -> 72 ;
83 [label="cause_Incident <= 0.5\ngini = 0.499\nsamples = 7975\nvalue = [3905.133, 4257.578]"] ;
72 -> 83 ;
97 [label="cause_Rain <= 0.5\ngini = 0.496\nsamples = 7423\nvalue = [3544.961, 4257.578]"] ;
83 -> 97 ;
145 [label="cause_CycleRide <= 0.5\ngini = 0.493\nsamples = 7107\nvalue = [3338.775, 4257.578]"] ;
97 -> 145 ;
147 [label="cause_BrokenVehicle <= 0.5\ngini = 0.488\nsamples = 6794\nvalue = [3134.547, 4257.578]"] ;
145 -> 147 ;
161 [label="cause_March <= 0.5\ngini = 0.484\nsamples = 6529\nvalue = [2961.638, 4257.578]"] ;
147 -> 161 ;
495 [label="gini = 0.474\nsamples = 2513\nvalue = [1102.703, 1760.797]"] ;
161 -> 495 ;
496 [label="gini = 0.489\nsamples = 4016\nvalue = [1858.935, 2496.78]"] ;
161 -> 496 ;
162 [label="gini = 0.0\nsamples = 265\nvalue = [172.909, 0.0]"] ;
147 -> 162 ;
148 [label="gini = 0.0\nsamples = 313\nvalue = [204.228, 0.0]"] ;
145 -> 148 ;
146 [label="gini = 0.0\nsamples = 316\nvalue = [206.186, 0.0]"] ;
97 -> 146 ;
98 [label="gini = 0.0\nsamples = 552\nvalue = [360.173, 0.0]"] ;
83 -> 98 ;
84 [label="gini = 0.0\nsamples = 673\nvalue = [439.124, 0.0]"] ;
72 -> 84 ;
44 [label="gini = 0.0\nsamples = 2446\nvalue = [1595.983, 0.0]"] ;
32 -> 44 ;
30 [label="cause_Demonstration <= 0.5\ngini = 0.401\nsamples = 21633\nvalue = [7867.686, 20485.581]"] ;
15 -> 30 ;
37 [label="agency_GtvOEQAFZ0GtU6u4AXwvPg <= 0.5\ngini = 0.48\nsamples = 2928\nvalue = [1588.153, 1056.906]"] ;
30 -> 37 ;
41 [label="cause_Event <= 0.5\ngini = 0.253\nsamples = 541\nvalue = [128.54, 735.983]"] ;
37 -> 41 ;
191 [label="cause_StreetWorks <= 0.5\ngini = 0.147\nsamples = 442\nvalue = [63.944, 735.983]"] ;
41 -> 191 ;
483 [label="gini = 0.23\nsamples = 293\nvalue = [63.944, 417.2]"] ;
191 -> 483 ;
484 [label="gini = -0.0\nsamples = 149\nvalue = [0.0, 318.783]"] ;
191 -> 484 ;
192 [label="gini = -0.0\nsamples = 99\nvalue = [64.596, 0.0]"] ;
41 -> 192 ;
42 [label="agency_NuuRQ2I1Q0a50Kv-AVKlLA <= 0.5\ngini = 0.296\nsamples = 2387\nvalue = [1459.613, 320.923]"] ;
37 -> 42 ;
55 [label="gini = 0.0\nsamples = 2129\nvalue = [1389.144, 0.0]"] ;
42 -> 55 ;
56 [label="cause_Incident <= 0.5\ngini = 0.295\nsamples = 258\nvalue = [70.469, 320.923]"] ;
42 -> 56 ;
169 [label="gini = -0.0\nsamples = 150\nvalue = [0.0, 320.923]"] ;
56 -> 169 ;
170 [label="gini = 0.0\nsamples = 108\nvalue = [70.469, 0.0]"] ;
56 -> 170 ;
38 [label="agency_JUR9bFXmVkWDHqu4AXaY0g <= 0.5\ngini = 0.369\nsamples = 18705\nvalue = [6279.533, 19428.674]"] ;
30 -> 38 ;
81 [label="agency_NuuRQ2I1Q0a50Kv-AVKlLA <= 0.5\ngini = 0.388\nsamples = 17842\nvalue = [6279.533, 17582.298]"] ;
38 -> 81 ;
89 [label="agency_GtvOEQAFZ0GtU6u4AXwvPg <= 0.5\ngini = 0.419\nsamples = 14655\nvalue = [5569.627, 13091.516]"] ;
81 -> 89 ;
507 [label="gini = 0.43\nsamples = 5197\nvalue = [2029.234, 4465.108]"] ;
89 -> 507 ;
508 [label="gini = 0.413\nsamples = 9458\nvalue = [3540.393, 8626.408]"] ;
89 -> 508 ;
90 [label="agency_GtvOEQAFZ0GtU6u4AXwvPg <= 0.5\ngini = 0.236\nsamples = 3187\nvalue = [709.906, 4490.782]"] ;
81 -> 90 ;
91 [label="gini = 0.492\nsamples = 1519\nvalue = [709.906, 922.119]"] ;
90 -> 91 ;
92 [label="gini = 0.0\nsamples = 1668\nvalue = [0.0, 3568.663]"] ;
90 -> 92 ;
82 [label="gini = 0.0\nsamples = 863\nvalue = [0.0, 1846.377]"] ;
38 -> 82 ;
16 [label="agency_GtvOEQAFZ0GtU6u4AXwvPg <= 0.5\ngini = 0.355\nsamples = 9301\nvalue = [5559.187, 1670.939]"] ;
4 -> 16 ;
77 [label="gini = 0.0\nsamples = 2679\nvalue = [1748.012, 0.0]"] ;
16 -> 77 ;
78 [label="agency_NuuRQ2I1Q0a50Kv-AVKlLA <= 0.5\ngini = 0.424\nsamples = 6622\nvalue = [3811.175, 1670.939]"] ;
16 -> 78 ;
79 [label="cause_Demonstration <= 0.5\ngini = 0.37\nsamples = 6011\nvalue = [3569.103, 1157.462]"] ;
78 -> 79 ;
125 [label="gini = 0.454\nsamples = 330\nvalue = [137.022, 256.738]"] ;
79 -> 125 ;
126 [label="gini = 0.329\nsamples = 5681\nvalue = [3432.081, 900.724]"] ;
79 -> 126 ;
80 [label="gini = 0.435\nsamples = 611\nvalue = [242.073, 513.477]"] ;
78 -> 80 ;
}