digraph Tree {
node [shape=box] ;
0 [label="agency_zCy9zG00HEqGeKu4AWZYNQ <= 0.5\ngini = 0.071\nsamples = 726978\nvalue = [700017, 26961]"] ;
1 [label="cause_Fire <= 0.5\ngini = 0.092\nsamples = 306780\nvalue = [291884, 14896]"] ;
0 -> 1 [labeldistance=2.5, labelangle=45, headlabel="True"] ;
3 [label="effect_SuspensionOfService <= 0.5\ngini = 0.09\nsamples = 301652\nvalue = [287340, 14312]"] ;
1 -> 3 ;
7 [label="agency_HE59N3RXM0q5vKu4AXlQZg <= 0.5\ngini = 0.086\nsamples = 262210\nvalue = [250415, 11795]"] ;
3 -> 7 ;
9 [label="cause_Rain <= 0.5\ngini = 0.085\nsamples = 259263\nvalue = [247721, 11542]"] ;
7 -> 9 ;
15 [label="effect_InterimService <= 0.5\ngini = 0.088\nsamples = 214727\nvalue = [204867, 9860]"] ;
9 -> 15 ;
17 [label="agency_JfA8Bw8Zp024Kqu4AXiSpQ <= 0.5\ngini = 0.087\nsamples = 205321\nvalue = [196016, 9305]"] ;
15 -> 17 ;
29 [label="effect_HighWaitingTime <= 0.5\ngini = 0.085\nsamples = 173190\nvalue = [165509, 7681]"] ;
17 -> 29 ;
35 [label="agency_GewRJAw5tUmC4Ku4AX1-SQ <= 0.5\ngini = 0.083\nsamples = 153471\nvalue = [146792, 6679]"] ;
29 -> 35 ;
45 [label="cause_Flood <= 0.5\ngini = 0.083\nsamples = 153327\nvalue = [146664, 6663]"] ;
35 -> 45 ;
59 [label="cause_Event <= 0.5\ngini = 0.083\nsamples = 153235\nvalue = [146583, 6652]"] ;
45 -> 59 ;
61 [label="cause_COVID19 <= 0.5\ngini = 0.083\nsamples = 152831\nvalue = [146211, 6620]"] ;
59 -> 61 ;
113 [label="agency_jLjibFoim0iwWau4AWoEdQ <= 0.5\ngini = 0.083\nsamples = 152128\nvalue = [145551, 6577]"] ;
61 -> 113 ;
131 [label="cause_Demonstration <= 0.5\ngini = 0.083\nsamples = 152079\nvalue = [145507, 6572]"] ;
113 -> 131 ;
157 [label="cause_BrokenVehicle <= 0.5\ngini = 0.083\nsamples = 151476\nvalue = [144921, 6555]"] ;
131 -> 157 ;
233 [label="effect_SecuritySpeed <= 0.5\ngini = 0.083\nsamples = 151429\nvalue = [144878, 6551]"] ;
157 -> 233 ;
235 [label="cause_VehicularAccident <= 0.5\ngini = 0.082\nsamples = 90220\nvalue = [86372, 3848]"] ;
233 -> 235 ;
237 [label="agency_JUR9bFXmVkWDHqu4AXaY0g <= 0.5\ngini = 0.081\nsamples = 87585\nvalue = [83865, 3720]"] ;
235 -> 237 ;
243 [label="cause_StreetWorks <= 0.5\ngini = 0.059\nsamples = 529\nvalue = [513, 16]"] ;
237 -> 243 ;
251 [label="cause_EmergencyServices <= 0.5\ngini = 0.05\nsamples = 465\nvalue = [453, 12]"] ;
243 -> 251 ;
269 [label="effect_TrafficImpact <= 0.5\ngini = 0.026\nsamples = 226\nvalue = [223, 3]"] ;
251 -> 269 ;
503 [label="cause_Leak <= 0.5\ngini = 0.02\nsamples = 201\nvalue = [199, 2]"] ;
269 -> 503 ;
505 [label="agency_GtvOEQAFZ0GtU6u4AXwvPg <= 0.5\ngini = 0.011\nsamples = 174\nvalue = [173, 1]"] ;
503 -> 505 ;
551 [label="effect_CirculationShutdown <= 0.5\ngini = 0.042\nsamples = 47\nvalue = [46, 1]"] ;
505 -> 551 ;
553 [label="gini = 0.0\nsamples = 34\nvalue = [34, 0]"] ;
551 -> 553 ;
554 [label="gini = 0.142\nsamples = 13\nvalue = [12, 1]"] ;
551 -> 554 ;
552 [label="gini = 0.0\nsamples = 127\nvalue = [127, 0]"] ;
505 -> 552 ;
506 [label="gini = 0.071\nsamples = 27\nvalue = [26, 1]"] ;
503 -> 506 ;
504 [label="gini = 0.077\nsamples = 25\nvalue = [24, 1]"] ;
269 -> 504 ;
270 [label="gini = 0.072\nsamples = 239\nvalue = [230, 9]"] ;
251 -> 270 ;
252 [label="effect_Delays <= 0.5\ngini = 0.117\nsamples = 64\nvalue = [60, 4]"] ;
243 -> 252 ;
625 [label="gini = 0.0\nsamples = 2\nvalue = [2, 0]"] ;
252 -> 625 ;
626 [label="gini = 0.121\nsamples = 62\nvalue = [58, 4]"] ;
252 -> 626 ;
244 [label="effect_CirculationShutdown <= 0.5\ngini = 0.081\nsamples = 87056\nvalue = [83352, 3704]"] ;
237 -> 244 ;
389 [label="cause_Incident <= 0.5\ngini = 0.081\nsamples = 86197\nvalue = [82535, 3662]"] ;
244 -> 389 ;
569 [label="cause_Maintenance <= 0.5\ngini = 0.092\nsamples = 391\nvalue = [372, 19]"] ;
389 -> 569 ;
791 [label="gini = 0.094\nsamples = 304\nvalue = [289, 15]"] ;
569 -> 791 ;
792 [label="gini = 0.088\nsamples = 87\nvalue = [83, 4]"] ;
569 -> 792 ;
570 [label="effect_Evacuation <= 0.5\ngini = 0.081\nsamples = 85806\nvalue = [82163, 3643]"] ;
389 -> 570 ;
759 [label="effect_CirculationRestored <= 0.5\ngini = 0.081\nsamples = 85653\nvalue = [82016, 3637]"] ;
570 -> 759 ;
801 [label="effect_Delays <= 0.5\ngini = 0.081\nsamples = 83935\nvalue = [80372, 3563]"] ;
759 -> 801 ;
849 [label="gini = 0.081\nsamples = 498\nvalue = [477, 21]"] ;
801 -> 849 ;
850 [label="gini = 0.081\nsamples = 83437\nvalue = [79895, 3542]"] ;
801 -> 850 ;
802 [label="gini = 0.082\nsamples = 1718\nvalue = [1644, 74]"] ;
759 -> 802 ;
760 [label="gini = 0.075\nsamples = 153\nvalue = [147, 6]"] ;
570 -> 760 ;
390 [label="gini = 0.093\nsamples = 859\nvalue = [817, 42]"] ;
244 -> 390 ;
238 [label="agency_GtvOEQAFZ0GtU6u4AXwvPg <= 0.5\ngini = 0.092\nsamples = 2635\nvalue = [2507, 128]"] ;
235 -> 238 ;
345 [label="agency_NuuRQ2I1Q0a50Kv-AVKlLA <= 0.5\ngini = 0.082\nsamples = 866\nvalue = [829, 37]"] ;
238 -> 345 ;
349 [label="gini = 0.095\nsamples = 481\nvalue = [457, 24]"] ;
345 -> 349 ;
350 [label="agency_JUR9bFXmVkWDHqu4AXaY0g <= 0.5\ngini = 0.065\nsamples = 385\nvalue = [372, 13]"] ;
345 -> 350 ;
443 [label="gini = 0.031\nsamples = 64\nvalue = [63, 1]"] ;
350 -> 443 ;
444 [label="gini = 0.072\nsamples = 321\nvalue = [309, 12]"] ;
350 -> 444 ;
346 [label="agency_NuuRQ2I1Q0a50Kv-AVKlLA <= 0.5\ngini = 0.098\nsamples = 1769\nvalue = [1678, 91]"] ;
238 -> 346 ;
347 [label="effect_TrafficImpact <= 0.5\ngini = 0.096\nsamples = 1747\nvalue = [1659, 88]"] ;
346 -> 347 ;
451 [label="effect_LaneReduction <= 0.5\ngini = 0.095\nsamples = 1737\nvalue = [1650, 87]"] ;
347 -> 451 ;
577 [label="gini = 0.096\nsamples = 1680\nvalue = [1595, 85]"] ;
451 -> 577 ;
578 [label="gini = 0.068\nsamples = 57\nvalue = [55, 2]"] ;
451 -> 578 ;
452 [label="gini = 0.18\nsamples = 10\nvalue = [9, 1]"] ;
347 -> 452 ;
348 [label="gini = 0.236\nsamples = 22\nvalue = [19, 3]"] ;
346 -> 348 ;
236 [label="gini = 0.084\nsamples = 61209\nvalue = [58506, 2703]"] ;
233 -> 236 ;
234 [label="gini = 0.156\nsamples = 47\nvalue = [43, 4]"] ;
157 -> 234 ;
158 [label="effect_Delays <= 0.5\ngini = 0.055\nsamples = 603\nvalue = [586, 17]"] ;
131 -> 158 ;
337 [label="effect_CirculationRestored <= 0.5\ngini = 0.06\nsamples = 549\nvalue = [532, 17]"] ;
158 -> 337 ;
477 [label="effect_TrafficImpact <= 0.5\ngini = 0.065\nsamples = 479\nvalue = [463, 16]"] ;
337 -> 477 ;
479 [label="agency_GtvOEQAFZ0GtU6u4AXwvPg <= 0.5\ngini = 0.067\nsamples = 458\nvalue = [442, 16]"] ;
477 -> 479 ;
617 [label="effect_CirculationShutdown <= 0.5\ngini = 0.076\nsamples = 229\nvalue = [220, 9]"] ;
479 -> 617 ;
871 [label="gini = 0.076\nsamples = 127\nvalue = [122, 5]"] ;
617 -> 871 ;
872 [label="gini = 0.075\nsamples = 102\nvalue = [98, 4]"] ;
617 -> 872 ;
618 [label="effect_LaneReduction <= 0.5\ngini = 0.059\nsamples = 229\nvalue = [222, 7]"] ;
479 -> 618 ;
697 [label="gini = 0.055\nsamples = 176\nvalue = [171, 5]"] ;
618 -> 697 ;
698 [label="gini = 0.073\nsamples = 53\nvalue = [51, 2]"] ;
618 -> 698 ;
480 [label="gini = 0.0\nsamples = 21\nvalue = [21, 0]"] ;
477 -> 480 ;
478 [label="agency_GtvOEQAFZ0GtU6u4AXwvPg <= 0.5\ngini = 0.028\nsamples = 70\nvalue = [69, 1]"] ;
337 -> 478 ;
651 [label="gini = 0.0\nsamples = 20\nvalue = [20, 0]"] ;
478 -> 651 ;
652 [label="gini = 0.039\nsamples = 50\nvalue = [49, 1]"] ;
478 -> 652 ;
338 [label="gini = 0.0\nsamples = 54\nvalue = [54, 0]"] ;
158 -> 338 ;
132 [label="gini = 0.183\nsamples = 49\nvalue = [44, 5]"] ;
113 -> 132 ;
114 [label="effect_CirculationShutdown <= 0.5\ngini = 0.115\nsamples = 703\nvalue = [660, 43]"] ;
61 -> 114 ;
115 [label="effect_Delays <= 0.5\ngini = 0.102\nsamples = 614\nvalue = [581, 33]"] ;
114 -> 115 ;
403 [label="gini = 0.109\nsamples = 468\nvalue = [441, 27]"] ;
115 -> 403 ;
404 [label="gini = 0.079\nsamples = 146\nvalue = [140, 6]"] ;
115 -> 404 ;
116 [label="agency_JUR9bFXmVkWDHqu4AXaY0g <= 0.5\ngini = 0.199\nsamples = 89\nvalue = [79, 10]"] ;
114 -> 116 ;
763 [label="gini = 0.219\nsamples = 8\nvalue = [7, 1]"] ;
116 -> 763 ;
764 [label="gini = 0.198\nsamples = 81\nvalue = [72, 9]"] ;
116 -> 764 ;
62 [label="gini = 0.146\nsamples = 404\nvalue = [372, 32]"] ;
59 -> 62 ;
60 [label="gini = 0.211\nsamples = 92\nvalue = [81, 11]"] ;
45 -> 60 ;
46 [label="cause_VehicularAccident <= 0.5\ngini = 0.198\nsamples = 144\nvalue = [128, 16]"] ;
35 -> 46 ;
153 [label="gini = 0.23\nsamples = 98\nvalue = [85, 13]"] ;
46 -> 153 ;
154 [label="gini = 0.122\nsamples = 46\nvalue = [43, 3]"] ;
46 -> 154 ;
36 [label="agency_GtvOEQAFZ0GtU6u4AXwvPg <= 0.5\ngini = 0.096\nsamples = 19719\nvalue = [18717, 1002]"] ;
29 -> 36 ;
579 [label="gini = 0.096\nsamples = 19707\nvalue = [18706, 1001]"] ;
36 -> 579 ;
580 [label="gini = 0.153\nsamples = 12\nvalue = [11, 1]"] ;
36 -> 580 ;
30 [label="effect_FullCapacity <= 0.5\ngini = 0.096\nsamples = 32131\nvalue = [30507, 1624]"] ;
17 -> 30 ;
31 [label="effect_CirculationRestored <= 0.5\ngini = 0.095\nsamples = 32027\nvalue = [30421, 1606]"] ;
30 -> 31 ;
33 [label="agency_JUR9bFXmVkWDHqu4AXaY0g <= 0.5\ngini = 0.099\nsamples = 27961\nvalue = [26500, 1461]"] ;
31 -> 33 ;
39 [label="cause_Incident <= 0.5\ngini = 0.098\nsamples = 27652\nvalue = [26223, 1429]"] ;
33 -> 39 ;
65 [label="cause_March <= 0.5\ngini = 0.096\nsamples = 24991\nvalue = [23732, 1259]"] ;
39 -> 65 ;
109 [label="cause_BrokenVehicle <= 0.5\ngini = 0.097\nsamples = 23615\nvalue = [22408, 1207]"] ;
65 -> 109 ;
119 [label="cause_VehicularAccident <= 0.5\ngini = 0.096\nsamples = 23348\nvalue = [22162, 1186]"] ;
109 -> 119 ;
143 [label="effect_TrafficImpact <= 0.5\ngini = 0.1\nsamples = 15345\nvalue = [14538, 807]"] ;
119 -> 143 ;
145 [label="agency_NuuRQ2I1Q0a50Kv-AVKlLA <= 0.5\ngini = 0.102\nsamples = 13041\nvalue = [12337, 704]"] ;
143 -> 145 ;
149 [label="cause_HeavyTraffic <= 0.5\ngini = 0.101\nsamples = 12891\nvalue = [12200, 691]"] ;
145 -> 149 ;
201 [label="cause_Demonstration <= 0.5\ngini = 0.102\nsamples = 12668\nvalue = [11984, 684]"] ;
149 -> 201 ;
253 [label="agency_GtvOEQAFZ0GtU6u4AXwvPg <= 0.5\ngini = 0.113\nsamples = 1819\nvalue = [1710, 109]"] ;
201 -> 253 ;
255 [label="cause_Overturn <= 0.5\ngini = 0.102\nsamples = 1424\nvalue = [1347, 77]"] ;
253 -> 255 ;
259 [label="cause_Maintenance <= 0.5\ngini = 0.107\nsamples = 1326\nvalue = [1251, 75]"] ;
255 -> 259 ;
327 [label="cause_StreetWorks <= 0.5\ngini = 0.101\nsamples = 1065\nvalue = [1008, 57]"] ;
259 -> 327 ;
657 [label="cause_EmergencyServices <= 0.5\ngini = 0.1\nsamples = 1018\nvalue = [964, 54]"] ;
327 -> 657 ;
803 [label="gini = 0.103\nsamples = 220\nvalue = [208, 12]"] ;
657 -> 803 ;
804 [label="gini = 0.1\nsamples = 798\nvalue = [756, 42]"] ;
657 -> 804 ;
658 [label="gini = 0.12\nsamples = 47\nvalue = [44, 3]"] ;
327 -> 658 ;
328 [label="gini = 0.128\nsamples = 261\nvalue = [243, 18]"] ;
259 -> 328 ;
260 [label="gini = 0.04\nsamples = 98\nvalue = [96, 2]"] ;
255 -> 260 ;
256 [label="cause_Overturn <= 0.5\ngini = 0.149\nsamples = 395\nvalue = [363, 32]"] ;
253 -> 256 ;
381 [label="gini = 0.178\nsamples = 91\nvalue = [82, 9]"] ;
256 -> 381 ;
382 [label="gini = 0.14\nsamples = 304\nvalue = [281, 23]"] ;
256 -> 382 ;
254 [label="agency_GtvOEQAFZ0GtU6u4AXwvPg <= 0.5\ngini = 0.1\nsamples = 10849\nvalue = [10274, 575]"] ;
201 -> 254 ;
257 [label="effect_RouteDetour <= 0.5\ngini = 0.103\nsamples = 9347\nvalue = [8837, 510]"] ;
254 -> 257 ;
357 [label="effect_LaneReduction <= 0.5\ngini = 0.104\nsamples = 9234\nvalue = [8728, 506]"] ;
257 -> 357 ;
619 [label="effect_Delays <= 0.5\ngini = 0.103\nsamples = 8917\nvalue = [8430, 487]"] ;
357 -> 619 ;
731 [label="effect_CirculationShutdown <= 0.5\ngini = 0.104\nsamples = 7420\nvalue = [7013, 407]"] ;
619 -> 731 ;
733 [label="effect_SecuritySpeed <= 0.5\ngini = 0.108\nsamples = 803\nvalue = [757, 46]"] ;
731 -> 733 ;
735 [label="gini = 0.12\nsamples = 140\nvalue = [131, 9]"] ;
733 -> 735 ;
736 [label="gini = 0.105\nsamples = 663\nvalue = [626, 37]"] ;
733 -> 736 ;
734 [label="gini = 0.103\nsamples = 6617\nvalue = [6256, 361]"] ;
731 -> 734 ;
732 [label="gini = 0.101\nsamples = 1497\nvalue = [1417, 80]"] ;
619 -> 732 ;
620 [label="gini = 0.113\nsamples = 317\nvalue = [298, 19]"] ;
357 -> 620 ;
358 [label="gini = 0.068\nsamples = 113\nvalue = [109, 4]"] ;
257 -> 358 ;
258 [label="gini = 0.083\nsamples = 1502\nvalue = [1437, 65]"] ;
254 -> 258 ;
202 [label="gini = 0.061\nsamples = 223\nvalue = [216, 7]"] ;
149 -> 202 ;
150 [label="gini = 0.158\nsamples = 150\nvalue = [137, 13]"] ;
145 -> 150 ;
146 [label="agency_NuuRQ2I1Q0a50Kv-AVKlLA <= 0.5\ngini = 0.085\nsamples = 2304\nvalue = [2201, 103]"] ;
143 -> 146 ;
147 [label="cause_Demonstration <= 0.5\ngini = 0.091\nsamples = 2082\nvalue = [1983, 99]"] ;
146 -> 147 ;
215 [label="gini = 0.135\nsamples = 137\nvalue = [127, 10]"] ;
147 -> 215 ;
216 [label="agency_GtvOEQAFZ0GtU6u4AXwvPg <= 0.5\ngini = 0.087\nsamples = 1945\nvalue = [1856, 89]"] ;
147 -> 216 ;
351 [label="gini = 0.09\nsamples = 1729\nvalue = [1647, 82]"] ;
216 -> 351 ;
352 [label="gini = 0.063\nsamples = 216\nvalue = [209, 7]"] ;
216 -> 352 ;
148 [label="gini = 0.035\nsamples = 222\nvalue = [218, 4]"] ;
146 -> 148 ;
144 [label="agency_GtvOEQAFZ0GtU6u4AXwvPg <= 0.5\ngini = 0.09\nsamples = 8003\nvalue = [7624, 379]"] ;
119 -> 144 ;
771 [label="agency_NuuRQ2I1Q0a50Kv-AVKlLA <= 0.5\ngini = 0.09\nsamples = 7956\nvalue = [7579, 377]"] ;
144 -> 771 ;
859 [label="gini = 0.09\nsamples = 7367\nvalue = [7018, 349]"] ;
771 -> 859 ;
860 [label="gini = 0.091\nsamples = 589\nvalue = [561, 28]"] ;
771 -> 860 ;
772 [label="gini = 0.081\nsamples = 47\nvalue = [45, 2]"] ;
144 -> 772 ;
120 [label="effect_LaneReduction <= 0.5\ngini = 0.145\nsamples = 267\nvalue = [246, 21]"] ;
109 -> 120 ;
481 [label="effect_CirculationShutdown <= 0.5\ngini = 0.153\nsamples = 203\nvalue = [186, 17]"] ;
120 -> 481 ;
829 [label="gini = 0.153\nsamples = 168\nvalue = [154, 14]"] ;
481 -> 829 ;
830 [label="gini = 0.157\nsamples = 35\nvalue = [32, 3]"] ;
481 -> 830 ;
482 [label="gini = 0.117\nsamples = 64\nvalue = [60, 4]"] ;
120 -> 482 ;
110 [label="effect_CirculationShutdown <= 0.5\ngini = 0.073\nsamples = 1376\nvalue = [1324, 52]"] ;
65 -> 110 ;
437 [label="agency_GtvOEQAFZ0GtU6u4AXwvPg <= 0.5\ngini = 0.076\nsamples = 1130\nvalue = [1085, 45]"] ;
110 -> 437 ;
601 [label="gini = 0.072\nsamples = 746\nvalue = [718, 28]"] ;
437 -> 601 ;
602 [label="gini = 0.085\nsamples = 384\nvalue = [367, 17]"] ;
437 -> 602 ;
438 [label="gini = 0.055\nsamples = 246\nvalue = [239, 7]"] ;
110 -> 438 ;
66 [label="agency_NuuRQ2I1Q0a50Kv-AVKlLA <= 0.5\ngini = 0.12\nsamples = 2661\nvalue = [2491, 170]"] ;
39 -> 66 ;
67 [label="agency_GtvOEQAFZ0GtU6u4AXwvPg <= 0.5\ngini = 0.115\nsamples = 2586\nvalue = [2427, 159]"] ;
66 -> 67 ;
473 [label="effect_HighWaitingTime <= 0.5\ngini = 0.117\nsamples = 2426\nvalue = [2275, 151]"] ;
67 -> 473 ;
649 [label="effect_Delays <= 0.5\ngini = 0.116\nsamples = 2063\nvalue = [1936, 127]"] ;
473 -> 649 ;
839 [label="gini = 0.114\nsamples = 279\nvalue = [262, 17]"] ;
649 -> 839 ;
840 [label="gini = 0.116\nsamples = 1784\nvalue = [1674, 110]"] ;
649 -> 840 ;
650 [label="gini = 0.123\nsamples = 363\nvalue = [339, 24]"] ;
473 -> 650 ;
474 [label="effect_Delays <= 0.5\ngini = 0.095\nsamples = 160\nvalue = [152, 8]"] ;
67 -> 474 ;
875 [label="gini = 0.095\nsamples = 80\nvalue = [76, 4]"] ;
474 -> 875 ;
876 [label="gini = 0.095\nsamples = 80\nvalue = [76, 4]"] ;
474 -> 876 ;
68 [label="gini = 0.25\nsamples = 75\nvalue = [64, 11]"] ;
66 -> 68 ;
40 [label="gini = 0.186\nsamples = 309\nvalue = [277, 32]"] ;
33 -> 40 ;
34 [label="agency_GtvOEQAFZ0GtU6u4AXwvPg <= 0.5\ngini = 0.069\nsamples = 4066\nvalue = [3921, 145]"] ;
31 -> 34 ;
507 [label="gini = 0.071\nsamples = 3235\nvalue = [3116, 119]"] ;
34 -> 507 ;
508 [label="cause_March <= 0.5\ngini = 0.061\nsamples = 831\nvalue = [805, 26]"] ;
34 -> 508 ;
757 [label="gini = 0.06\nsamples = 716\nvalue = [694, 22]"] ;
508 -> 757 ;
758 [label="gini = 0.067\nsamples = 115\nvalue = [111, 4]"] ;
508 -> 758 ;
32 [label="gini = 0.286\nsamples = 104\nvalue = [86, 18]"] ;
30 -> 32 ;
18 [label="agency_JUR9bFXmVkWDHqu4AXaY0g <= 0.5\ngini = 0.111\nsamples = 9406\nvalue = [8851, 555]"] ;
15 -> 18 ;
47 [label="agency_pky7jovXYkaw-awAAMrQ3g <= 0.5\ngini = 0.104\nsamples = 7577\nvalue = [7161, 416]"] ;
18 -> 47 ;
77 [label="agency_NuuRQ2I1Q0a50Kv-AVKlLA <= 0.5\ngini = 0.103\nsamples = 7547\nvalue = [7136, 411]"] ;
47 -> 77 ;
135 [label="cause_Waterlogging <= 0.5\ngini = 0.106\nsamples = 6789\nvalue = [6409, 380]"] ;
77 -> 135 ;
139 [label="cause_Demonstration <= 0.5\ngini = 0.107\nsamples = 6629\nvalue = [6253, 376]"] ;
135 -> 139 ;
369 [label="cause_March <= 0.5\ngini = 0.095\nsamples = 761\nvalue = [723, 38]"] ;
139 -> 369 ;
809 [label="gini = 0.094\nsamples = 645\nvalue = [613, 32]"] ;
369 -> 809 ;
810 [label="gini = 0.098\nsamples = 116\nvalue = [110, 6]"] ;
369 -> 810 ;
370 [label="gini = 0.109\nsamples = 5868\nvalue = [5530, 338]"] ;
139 -> 370 ;
140 [label="gini = 0.049\nsamples = 160\nvalue = [156, 4]"] ;
135 -> 140 ;
136 [label="cause_Incident <= 0.5\ngini = 0.078\nsamples = 758\nvalue = [727, 31]"] ;
77 -> 136 ;
137 [label="cause_StreetWorks <= 0.5\ngini = 0.066\nsamples = 674\nvalue = [651, 23]"] ;
136 -> 137 ;
667 [label="gini = 0.066\nsamples = 670\nvalue = [647, 23]"] ;
137 -> 667 ;
668 [label="gini = 0.0\nsamples = 4\nvalue = [4, 0]"] ;
137 -> 668 ;
138 [label="gini = 0.172\nsamples = 84\nvalue = [76, 8]"] ;
136 -> 138 ;
78 [label="cause_Demonstration <= 0.5\ngini = 0.278\nsamples = 30\nvalue = [25, 5]"] ;
47 -> 78 ;
391 [label="gini = 0.231\nsamples = 15\nvalue = [13, 2]"] ;
78 -> 391 ;
392 [label="gini = 0.32\nsamples = 15\nvalue = [12, 3]"] ;
78 -> 392 ;
48 [label="cause_Incident <= 0.5\ngini = 0.14\nsamples = 1829\nvalue = [1690, 139]"] ;
18 -> 48 ;
159 [label="gini = 0.135\nsamples = 1584\nvalue = [1469, 115]"] ;
48 -> 159 ;
160 [label="gini = 0.177\nsamples = 245\nvalue = [221, 24]"] ;
48 -> 160 ;
16 [label="effect_HighWaitingTime <= 0.5\ngini = 0.073\nsamples = 44536\nvalue = [42854, 1682]"] ;
9 -> 16 ;
63 [label="effect_CirculationRestored <= 0.5\ngini = 0.072\nsamples = 44372\nvalue = [42705, 1667]"] ;
16 -> 63 ;
117 [label="effect_Delays <= 0.5\ngini = 0.072\nsamples = 44243\nvalue = [42586, 1657]"] ;
63 -> 117 ;
457 [label="agency_JfA8Bw8Zp024Kqu4AXiSpQ <= 0.5\ngini = 0.07\nsamples = 18214\nvalue = [17548, 666]"] ;
117 -> 457 ;
459 [label="gini = 0.07\nsamples = 17509\nvalue = [16874, 635]"] ;
457 -> 459 ;
460 [label="gini = 0.084\nsamples = 705\nvalue = [674, 31]"] ;
457 -> 460 ;
458 [label="agency_JfA8Bw8Zp024Kqu4AXiSpQ <= 0.5\ngini = 0.073\nsamples = 26029\nvalue = [25038, 991]"] ;
117 -> 458 ;
789 [label="gini = 0.073\nsamples = 25862\nvalue = [24877, 985]"] ;
458 -> 789 ;
790 [label="gini = 0.069\nsamples = 167\nvalue = [161, 6]"] ;
458 -> 790 ;
118 [label="gini = 0.143\nsamples = 129\nvalue = [119, 10]"] ;
63 -> 118 ;
64 [label="gini = 0.166\nsamples = 164\nvalue = [149, 15]"] ;
16 -> 64 ;
10 [label="effect_CirculationRestored <= 0.5\ngini = 0.157\nsamples = 2947\nvalue = [2694, 253]"] ;
7 -> 10 ;
83 [label="cause_Demonstration <= 0.5\ngini = 0.162\nsamples = 2692\nvalue = [2452, 240]"] ;
10 -> 83 ;
87 [label="cause_Incident <= 0.5\ngini = 0.152\nsamples = 1972\nvalue = [1809, 163]"] ;
83 -> 87 ;
89 [label="cause_Rain <= 0.5\ngini = 0.138\nsamples = 1550\nvalue = [1434, 116]"] ;
87 -> 89 ;
277 [label="cause_BrokenVehicle <= 0.5\ngini = 0.132\nsamples = 1141\nvalue = [1060, 81]"] ;
89 -> 277 ;
289 [label="effect_InterimService <= 0.5\ngini = 0.13\nsamples = 1126\nvalue = [1047, 79]"] ;
277 -> 289 ;
393 [label="cause_VehicularAccident <= 0.5\ngini = 0.134\nsamples = 999\nvalue = [927, 72]"] ;
289 -> 393 ;
397 [label="effect_Delays <= 0.5\ngini = 0.138\nsamples = 859\nvalue = [795, 64]"] ;
393 -> 397 ;
461 [label="cause_HeavyTraffic <= 0.5\ngini = 0.126\nsamples = 325\nvalue = [303, 22]"] ;
397 -> 461 ;
499 [label="cause_Flood <= 0.5\ngini = 0.111\nsamples = 152\nvalue = [143, 9]"] ;
461 -> 499 ;
863 [label="gini = 0.112\nsamples = 118\nvalue = [111, 7]"] ;
499 -> 863 ;
864 [label="gini = 0.111\nsamples = 34\nvalue = [32, 2]"] ;
499 -> 864 ;
500 [label="gini = 0.139\nsamples = 173\nvalue = [160, 13]"] ;
461 -> 500 ;
462 [label="cause_HeavyTraffic <= 0.5\ngini = 0.145\nsamples = 534\nvalue = [492, 42]"] ;
397 -> 462 ;
463 [label="gini = 0.161\nsamples = 260\nvalue = [237, 23]"] ;
462 -> 463 ;
464 [label="gini = 0.129\nsamples = 274\nvalue = [255, 19]"] ;
462 -> 464 ;
398 [label="gini = 0.108\nsamples = 140\nvalue = [132, 8]"] ;
393 -> 398 ;
394 [label="cause_StreetWorks <= 0.5\ngini = 0.104\nsamples = 127\nvalue = [120, 7]"] ;
289 -> 394 ;
395 [label="gini = 0.142\nsamples = 52\nvalue = [48, 4]"] ;
394 -> 395 ;
396 [label="gini = 0.077\nsamples = 75\nvalue = [72, 3]"] ;
394 -> 396 ;
290 [label="gini = 0.231\nsamples = 15\nvalue = [13, 2]"] ;
277 -> 290 ;
278 [label="effect_InterimService <= 0.5\ngini = 0.157\nsamples = 409\nvalue = [374, 35]"] ;
89 -> 278 ;
317 [label="effect_Delays <= 0.5\ngini = 0.146\nsamples = 315\nvalue = [290, 25]"] ;
278 -> 317 ;
611 [label="gini = 0.126\nsamples = 59\nvalue = [55, 4]"] ;
317 -> 611 ;
612 [label="gini = 0.151\nsamples = 256\nvalue = [235, 21]"] ;
317 -> 612 ;
318 [label="gini = 0.19\nsamples = 94\nvalue = [84, 10]"] ;
278 -> 318 ;
90 [label="effect_InterimService <= 0.5\ngini = 0.198\nsamples = 422\nvalue = [375, 47]"] ;
87 -> 90 ;
91 [label="effect_Delays <= 0.5\ngini = 0.182\nsamples = 404\nvalue = [363, 41]"] ;
90 -> 91 ;
767 [label="gini = 0.186\nsamples = 164\nvalue = [147, 17]"] ;
91 -> 767 ;
768 [label="gini = 0.18\nsamples = 240\nvalue = [216, 24]"] ;
91 -> 768 ;
92 [label="gini = 0.444\nsamples = 18\nvalue = [12, 6]"] ;
90 -> 92 ;
88 [label="effect_Delays <= 0.5\ngini = 0.191\nsamples = 720\nvalue = [643, 77]"] ;
83 -> 88 ;
141 [label="effect_InterimService <= 0.5\ngini = 0.238\nsamples = 123\nvalue = [106, 17]"] ;
88 -> 141 ;
659 [label="gini = 0.23\nsamples = 68\nvalue = [59, 9]"] ;
141 -> 659 ;
660 [label="gini = 0.249\nsamples = 55\nvalue = [47, 8]"] ;
141 -> 660 ;
142 [label="gini = 0.181\nsamples = 597\nvalue = [537, 60]"] ;
88 -> 142 ;
84 [label="cause_Rain <= 0.5\ngini = 0.097\nsamples = 255\nvalue = [242, 13]"] ;
10 -> 84 ;
541 [label="cause_Incident <= 0.5\ngini = 0.104\nsamples = 199\nvalue = [188, 11]"] ;
84 -> 541 ;
729 [label="gini = 0.111\nsamples = 102\nvalue = [96, 6]"] ;
541 -> 729 ;
730 [label="gini = 0.098\nsamples = 97\nvalue = [92, 5]"] ;
541 -> 730 ;
542 [label="gini = 0.069\nsamples = 56\nvalue = [54, 2]"] ;
84 -> 542 ;
8 [label="agency_JfA8Bw8Zp024Kqu4AXiSpQ <= 0.5\ngini = 0.119\nsamples = 39442\nvalue = [36925, 2517]"] ;
3 -> 8 ;
23 [label="cause_COVID19 <= 0.5\ngini = 0.133\nsamples = 12281\nvalue = [11399, 882]"] ;
8 -> 23 ;
41 [label="cause_GasLeak <= 0.5\ngini = 0.14\nsamples = 10130\nvalue = [9365, 765]"] ;
23 -> 41 ;
55 [label="cause_Demonstration <= 0.5\ngini = 0.138\nsamples = 10049\nvalue = [9297, 752]"] ;
41 -> 55 ;
81 [label="cause_Event <= 0.5\ngini = 0.133\nsamples = 7991\nvalue = [7417, 574]"] ;
55 -> 81 ;
165 [label="agency_HE59N3RXM0q5vKu4AXlQZg <= 0.5\ngini = 0.132\nsamples = 7500\nvalue = [6969, 531]"] ;
81 -> 165 ;
187 [label="cause_Flood <= 0.5\ngini = 0.13\nsamples = 7127\nvalue = [6629, 498]"] ;
165 -> 187 ;
313 [label="cause_Incident <= 0.5\ngini = 0.129\nsamples = 7031\nvalue = [6542, 489]"] ;
187 -> 313 ;
525 [label="cause_Rain <= 0.5\ngini = 0.125\nsamples = 1694\nvalue = [1581, 113]"] ;
313 -> 525 ;
819 [label="gini = 0.125\nsamples = 1405\nvalue = [1311, 94]"] ;
525 -> 819 ;
820 [label="gini = 0.123\nsamples = 289\nvalue = [270, 19]"] ;
525 -> 820 ;
526 [label="gini = 0.131\nsamples = 5337\nvalue = [4961, 376]"] ;
313 -> 526 ;
314 [label="gini = 0.17\nsamples = 96\nvalue = [87, 9]"] ;
187 -> 314 ;
188 [label="cause_Maintenance <= 0.5\ngini = 0.161\nsamples = 373\nvalue = [340, 33]"] ;
165 -> 188 ;
189 [label="cause_Rain <= 0.5\ngini = 0.143\nsamples = 296\nvalue = [273, 23]"] ;
188 -> 189 ;
275 [label="cause_Flood <= 0.5\ngini = 0.119\nsamples = 157\nvalue = [147, 10]"] ;
189 -> 275 ;
741 [label="gini = 0.116\nsamples = 129\nvalue = [121, 8]"] ;
275 -> 741 ;
742 [label="gini = 0.133\nsamples = 28\nvalue = [26, 2]"] ;
275 -> 742 ;
276 [label="gini = 0.17\nsamples = 139\nvalue = [126, 13]"] ;
189 -> 276 ;
190 [label="gini = 0.226\nsamples = 77\nvalue = [67, 10]"] ;
188 -> 190 ;
166 [label="gini = 0.16\nsamples = 491\nvalue = [448, 43]"] ;
81 -> 166 ;
82 [label="agency_pky7jovXYkaw-awAAMrQ3g <= 0.5\ngini = 0.158\nsamples = 2058\nvalue = [1880, 178]"] ;
55 -> 82 ;
111 [label="agency_HE59N3RXM0q5vKu4AXlQZg <= 0.5\ngini = 0.156\nsamples = 2037\nvalue = [1863, 174]"] ;
82 -> 111 ;
299 [label="agency_JUR9bFXmVkWDHqu4AXaY0g <= 0.5\ngini = 0.153\nsamples = 1753\nvalue = [1607, 146]"] ;
111 -> 299 ;
641 [label="gini = 0.136\nsamples = 68\nvalue = [63, 5]"] ;
299 -> 641 ;
642 [label="gini = 0.153\nsamples = 1685\nvalue = [1544, 141]"] ;
299 -> 642 ;
300 [label="gini = 0.178\nsamples = 284\nvalue = [256, 28]"] ;
111 -> 300 ;
112 [label="gini = 0.308\nsamples = 21\nvalue = [17, 4]"] ;
82 -> 112 ;
56 [label="gini = 0.269\nsamples = 81\nvalue = [68, 13]"] ;
41 -> 56 ;
42 [label="gini = 0.103\nsamples = 2151\nvalue = [2034, 117]"] ;
23 -> 42 ;
24 [label="cause_Incident <= 0.5\ngini = 0.113\nsamples = 27161\nvalue = [25526, 1635]"] ;
8 -> 24 ;
27 [label="cause_Rain <= 0.5\ngini = 0.11\nsamples = 25335\nvalue = [23852, 1483]"] ;
24 -> 27 ;
93 [label="cause_StreetWorks <= 0.5\ngini = 0.11\nsamples = 25191\nvalue = [23723, 1468]"] ;
27 -> 93 ;
217 [label="cause_FallenTree <= 0.5\ngini = 0.11\nsamples = 24998\nvalue = [23537, 1461]"] ;
93 -> 217 ;
287 [label="cause_BrokenVehicle <= 0.5\ngini = 0.11\nsamples = 24782\nvalue = [23330, 1452]"] ;
217 -> 287 ;
333 [label="cause_Event <= 0.5\ngini = 0.111\nsamples = 23922\nvalue = [22514, 1408]"] ;
287 -> 333 ;
467 [label="cause_March <= 0.5\ngini = 0.111\nsamples = 23869\nvalue = [22463, 1406]"] ;
333 -> 467 ;
537 [label="cause_EmergencyServices <= 0.5\ngini = 0.111\nsamples = 23552\nvalue = [22167, 1385]"] ;
467 -> 537 ;
549 [label="cause_Demonstration <= 0.5\ngini = 0.111\nsamples = 23407\nvalue = [22029, 1378]"] ;
537 -> 549 ;
571 [label="gini = 0.117\nsamples = 1188\nvalue = [1114, 74]"] ;
549 -> 571 ;
572 [label="gini = 0.11\nsamples = 22219\nvalue = [20915, 1304]"] ;
549 -> 572 ;
550 [label="gini = 0.092\nsamples = 145\nvalue = [138, 7]"] ;
537 -> 550 ;
538 [label="gini = 0.124\nsamples = 317\nvalue = [296, 21]"] ;
467 -> 538 ;
468 [label="gini = 0.073\nsamples = 53\nvalue = [51, 2]"] ;
333 -> 468 ;
334 [label="gini = 0.097\nsamples = 860\nvalue = [816, 44]"] ;
287 -> 334 ;
288 [label="gini = 0.08\nsamples = 216\nvalue = [207, 9]"] ;
217 -> 288 ;
218 [label="gini = 0.07\nsamples = 193\nvalue = [186, 7]"] ;
93 -> 218 ;
94 [label="gini = 0.187\nsamples = 144\nvalue = [129, 15]"] ;
27 -> 94 ;
28 [label="gini = 0.153\nsamples = 1826\nvalue = [1674, 152]"] ;
24 -> 28 ;
4 [label="effect_SuspensionOfService <= 0.5\ngini = 0.202\nsamples = 5128\nvalue = [4544, 584]"] ;
1 -> 4 ;
13 [label="effect_InterimService <= 0.5\ngini = 0.164\nsamples = 2834\nvalue = [2579, 255]"] ;
4 -> 13 ;
69 [label="effect_CirculationRestored <= 0.5\ngini = 0.142\nsamples = 1313\nvalue = [1212, 101]"] ;
13 -> 69 ;
133 [label="agency_NuuRQ2I1Q0a50Kv-AVKlLA <= 0.5\ngini = 0.152\nsamples = 998\nvalue = [915, 83]"] ;
69 -> 133 ;
155 [label="effect_SecuritySpeed <= 0.5\ngini = 0.155\nsamples = 978\nvalue = [895, 83]"] ;
133 -> 155 ;
211 [label="agency_GtvOEQAFZ0GtU6u4AXwvPg <= 0.5\ngini = 0.162\nsamples = 857\nvalue = [781, 76]"] ;
155 -> 211 ;
367 [label="effect_FullCapacity <= 0.5\ngini = 0.165\nsamples = 782\nvalue = [711, 71]"] ;
211 -> 367 ;
655 [label="effect_HighWaitingTime <= 0.5\ngini = 0.167\nsamples = 630\nvalue = [572, 58]"] ;
367 -> 655 ;
845 [label="gini = 0.166\nsamples = 262\nvalue = [238, 24]"] ;
655 -> 845 ;
846 [label="gini = 0.168\nsamples = 368\nvalue = [334, 34]"] ;
655 -> 846 ;
656 [label="gini = 0.156\nsamples = 152\nvalue = [139, 13]"] ;
367 -> 656 ;
368 [label="gini = 0.124\nsamples = 75\nvalue = [70, 5]"] ;
211 -> 368 ;
212 [label="gini = 0.109\nsamples = 121\nvalue = [114, 7]"] ;
155 -> 212 ;
156 [label="gini = 0.0\nsamples = 20\nvalue = [20, 0]"] ;
133 -> 156 ;
134 [label="gini = 0.108\nsamples = 315\nvalue = [297, 18]"] ;
69 -> 134 ;
70 [label="agency_JfA8Bw8Zp024Kqu4AXiSpQ <= 0.5\ngini = 0.182\nsamples = 1521\nvalue = [1367, 154]"] ;
13 -> 70 ;
597 [label="gini = 0.179\nsamples = 1027\nvalue = [925, 102]"] ;
70 -> 597 ;
598 [label="gini = 0.188\nsamples = 494\nvalue = [442, 52]"] ;
70 -> 598 ;
14 [label="agency_JfA8Bw8Zp024Kqu4AXiSpQ <= 0.5\ngini = 0.246\nsamples = 2294\nvalue = [1965, 329]"] ;
4 -> 14 ;
53 [label="gini = 0.243\nsamples = 2252\nvalue = [1934, 318]"] ;
14 -> 53 ;
54 [label="gini = 0.387\nsamples = 42\nvalue = [31, 11]"] ;
14 -> 54 ;
2 [label="agency_JfA8Bw8Zp024Kqu4AXiSpQ <= 0.5\ngini = 0.056\nsamples = 420198\nvalue = [408133, 12065]"] ;
0 -> 2 [labeldistance=2.5, labelangle=-45, headlabel="False"] ;
5 [label="agency_JUR9bFXmVkWDHqu4AXaY0g <= 0.5\ngini = 0.051\nsamples = 354198\nvalue = [344929, 9269]"] ;
2 -> 5 ;
11 [label="agency_HE59N3RXM0q5vKu4AXlQZg <= 0.5\ngini = 0.05\nsamples = 347574\nvalue = [338642, 8932]"] ;
5 -> 11 ;
25 [label="effect_Delays <= 0.5\ngini = 0.05\nsamples = 343323\nvalue = [334569, 8754]"] ;
11 -> 25 ;
43 [label="cause_Explosion <= 0.5\ngini = 0.053\nsamples = 131092\nvalue = [127509, 3583]"] ;
25 -> 43 ;
95 [label="agency_jLjibFoim0iwWau4AWoEdQ <= 0.5\ngini = 0.053\nsamples = 131072\nvalue = [127492, 3580]"] ;
43 -> 95 ;
107 [label="cause_BrokenVehicle <= 0.5\ngini = 0.053\nsamples = 130984\nvalue = [127411, 3573]"] ;
95 -> 107 ;
125 [label="effect_CirculationRestored <= 0.5\ngini = 0.053\nsamples = 127119\nvalue = [123625, 3494]"] ;
107 -> 125 ;
127 [label="agency_pky7jovXYkaw-awAAMrQ3g <= 0.5\ngini = 0.054\nsamples = 122058\nvalue = [118672, 3386]"] ;
125 -> 127 ;
167 [label="agency_GtvOEQAFZ0GtU6u4AXwvPg <= 0.5\ngini = 0.054\nsamples = 121662\nvalue = [118294, 3368]"] ;
127 -> 167 ;
171 [label="cause_Overturn <= 0.5\ngini = 0.057\nsamples = 30320\nvalue = [29427, 893]"] ;
167 -> 171 ;
173 [label="cause_StreetWorks <= 0.5\ngini = 0.056\nsamples = 29486\nvalue = [28639, 847]"] ;
171 -> 173 ;
175 [label="effect_TrafficImpact <= 0.5\ngini = 0.054\nsamples = 24809\nvalue = [24123, 686]"] ;
173 -> 175 ;
177 [label="cause_GasLeak <= 0.5\ngini = 0.05\nsamples = 15142\nvalue = [14751, 391]"] ;
175 -> 177 ;
205 [label="agency_NuuRQ2I1Q0a50Kv-AVKlLA <= 0.5\ngini = 0.05\nsamples = 15039\nvalue = [14654, 385]"] ;
177 -> 205 ;
207 [label="cause_COVID19 <= 0.5\ngini = 0.048\nsamples = 12446\nvalue = [12143, 303]"] ;
205 -> 207 ;
267 [label="cause_Sinkhole <= 0.5\ngini = 0.047\nsamples = 12348\nvalue = [12050, 298]"] ;
207 -> 267 ;
315 [label="cause_Event <= 0.5\ngini = 0.047\nsamples = 12088\nvalue = [11800, 288]"] ;
267 -> 315 ;
355 [label="cause_Incident <= 0.5\ngini = 0.046\nsamples = 12076\nvalue = [11789, 287]"] ;
315 -> 355 ;
475 [label="agency_GewRJAw5tUmC4Ku4AX1-SQ <= 0.5\ngini = 0.046\nsamples = 11656\nvalue = [11382, 274]"] ;
355 -> 475 ;
489 [label="effect_LaneReduction <= 0.5\ngini = 0.046\nsamples = 11612\nvalue = [11340, 272]"] ;
475 -> 489 ;
493 [label="cause_EmergencyServices <= 0.5\ngini = 0.047\nsamples = 8627\nvalue = [8418, 209]"] ;
489 -> 493 ;
495 [label="cause_Demonstration <= 0.5\ngini = 0.047\nsamples = 8531\nvalue = [8327, 204]"] ;
493 -> 495 ;
521 [label="cause_Fire <= 0.5\ngini = 0.036\nsamples = 548\nvalue = [538, 10]"] ;
495 -> 521 ;
709 [label="cause_VehicularAccident <= 0.5\ngini = 0.036\nsamples = 539\nvalue = [529, 10]"] ;
521 -> 709 ;
817 [label="gini = 0.036\nsamples = 440\nvalue = [432, 8]"] ;
709 -> 817 ;
818 [label="gini = 0.04\nsamples = 99\nvalue = [97, 2]"] ;
709 -> 818 ;
710 [label="gini = 0.0\nsamples = 9\nvalue = [9, 0]"] ;
521 -> 710 ;
522 [label="effect_CirculationShutdown <= 0.5\ngini = 0.047\nsamples = 7983\nvalue = [7789, 194]"] ;
495 -> 522 ;
677 [label="gini = 0.063\nsamples = 61\nvalue = [59, 2]"] ;
522 -> 677 ;
678 [label="gini = 0.047\nsamples = 7922\nvalue = [7730, 192]"] ;
522 -> 678 ;
496 [label="gini = 0.099\nsamples = 96\nvalue = [91, 5]"] ;
493 -> 496 ;
494 [label="cause_VehicularAccident <= 0.5\ngini = 0.041\nsamples = 2985\nvalue = [2922, 63]"] ;
489 -> 494 ;
523 [label="cause_Flood <= 0.5\ngini = 0.036\nsamples = 1407\nvalue = [1381, 26]"] ;
494 -> 523 ;
545 [label="cause_EmergencyServices <= 0.5\ngini = 0.035\nsamples = 1385\nvalue = [1360, 25]"] ;
523 -> 545 ;
547 [label="cause_Leak <= 0.5\ngini = 0.024\nsamples = 404\nvalue = [399, 5]"] ;
545 -> 547 ;
647 [label="cause_Demonstration <= 0.5\ngini = 0.027\nsamples = 366\nvalue = [361, 5]"] ;
547 -> 647 ;
783 [label="cause_FallenTree <= 0.5\ngini = 0.024\nsamples = 167\nvalue = [165, 2]"] ;
647 -> 783 ;
827 [label="gini = 0.026\nsamples = 76\nvalue = [75, 1]"] ;
783 -> 827 ;
828 [label="gini = 0.022\nsamples = 91\nvalue = [90, 1]"] ;
783 -> 828 ;
784 [label="gini = 0.03\nsamples = 199\nvalue = [196, 3]"] ;
647 -> 784 ;
648 [label="gini = 0.0\nsamples = 38\nvalue = [38, 0]"] ;
547 -> 648 ;
548 [label="gini = 0.04\nsamples = 981\nvalue = [961, 20]"] ;
545 -> 548 ;
546 [label="gini = 0.087\nsamples = 22\nvalue = [21, 1]"] ;
523 -> 546 ;
524 [label="gini = 0.046\nsamples = 1578\nvalue = [1541, 37]"] ;
494 -> 524 ;
490 [label="effect_CirculationShutdown <= 0.5\ngini = 0.087\nsamples = 44\nvalue = [42, 2]"] ;
475 -> 490 ;
491 [label="gini = 0.121\nsamples = 31\nvalue = [29, 2]"] ;
490 -> 491 ;
492 [label="gini = 0.0\nsamples = 13\nvalue = [13, 0]"] ;
490 -> 492 ;
476 [label="gini = 0.06\nsamples = 420\nvalue = [407, 13]"] ;
355 -> 476 ;
356 [label="gini = 0.153\nsamples = 12\nvalue = [11, 1]"] ;
315 -> 356 ;
316 [label="gini = 0.074\nsamples = 260\nvalue = [250, 10]"] ;
267 -> 316 ;
268 [label="gini = 0.097\nsamples = 98\nvalue = [93, 5]"] ;
207 -> 268 ;
208 [label="cause_Demonstration <= 0.5\ngini = 0.061\nsamples = 2593\nvalue = [2511, 82]"] ;
205 -> 208 ;
471 [label="cause_March <= 0.5\ngini = 0.043\nsamples = 227\nvalue = [222, 5]"] ;
208 -> 471 ;
575 [label="effect_CirculationShutdown <= 0.5\ngini = 0.024\nsamples = 84\nvalue = [83, 1]"] ;
471 -> 575 ;
701 [label="gini = 0.0\nsamples = 18\nvalue = [18, 0]"] ;
575 -> 701 ;
702 [label="gini = 0.03\nsamples = 66\nvalue = [65, 1]"] ;
575 -> 702 ;
576 [label="gini = 0.054\nsamples = 143\nvalue = [139, 4]"] ;
471 -> 576 ;
472 [label="gini = 0.063\nsamples = 2366\nvalue = [2289, 77]"] ;
208 -> 472 ;
206 [label="gini = 0.11\nsamples = 103\nvalue = [97, 6]"] ;
177 -> 206 ;
178 [label="agency_GewRJAw5tUmC4Ku4AX1-SQ <= 0.5\ngini = 0.059\nsamples = 9667\nvalue = [9372, 295]"] ;
175 -> 178 ;
279 [label="cause_VehicularAccident <= 0.5\ngini = 0.058\nsamples = 9379\nvalue = [9097, 282]"] ;
178 -> 279 ;
323 [label="cause_EmergencyServices <= 0.5\ngini = 0.052\nsamples = 2999\nvalue = [2919, 80]"] ;
279 -> 323 ;
325 [label="cause_Incident <= 0.5\ngini = 0.044\nsamples = 1837\nvalue = [1796, 41]"] ;
323 -> 325 ;
449 [label="cause_FallenTree <= 0.5\ngini = 0.045\nsamples = 1788\nvalue = [1747, 41]"] ;
325 -> 449 ;
465 [label="cause_COVID19 <= 0.5\ngini = 0.046\nsamples = 1744\nvalue = [1703, 41]"] ;
449 -> 465 ;
699 [label="cause_Waterlogging <= 0.5\ngini = 0.046\nsamples = 1738\nvalue = [1697, 41]"] ;
465 -> 699 ;
715 [label="cause_March <= 0.5\ngini = 0.047\nsamples = 1678\nvalue = [1638, 40]"] ;
699 -> 715 ;
717 [label="agency_NuuRQ2I1Q0a50Kv-AVKlLA <= 0.5\ngini = 0.048\nsamples = 1344\nvalue = [1311, 33]"] ;
715 -> 717 ;
719 [label="cause_Demonstration <= 0.5\ngini = 0.045\nsamples = 1253\nvalue = [1224, 29]"] ;
717 -> 719 ;
723 [label="cause_Maintenance <= 0.5\ngini = 0.049\nsamples = 562\nvalue = [548, 14]"] ;
719 -> 723 ;
807 [label="cause_Fire <= 0.5\ngini = 0.049\nsamples = 516\nvalue = [503, 13]"] ;
723 -> 807 ;
823 [label="cause_Flood <= 0.5\ngini = 0.05\nsamples = 472\nvalue = [460, 12]"] ;
807 -> 823 ;
825 [label="gini = 0.052\nsamples = 187\nvalue = [182, 5]"] ;
823 -> 825 ;
826 [label="gini = 0.048\nsamples = 285\nvalue = [278, 7]"] ;
823 -> 826 ;
824 [label="gini = 0.044\nsamples = 44\nvalue = [43, 1]"] ;
807 -> 824 ;
808 [label="gini = 0.043\nsamples = 46\nvalue = [45, 1]"] ;
723 -> 808 ;
724 [label="gini = 0.042\nsamples = 691\nvalue = [676, 15]"] ;
719 -> 724 ;
720 [label="gini = 0.084\nsamples = 91\nvalue = [87, 4]"] ;
717 -> 720 ;
718 [label="agency_NuuRQ2I1Q0a50Kv-AVKlLA <= 0.5\ngini = 0.041\nsamples = 334\nvalue = [327, 7]"] ;
715 -> 718 ;
721 [label="gini = 0.061\nsamples = 128\nvalue = [124, 4]"] ;
718 -> 721 ;
722 [label="gini = 0.029\nsamples = 206\nvalue = [203, 3]"] ;
718 -> 722 ;
716 [label="gini = 0.033\nsamples = 60\nvalue = [59, 1]"] ;
699 -> 716 ;
700 [label="gini = 0.0\nsamples = 6\nvalue = [6, 0]"] ;
465 -> 700 ;
466 [label="gini = 0.0\nsamples = 44\nvalue = [44, 0]"] ;
449 -> 466 ;
450 [label="gini = 0.0\nsamples = 49\nvalue = [49, 0]"] ;
325 -> 450 ;
326 [label="gini = 0.065\nsamples = 1162\nvalue = [1123, 39]"] ;
323 -> 326 ;
324 [label="agency_NuuRQ2I1Q0a50Kv-AVKlLA <= 0.5\ngini = 0.061\nsamples = 6380\nvalue = [6178, 202]"] ;
279 -> 324 ;
439 [label="gini = 0.061\nsamples = 6323\nvalue = [6124, 199]"] ;
324 -> 439 ;
440 [label="gini = 0.1\nsamples = 57\nvalue = [54, 3]"] ;
324 -> 440 ;
280 [label="cause_Incident <= 0.5\ngini = 0.086\nsamples = 288\nvalue = [275, 13]"] ;
178 -> 280 ;
281 [label="cause_VehicularAccident <= 0.5\ngini = 0.062\nsamples = 188\nvalue = [182, 6]"] ;
280 -> 281 ;
737 [label="gini = 0.049\nsamples = 40\nvalue = [39, 1]"] ;
281 -> 737 ;
738 [label="gini = 0.065\nsamples = 148\nvalue = [143, 5]"] ;
281 -> 738 ;
282 [label="gini = 0.13\nsamples = 100\nvalue = [93, 7]"] ;
280 -> 282 ;
176 [label="effect_LaneReduction <= 0.5\ngini = 0.066\nsamples = 4677\nvalue = [4516, 161]"] ;
173 -> 176 ;
405 [label="effect_Evacuation <= 0.5\ngini = 0.07\nsamples = 3209\nvalue = [3093, 116]"] ;
176 -> 405 ;
425 [label="effect_TrafficImpact <= 0.5\ngini = 0.071\nsamples = 3109\nvalue = [2995, 114]"] ;
405 -> 425 ;
813 [label="gini = 0.07\nsamples = 2358\nvalue = [2272, 86]"] ;
425 -> 813 ;
814 [label="gini = 0.072\nsamples = 751\nvalue = [723, 28]"] ;
425 -> 814 ;
426 [label="gini = 0.039\nsamples = 100\nvalue = [98, 2]"] ;
405 -> 426 ;
406 [label="gini = 0.059\nsamples = 1468\nvalue = [1423, 45]"] ;
176 -> 406 ;
174 [label="effect_CirculationShutdown <= 0.5\ngini = 0.104\nsamples = 834\nvalue = [788, 46]"] ;
171 -> 174 ;
573 [label="effect_TrafficImpact <= 0.5\ngini = 0.106\nsamples = 783\nvalue = [739, 44]"] ;
174 -> 573 ;
689 [label="gini = 0.111\nsamples = 270\nvalue = [254, 16]"] ;
573 -> 689 ;
690 [label="gini = 0.103\nsamples = 513\nvalue = [485, 28]"] ;
573 -> 690 ;
574 [label="gini = 0.075\nsamples = 51\nvalue = [49, 2]"] ;
174 -> 574 ;
172 [label="cause_Fire <= 0.5\ngini = 0.053\nsamples = 91342\nvalue = [88867, 2475]"] ;
167 -> 172 ;
193 [label="cause_Sinkhole <= 0.5\ngini = 0.053\nsamples = 90611\nvalue = [88165, 2446]"] ;
172 -> 193 ;
195 [label="cause_Incident <= 0.5\ngini = 0.052\nsamples = 90417\nvalue = [87981, 2436]"] ;
193 -> 195 ;
239 [label="cause_Landslide <= 0.5\ngini = 0.052\nsamples = 88467\nvalue = [86096, 2371]"] ;
195 -> 239 ;
303 [label="cause_Demonstration <= 0.5\ngini = 0.052\nsamples = 88315\nvalue = [85951, 2364]"] ;
239 -> 303 ;
305 [label="cause_StreetWorks <= 0.5\ngini = 0.051\nsamples = 54291\nvalue = [52872, 1419]"] ;
303 -> 305 ;
359 [label="cause_Overturn <= 0.5\ngini = 0.05\nsamples = 46618\nvalue = [45416, 1202]"] ;
305 -> 359 ;
385 [label="cause_VehicularAccident <= 0.5\ngini = 0.05\nsamples = 45612\nvalue = [44430, 1182]"] ;
359 -> 385 ;
431 [label="agency_NuuRQ2I1Q0a50Kv-AVKlLA <= 0.5\ngini = 0.049\nsamples = 22743\nvalue = [22171, 572]"] ;
385 -> 431 ;
527 [label="cause_Waterlogging <= 0.5\ngini = 0.049\nsamples = 22261\nvalue = [21704, 557]"] ;
431 -> 527 ;
531 [label="cause_CycleRide <= 0.5\ngini = 0.049\nsamples = 20753\nvalue = [20226, 527]"] ;
527 -> 531 ;
533 [label="effect_TrafficImpact <= 0.5\ngini = 0.05\nsamples = 20462\nvalue = [19939, 523]"] ;
531 -> 533 ;
581 [label="cause_FallenTree <= 0.5\ngini = 0.048\nsamples = 10955\nvalue = [10683, 272]"] ;
533 -> 581 ;
583 [label="cause_Event <= 0.5\ngini = 0.049\nsamples = 10773\nvalue = [10502, 271]"] ;
581 -> 583 ;
603 [label="cause_EmergencyServices <= 0.5\ngini = 0.049\nsamples = 10696\nvalue = [10426, 270]"] ;
583 -> 603 ;
629 [label="effect_CirculationShutdown <= 0.5\ngini = 0.047\nsamples = 4498\nvalue = [4389, 109]"] ;
603 -> 629 ;
633 [label="cause_Leak <= 0.5\ngini = 0.065\nsamples = 268\nvalue = [259, 9]"] ;
629 -> 633 ;
853 [label="gini = 0.067\nsamples = 29\nvalue = [28, 1]"] ;
633 -> 853 ;
854 [label="gini = 0.065\nsamples = 239\nvalue = [231, 8]"] ;
633 -> 854 ;
634 [label="cause_Leak <= 0.5\ngini = 0.046\nsamples = 4230\nvalue = [4130, 100]"] ;
629 -> 634 ;
635 [label="gini = 0.047\nsamples = 4075\nvalue = [3976, 99]"] ;
634 -> 635 ;
636 [label="gini = 0.013\nsamples = 155\nvalue = [154, 1]"] ;
634 -> 636 ;
630 [label="effect_LaneReduction <= 0.5\ngini = 0.051\nsamples = 6198\nvalue = [6037, 161]"] ;
603 -> 630 ;
631 [label="gini = 0.069\nsamples = 562\nvalue = [542, 20]"] ;
630 -> 631 ;
632 [label="gini = 0.049\nsamples = 5636\nvalue = [5495, 141]"] ;
630 -> 632 ;
604 [label="gini = 0.026\nsamples = 77\nvalue = [76, 1]"] ;
583 -> 604 ;
584 [label="gini = 0.011\nsamples = 182\nvalue = [181, 1]"] ;
581 -> 584 ;
582 [label="cause_March <= 0.5\ngini = 0.051\nsamples = 9507\nvalue = [9256, 251]"] ;
533 -> 582 ;
585 [label="cause_FallenTree <= 0.5\ngini = 0.05\nsamples = 8738\nvalue = [8514, 224]"] ;
582 -> 585 ;
587 [label="cause_Flood <= 0.5\ngini = 0.049\nsamples = 8472\nvalue = [8257, 215]"] ;
585 -> 587 ;
589 [label="cause_HeavyTraffic <= 0.5\ngini = 0.049\nsamples = 7727\nvalue = [7534, 193]"] ;
587 -> 589 ;
591 [label="cause_EmergencyServices <= 0.5\ngini = 0.048\nsamples = 7477\nvalue = [7292, 185]"] ;
589 -> 591 ;
703 [label="cause_Leak <= 0.5\ngini = 0.044\nsamples = 578\nvalue = [565, 13]"] ;
591 -> 703 ;
833 [label="gini = 0.043\nsamples = 184\nvalue = [180, 4]"] ;
703 -> 833 ;
834 [label="gini = 0.045\nsamples = 394\nvalue = [385, 9]"] ;
703 -> 834 ;
704 [label="gini = 0.049\nsamples = 6899\nvalue = [6727, 172]"] ;
591 -> 704 ;
592 [label="gini = 0.062\nsamples = 250\nvalue = [242, 8]"] ;
589 -> 592 ;
590 [label="gini = 0.057\nsamples = 745\nvalue = [723, 22]"] ;
587 -> 590 ;
588 [label="gini = 0.065\nsamples = 266\nvalue = [257, 9]"] ;
585 -> 588 ;
586 [label="gini = 0.068\nsamples = 769\nvalue = [742, 27]"] ;
582 -> 586 ;
534 [label="gini = 0.027\nsamples = 291\nvalue = [287, 4]"] ;
531 -> 534 ;
532 [label="effect_LaneReduction <= 0.5\ngini = 0.039\nsamples = 1508\nvalue = [1478, 30]"] ;
527 -> 532 ;
787 [label="gini = 0.039\nsamples = 1340\nvalue = [1313, 27]"] ;
532 -> 787 ;
788 [label="gini = 0.035\nsamples = 168\nvalue = [165, 3]"] ;
532 -> 788 ;
528 [label="cause_March <= 0.5\ngini = 0.06\nsamples = 482\nvalue = [467, 15]"] ;
431 -> 528 ;
529 [label="effect_CirculationShutdown <= 0.5\ngini = 0.074\nsamples = 314\nvalue = [302, 12]"] ;
528 -> 529 ;
669 [label="effect_TrafficImpact <= 0.5\ngini = 0.064\nsamples = 120\nvalue = [116, 4]"] ;
529 -> 669 ;
873 [label="gini = 0.064\nsamples = 30\nvalue = [29, 1]"] ;
669 -> 873 ;
874 [label="gini = 0.064\nsamples = 90\nvalue = [87, 3]"] ;
669 -> 874 ;
670 [label="cause_CycleRide <= 0.5\ngini = 0.079\nsamples = 194\nvalue = [186, 8]"] ;
529 -> 670 ;
707 [label="gini = 0.085\nsamples = 112\nvalue = [107, 5]"] ;
670 -> 707 ;
708 [label="gini = 0.07\nsamples = 82\nvalue = [79, 3]"] ;
670 -> 708 ;
530 [label="effect_TrafficImpact <= 0.5\ngini = 0.035\nsamples = 168\nvalue = [165, 3]"] ;
528 -> 530 ;
593 [label="gini = 0.043\nsamples = 137\nvalue = [134, 3]"] ;
530 -> 593 ;
594 [label="gini = 0.0\nsamples = 31\nvalue = [31, 0]"] ;
530 -> 594 ;
432 [label="effect_CirculationShutdown <= 0.5\ngini = 0.052\nsamples = 22869\nvalue = [22259, 610]"] ;
385 -> 432 ;
433 [label="agency_NuuRQ2I1Q0a50Kv-AVKlLA <= 0.5\ngini = 0.052\nsamples = 22575\nvalue = [21976, 599]"] ;
432 -> 433 ;
539 [label="agency_GewRJAw5tUmC4Ku4AX1-SQ <= 0.5\ngini = 0.052\nsamples = 22493\nvalue = [21895, 598]"] ;
433 -> 539 ;
643 [label="effect_TrafficImpact <= 0.5\ngini = 0.051\nsamples = 20991\nvalue = [20436, 555]"] ;
539 -> 643 ;
681 [label="effect_HighWaitingTime <= 0.5\ngini = 0.05\nsamples = 8874\nvalue = [8644, 230]"] ;
643 -> 681 ;
711 [label="effect_LaneReduction <= 0.5\ngini = 0.05\nsamples = 8636\nvalue = [8413, 223]"] ;
681 -> 711 ;
713 [label="gini = 0.033\nsamples = 180\nvalue = [177, 3]"] ;
711 -> 713 ;
714 [label="gini = 0.051\nsamples = 8456\nvalue = [8236, 220]"] ;
711 -> 714 ;
712 [label="gini = 0.057\nsamples = 238\nvalue = [231, 7]"] ;
681 -> 712 ;
682 [label="gini = 0.052\nsamples = 12117\nvalue = [11792, 325]"] ;
643 -> 682 ;
644 [label="effect_LaneReduction <= 0.5\ngini = 0.056\nsamples = 1502\nvalue = [1459, 43]"] ;
539 -> 644 ;
739 [label="gini = 0.053\nsamples = 696\nvalue = [677, 19]"] ;
644 -> 739 ;
740 [label="gini = 0.058\nsamples = 806\nvalue = [782, 24]"] ;
644 -> 740 ;
540 [label="gini = 0.024\nsamples = 82\nvalue = [81, 1]"] ;
433 -> 540 ;
434 [label="gini = 0.072\nsamples = 294\nvalue = [283, 11]"] ;
432 -> 434 ;
386 [label="effect_TrafficImpact <= 0.5\ngini = 0.039\nsamples = 1006\nvalue = [986, 20]"] ;
359 -> 386 ;
749 [label="gini = 0.04\nsamples = 776\nvalue = [760, 16]"] ;
386 -> 749 ;
750 [label="gini = 0.034\nsamples = 230\nvalue = [226, 4]"] ;
386 -> 750 ;
360 [label="agency_NuuRQ2I1Q0a50Kv-AVKlLA <= 0.5\ngini = 0.055\nsamples = 7673\nvalue = [7456, 217]"] ;
305 -> 360 ;
361 [label="effect_CirculationShutdown <= 0.5\ngini = 0.056\nsamples = 7491\nvalue = [7276, 215]"] ;
360 -> 361 ;
511 [label="effect_LaneReduction <= 0.5\ngini = 0.059\nsamples = 3101\nvalue = [3006, 95]"] ;
361 -> 511 ;
513 [label="effect_TrafficImpact <= 0.5\ngini = 0.069\nsamples = 842\nvalue = [812, 30]"] ;
511 -> 513 ;
515 [label="gini = 0.09\nsamples = 233\nvalue = [222, 11]"] ;
513 -> 515 ;
516 [label="gini = 0.06\nsamples = 609\nvalue = [590, 19]"] ;
513 -> 516 ;
514 [label="gini = 0.056\nsamples = 2259\nvalue = [2194, 65]"] ;
511 -> 514 ;
512 [label="gini = 0.053\nsamples = 4390\nvalue = [4270, 120]"] ;
361 -> 512 ;
362 [label="gini = 0.022\nsamples = 182\nvalue = [180, 2]"] ;
360 -> 362 ;
306 [label="agency_NuuRQ2I1Q0a50Kv-AVKlLA <= 0.5\ngini = 0.054\nsamples = 34024\nvalue = [33079, 945]"] ;
303 -> 306 ;
307 [label="agency_GewRJAw5tUmC4Ku4AX1-SQ <= 0.5\ngini = 0.053\nsamples = 32876\nvalue = [31973, 903]"] ;
306 -> 307 ;
309 [label="effect_TrafficImpact <= 0.5\ngini = 0.053\nsamples = 32136\nvalue = [31260, 876]"] ;
307 -> 309 ;
311 [label="effect_CirculationShutdown <= 0.5\ngini = 0.052\nsamples = 29381\nvalue = [28592, 789]"] ;
309 -> 311 ;
639 [label="gini = 0.048\nsamples = 1301\nvalue = [1269, 32]"] ;
311 -> 639 ;
640 [label="gini = 0.052\nsamples = 28080\nvalue = [27323, 757]"] ;
311 -> 640 ;
312 [label="gini = 0.061\nsamples = 2755\nvalue = [2668, 87]"] ;
309 -> 312 ;
310 [label="effect_TrafficImpact <= 0.5\ngini = 0.07\nsamples = 740\nvalue = [713, 27]"] ;
307 -> 310 ;
435 [label="gini = 0.075\nsamples = 612\nvalue = [588, 24]"] ;
310 -> 435 ;
436 [label="gini = 0.046\nsamples = 128\nvalue = [125, 3]"] ;
310 -> 436 ;
308 [label="effect_CirculationShutdown <= 0.5\ngini = 0.07\nsamples = 1148\nvalue = [1106, 42]"] ;
306 -> 308 ;
797 [label="gini = 0.075\nsamples = 129\nvalue = [124, 5]"] ;
308 -> 797 ;
798 [label="gini = 0.07\nsamples = 1019\nvalue = [982, 37]"] ;
308 -> 798 ;
304 [label="gini = 0.088\nsamples = 152\nvalue = [145, 7]"] ;
239 -> 304 ;
240 [label="effect_TrafficImpact <= 0.5\ngini = 0.064\nsamples = 1950\nvalue = [1885, 65]"] ;
195 -> 240 ;
725 [label="effect_LaneReduction <= 0.5\ngini = 0.064\nsamples = 1761\nvalue = [1703, 58]"] ;
240 -> 725 ;
847 [label="gini = 0.064\nsamples = 1729\nvalue = [1672, 57]"] ;
725 -> 847 ;
848 [label="gini = 0.061\nsamples = 32\nvalue = [31, 1]"] ;
725 -> 848 ;
726 [label="gini = 0.071\nsamples = 189\nvalue = [182, 7]"] ;
240 -> 726 ;
196 [label="gini = 0.098\nsamples = 194\nvalue = [184, 10]"] ;
193 -> 196 ;
194 [label="agency_NuuRQ2I1Q0a50Kv-AVKlLA <= 0.5\ngini = 0.076\nsamples = 731\nvalue = [702, 29]"] ;
172 -> 194 ;
781 [label="gini = 0.077\nsamples = 649\nvalue = [623, 26]"] ;
194 -> 781 ;
782 [label="gini = 0.07\nsamples = 82\nvalue = [79, 3]"] ;
194 -> 782 ;
168 [label="effect_CirculationShutdown <= 0.5\ngini = 0.087\nsamples = 396\nvalue = [378, 18]"] ;
127 -> 168 ;
169 [label="gini = 0.143\nsamples = 103\nvalue = [95, 8]"] ;
168 -> 169 ;
170 [label="cause_EmergencyServices <= 0.5\ngini = 0.066\nsamples = 293\nvalue = [283, 10]"] ;
168 -> 170 ;
751 [label="gini = 0.062\nsamples = 186\nvalue = [180, 6]"] ;
170 -> 751 ;
752 [label="gini = 0.072\nsamples = 107\nvalue = [103, 4]"] ;
170 -> 752 ;
128 [label="cause_Fire <= 0.5\ngini = 0.042\nsamples = 5061\nvalue = [4953, 108]"] ;
125 -> 128 ;
343 [label="cause_March <= 0.5\ngini = 0.04\nsamples = 4759\nvalue = [4661, 98]"] ;
128 -> 343 ;
383 [label="cause_StreetWorks <= 0.5\ngini = 0.041\nsamples = 4674\nvalue = [4576, 98]"] ;
343 -> 383 ;
417 [label="agency_pky7jovXYkaw-awAAMrQ3g <= 0.5\ngini = 0.041\nsamples = 4658\nvalue = [4561, 97]"] ;
383 -> 417 ;
419 [label="agency_NuuRQ2I1Q0a50Kv-AVKlLA <= 0.5\ngini = 0.04\nsamples = 4549\nvalue = [4456, 93]"] ;
417 -> 419 ;
421 [label="cause_EmergencyServices <= 0.5\ngini = 0.038\nsamples = 4088\nvalue = [4008, 80]"] ;
419 -> 421 ;
501 [label="cause_Incident <= 0.5\ngini = 0.039\nsamples = 4036\nvalue = [3956, 80]"] ;
421 -> 501 ;
605 [label="agency_GtvOEQAFZ0GtU6u4AXwvPg <= 0.5\ngini = 0.039\nsamples = 4007\nvalue = [3927, 80]"] ;
501 -> 605 ;
691 [label="gini = 0.035\nsamples = 727\nvalue = [714, 13]"] ;
605 -> 691 ;
692 [label="cause_Demonstration <= 0.5\ngini = 0.04\nsamples = 3280\nvalue = [3213, 67]"] ;
605 -> 692 ;
793 [label="gini = 0.037\nsamples = 215\nvalue = [211, 4]"] ;
692 -> 793 ;
794 [label="gini = 0.04\nsamples = 3065\nvalue = [3002, 63]"] ;
692 -> 794 ;
606 [label="gini = 0.0\nsamples = 29\nvalue = [29, 0]"] ;
501 -> 606 ;
502 [label="gini = 0.0\nsamples = 52\nvalue = [52, 0]"] ;
421 -> 502 ;
422 [label="agency_GtvOEQAFZ0GtU6u4AXwvPg <= 0.5\ngini = 0.055\nsamples = 461\nvalue = [448, 13]"] ;
419 -> 422 ;
423 [label="gini = 0.079\nsamples = 317\nvalue = [304, 13]"] ;
422 -> 423 ;
424 [label="gini = 0.0\nsamples = 144\nvalue = [144, 0]"] ;
422 -> 424 ;
420 [label="gini = 0.071\nsamples = 109\nvalue = [105, 4]"] ;
417 -> 420 ;
418 [label="gini = 0.117\nsamples = 16\nvalue = [15, 1]"] ;
383 -> 418 ;
384 [label="gini = 0.0\nsamples = 85\nvalue = [85, 0]"] ;
343 -> 384 ;
344 [label="gini = 0.064\nsamples = 302\nvalue = [292, 10]"] ;
128 -> 344 ;
126 [label="effect_LaneReduction <= 0.5\ngini = 0.04\nsamples = 3865\nvalue = [3786, 79]"] ;
107 -> 126 ;
241 [label="effect_TrafficImpact <= 0.5\ngini = 0.048\nsamples = 2066\nvalue = [2015, 51]"] ;
126 -> 241 ;
559 [label="gini = 0.065\nsamples = 179\nvalue = [173, 6]"] ;
241 -> 559 ;
560 [label="agency_GtvOEQAFZ0GtU6u4AXwvPg <= 0.5\ngini = 0.047\nsamples = 1887\nvalue = [1842, 45]"] ;
241 -> 560 ;
705 [label="gini = 0.042\nsamples = 463\nvalue = [453, 10]"] ;
560 -> 705 ;
706 [label="gini = 0.048\nsamples = 1424\nvalue = [1389, 35]"] ;
560 -> 706 ;
242 [label="agency_GtvOEQAFZ0GtU6u4AXwvPg <= 0.5\ngini = 0.031\nsamples = 1799\nvalue = [1771, 28]"] ;
126 -> 242 ;
785 [label="gini = 0.028\nsamples = 419\nvalue = [413, 6]"] ;
242 -> 785 ;
786 [label="gini = 0.031\nsamples = 1380\nvalue = [1358, 22]"] ;
242 -> 786 ;
108 [label="gini = 0.146\nsamples = 88\nvalue = [81, 7]"] ;
95 -> 108 ;
96 [label="gini = 0.255\nsamples = 20\nvalue = [17, 3]"] ;
43 -> 96 ;
44 [label="cause_Fire <= 0.5\ngini = 0.048\nsamples = 212231\nvalue = [207060, 5171]"] ;
25 -> 44 ;
57 [label="cause_StreetWorks <= 0.5\ngini = 0.047\nsamples = 210618\nvalue = [205517, 5101]"] ;
44 -> 57 ;
79 [label="agency_GewRJAw5tUmC4Ku4AX1-SQ <= 0.5\ngini = 0.047\nsamples = 206460\nvalue = [201498, 4962]"] ;
57 -> 79 ;
101 [label="cause_EmergencyServices <= 0.5\ngini = 0.047\nsamples = 205134\nvalue = [200222, 4912]"] ;
79 -> 101 ;
121 [label="cause_GasLeak <= 0.5\ngini = 0.047\nsamples = 183113\nvalue = [178665, 4448]"] ;
101 -> 121 ;
129 [label="cause_Overturn <= 0.5\ngini = 0.047\nsamples = 182771\nvalue = [178339, 4432]"] ;
121 -> 129 ;
197 [label="cause_FallenTree <= 0.5\ngini = 0.047\nsamples = 179074\nvalue = [174752, 4322]"] ;
129 -> 197 ;
203 [label="cause_Sinkhole <= 0.5\ngini = 0.047\nsamples = 178551\nvalue = [174234, 4317]"] ;
197 -> 203 ;
213 [label="cause_Incident <= 0.5\ngini = 0.047\nsamples = 178510\nvalue = [174196, 4314]"] ;
203 -> 213 ;
263 [label="cause_Flood <= 0.5\ngini = 0.047\nsamples = 173476\nvalue = [169265, 4211]"] ;
213 -> 263 ;
291 [label="agency_NuuRQ2I1Q0a50Kv-AVKlLA <= 0.5\ngini = 0.047\nsamples = 172859\nvalue = [168669, 4190]"] ;
263 -> 291 ;
371 [label="cause_March <= 0.5\ngini = 0.047\nsamples = 168445\nvalue = [164349, 4096]"] ;
291 -> 371 ;
373 [label="cause_BrokenVehicle <= 0.5\ngini = 0.047\nsamples = 167837\nvalue = [163761, 4076]"] ;
371 -> 373 ;
399 [label="cause_Demonstration <= 0.5\ngini = 0.048\nsamples = 151876\nvalue = [148166, 3710]"] ;
373 -> 399 ;
485 [label="cause_Rain <= 0.5\ngini = 0.048\nsamples = 147988\nvalue = [144382, 3606]"] ;
399 -> 485 ;
497 [label="cause_HeavyTraffic <= 0.5\ngini = 0.048\nsamples = 147780\nvalue = [144177, 3603]"] ;
485 -> 497 ;
535 [label="agency_GtvOEQAFZ0GtU6u4AXwvPg <= 0.5\ngini = 0.048\nsamples = 147358\nvalue = [143768, 3590]"] ;
497 -> 535 ;
621 [label="cause_Leak <= 0.5\ngini = 0.048\nsamples = 31095\nvalue = [30323, 772]"] ;
535 -> 621 ;
623 [label="cause_Waterlogging <= 0.5\ngini = 0.048\nsamples = 31010\nvalue = [30241, 769]"] ;
621 -> 623 ;
805 [label="cause_VehicularAccident <= 0.5\ngini = 0.048\nsamples = 30861\nvalue = [30096, 765]"] ;
623 -> 805 ;
865 [label="gini = 0.048\nsamples = 41\nvalue = [40, 1]"] ;
805 -> 865 ;
866 [label="gini = 0.048\nsamples = 30820\nvalue = [30056, 764]"] ;
805 -> 866 ;
806 [label="gini = 0.052\nsamples = 149\nvalue = [145, 4]"] ;
623 -> 806 ;
624 [label="gini = 0.068\nsamples = 85\nvalue = [82, 3]"] ;
621 -> 624 ;
622 [label="cause_VehicularAccident <= 0.5\ngini = 0.047\nsamples = 116263\nvalue = [113445, 2818]"] ;
535 -> 622 ;
745 [label="cause_Waterlogging <= 0.5\ngini = 0.045\nsamples = 1684\nvalue = [1645, 39]"] ;
622 -> 745 ;
831 [label="cause_Leak <= 0.5\ngini = 0.046\nsamples = 1286\nvalue = [1256, 30]"] ;
745 -> 831 ;
841 [label="cause_Maintenance <= 0.5\ngini = 0.047\nsamples = 166\nvalue = [162, 4]"] ;
831 -> 841 ;
867 [label="gini = 0.047\nsamples = 125\nvalue = [122, 3]"] ;
841 -> 867 ;
868 [label="gini = 0.048\nsamples = 41\nvalue = [40, 1]"] ;
841 -> 868 ;
842 [label="gini = 0.045\nsamples = 1120\nvalue = [1094, 26]"] ;
831 -> 842 ;
832 [label="gini = 0.044\nsamples = 398\nvalue = [389, 9]"] ;
745 -> 832 ;
746 [label="agency_pky7jovXYkaw-awAAMrQ3g <= 0.5\ngini = 0.047\nsamples = 114579\nvalue = [111800, 2779]"] ;
622 -> 746 ;
861 [label="gini = 0.047\nsamples = 114454\nvalue = [111678, 2776]"] ;
746 -> 861 ;
862 [label="gini = 0.047\nsamples = 125\nvalue = [122, 3]"] ;
746 -> 862 ;
536 [label="agency_GtvOEQAFZ0GtU6u4AXwvPg <= 0.5\ngini = 0.06\nsamples = 422\nvalue = [409, 13]"] ;
497 -> 536 ;
661 [label="gini = 0.051\nsamples = 153\nvalue = [149, 4]"] ;
536 -> 661 ;
662 [label="gini = 0.065\nsamples = 269\nvalue = [260, 9]"] ;
536 -> 662 ;
498 [label="gini = 0.028\nsamples = 208\nvalue = [205, 3]"] ;
485 -> 498 ;
486 [label="agency_GtvOEQAFZ0GtU6u4AXwvPg <= 0.5\ngini = 0.052\nsamples = 3888\nvalue = [3784, 104]"] ;
399 -> 486 ;
565 [label="gini = 0.04\nsamples = 342\nvalue = [335, 7]"] ;
486 -> 565 ;
566 [label="gini = 0.053\nsamples = 3546\nvalue = [3449, 97]"] ;
486 -> 566 ;
400 [label="agency_GtvOEQAFZ0GtU6u4AXwvPg <= 0.5\ngini = 0.045\nsamples = 15961\nvalue = [15595, 366]"] ;
373 -> 400 ;
441 [label="gini = 0.038\nsamples = 1710\nvalue = [1677, 33]"] ;
400 -> 441 ;
442 [label="gini = 0.046\nsamples = 14251\nvalue = [13918, 333]"] ;
400 -> 442 ;
374 [label="agency_GtvOEQAFZ0GtU6u4AXwvPg <= 0.5\ngini = 0.064\nsamples = 608\nvalue = [588, 20]"] ;
371 -> 374 ;
375 [label="gini = 0.0\nsamples = 65\nvalue = [65, 0]"] ;
374 -> 375 ;
376 [label="gini = 0.071\nsamples = 543\nvalue = [523, 20]"] ;
374 -> 376 ;
372 [label="cause_Leak <= 0.5\ngini = 0.042\nsamples = 4414\nvalue = [4320, 94]"] ;
291 -> 372 ;
483 [label="cause_March <= 0.5\ngini = 0.041\nsamples = 4187\nvalue = [4100, 87]"] ;
372 -> 483 ;
687 [label="agency_GtvOEQAFZ0GtU6u4AXwvPg <= 0.5\ngini = 0.041\nsamples = 4113\nvalue = [4027, 86]"] ;
483 -> 687 ;
775 [label="cause_BrokenVehicle <= 0.5\ngini = 0.043\nsamples = 824\nvalue = [806, 18]"] ;
687 -> 775 ;
779 [label="gini = 0.04\nsamples = 777\nvalue = [761, 16]"] ;
775 -> 779 ;
780 [label="gini = 0.081\nsamples = 47\nvalue = [45, 2]"] ;
775 -> 780 ;
776 [label="cause_BrokenVehicle <= 0.5\ngini = 0.04\nsamples = 3289\nvalue = [3221, 68]"] ;
687 -> 776 ;
777 [label="cause_VehicularAccident <= 0.5\ngini = 0.041\nsamples = 3238\nvalue = [3170, 68]"] ;
776 -> 777 ;
851 [label="gini = 0.04\nsamples = 98\nvalue = [96, 2]"] ;
777 -> 851 ;
852 [label="gini = 0.041\nsamples = 3140\nvalue = [3074, 66]"] ;
777 -> 852 ;
778 [label="gini = 0.0\nsamples = 51\nvalue = [51, 0]"] ;
776 -> 778 ;
688 [label="gini = 0.027\nsamples = 74\nvalue = [73, 1]"] ;
483 -> 688 ;
484 [label="gini = 0.06\nsamples = 227\nvalue = [220, 7]"] ;
372 -> 484 ;
292 [label="agency_GtvOEQAFZ0GtU6u4AXwvPg <= 0.5\ngini = 0.066\nsamples = 617\nvalue = [596, 21]"] ;
263 -> 292 ;
293 [label="agency_NuuRQ2I1Q0a50Kv-AVKlLA <= 0.5\ngini = 0.052\nsamples = 408\nvalue = [397, 11]"] ;
292 -> 293 ;
567 [label="gini = 0.06\nsamples = 293\nvalue = [284, 9]"] ;
293 -> 567 ;
568 [label="gini = 0.034\nsamples = 115\nvalue = [113, 2]"] ;
293 -> 568 ;
294 [label="agency_NuuRQ2I1Q0a50Kv-AVKlLA <= 0.5\ngini = 0.091\nsamples = 209\nvalue = [199, 10]"] ;
292 -> 294 ;
295 [label="gini = 0.062\nsamples = 124\nvalue = [120, 4]"] ;
294 -> 295 ;
296 [label="gini = 0.131\nsamples = 85\nvalue = [79, 6]"] ;
294 -> 296 ;
264 [label="agency_NuuRQ2I1Q0a50Kv-AVKlLA <= 0.5\ngini = 0.04\nsamples = 5034\nvalue = [4931, 103]"] ;
213 -> 264 ;
265 [label="agency_GtvOEQAFZ0GtU6u4AXwvPg <= 0.5\ngini = 0.039\nsamples = 5018\nvalue = [4917, 101]"] ;
264 -> 265 ;
379 [label="gini = 0.051\nsamples = 882\nvalue = [859, 23]"] ;
265 -> 379 ;
380 [label="gini = 0.037\nsamples = 4136\nvalue = [4058, 78]"] ;
265 -> 380 ;
266 [label="gini = 0.219\nsamples = 16\nvalue = [14, 2]"] ;
264 -> 266 ;
214 [label="gini = 0.136\nsamples = 41\nvalue = [38, 3]"] ;
203 -> 214 ;
204 [label="agency_GtvOEQAFZ0GtU6u4AXwvPg <= 0.5\ngini = 0.019\nsamples = 523\nvalue = [518, 5]"] ;
197 -> 204 ;
487 [label="gini = 0.071\nsamples = 27\nvalue = [26, 1]"] ;
204 -> 487 ;
488 [label="agency_NuuRQ2I1Q0a50Kv-AVKlLA <= 0.5\ngini = 0.016\nsamples = 496\nvalue = [492, 4]"] ;
204 -> 488 ;
665 [label="gini = 0.019\nsamples = 428\nvalue = [424, 4]"] ;
488 -> 665 ;
666 [label="gini = 0.0\nsamples = 68\nvalue = [68, 0]"] ;
488 -> 666 ;
198 [label="agency_GtvOEQAFZ0GtU6u4AXwvPg <= 0.5\ngini = 0.058\nsamples = 3697\nvalue = [3587, 110]"] ;
129 -> 198 ;
199 [label="gini = 0.078\nsamples = 1076\nvalue = [1032, 44]"] ;
198 -> 199 ;
200 [label="agency_NuuRQ2I1Q0a50Kv-AVKlLA <= 0.5\ngini = 0.049\nsamples = 2621\nvalue = [2555, 66]"] ;
198 -> 200 ;
727 [label="gini = 0.048\nsamples = 2185\nvalue = [2131, 54]"] ;
200 -> 727 ;
728 [label="gini = 0.054\nsamples = 436\nvalue = [424, 12]"] ;
200 -> 728 ;
130 [label="agency_GtvOEQAFZ0GtU6u4AXwvPg <= 0.5\ngini = 0.089\nsamples = 342\nvalue = [326, 16]"] ;
121 -> 130 ;
683 [label="gini = 0.094\nsamples = 223\nvalue = [212, 11]"] ;
130 -> 683 ;
684 [label="gini = 0.081\nsamples = 119\nvalue = [114, 5]"] ;
130 -> 684 ;
122 [label="agency_NuuRQ2I1Q0a50Kv-AVKlLA <= 0.5\ngini = 0.041\nsamples = 22021\nvalue = [21557, 464]"] ;
101 -> 122 ;
561 [label="agency_GtvOEQAFZ0GtU6u4AXwvPg <= 0.5\ngini = 0.041\nsamples = 21565\nvalue = [21108, 457]"] ;
122 -> 561 ;
821 [label="gini = 0.042\nsamples = 4763\nvalue = [4661, 102]"] ;
561 -> 821 ;
822 [label="gini = 0.041\nsamples = 16802\nvalue = [16447, 355]"] ;
561 -> 822 ;
562 [label="agency_GtvOEQAFZ0GtU6u4AXwvPg <= 0.5\ngini = 0.03\nsamples = 456\nvalue = [449, 7]"] ;
122 -> 562 ;
615 [label="gini = 0.016\nsamples = 124\nvalue = [123, 1]"] ;
562 -> 615 ;
616 [label="gini = 0.035\nsamples = 332\nvalue = [326, 6]"] ;
562 -> 616 ;
102 [label="cause_BrokenVehicle <= 0.5\ngini = 0.073\nsamples = 1326\nvalue = [1276, 50]"] ;
79 -> 102 ;
247 [label="cause_Overturn <= 0.5\ngini = 0.079\nsamples = 1122\nvalue = [1076, 46]"] ;
102 -> 247 ;
285 [label="cause_Incident <= 0.5\ngini = 0.077\nsamples = 1101\nvalue = [1057, 44]"] ;
247 -> 285 ;
407 [label="cause_EmergencyServices <= 0.5\ngini = 0.078\nsamples = 1083\nvalue = [1039, 44]"] ;
285 -> 407 ;
837 [label="gini = 0.078\nsamples = 932\nvalue = [894, 38]"] ;
407 -> 837 ;
838 [label="gini = 0.076\nsamples = 151\nvalue = [145, 6]"] ;
407 -> 838 ;
408 [label="gini = 0.0\nsamples = 18\nvalue = [18, 0]"] ;
285 -> 408 ;
286 [label="gini = 0.172\nsamples = 21\nvalue = [19, 2]"] ;
247 -> 286 ;
248 [label="gini = 0.038\nsamples = 204\nvalue = [200, 4]"] ;
102 -> 248 ;
80 [label="agency_GtvOEQAFZ0GtU6u4AXwvPg <= 0.5\ngini = 0.065\nsamples = 4158\nvalue = [4019, 139]"] ;
57 -> 80 ;
469 [label="gini = 0.071\nsamples = 1446\nvalue = [1393, 53]"] ;
80 -> 469 ;
470 [label="gini = 0.061\nsamples = 2712\nvalue = [2626, 86]"] ;
80 -> 470 ;
58 [label="agency_NuuRQ2I1Q0a50Kv-AVKlLA <= 0.5\ngini = 0.083\nsamples = 1613\nvalue = [1543, 70]"] ;
44 -> 58 ;
377 [label="agency_GtvOEQAFZ0GtU6u4AXwvPg <= 0.5\ngini = 0.086\nsamples = 1497\nvalue = [1430, 67]"] ;
58 -> 377 ;
857 [label="gini = 0.086\nsamples = 356\nvalue = [340, 16]"] ;
377 -> 857 ;
858 [label="gini = 0.085\nsamples = 1141\nvalue = [1090, 51]"] ;
377 -> 858 ;
378 [label="agency_GtvOEQAFZ0GtU6u4AXwvPg <= 0.5\ngini = 0.05\nsamples = 116\nvalue = [113, 3]"] ;
58 -> 378 ;
387 [label="gini = 0.095\nsamples = 40\nvalue = [38, 2]"] ;
378 -> 387 ;
388 [label="gini = 0.026\nsamples = 76\nvalue = [75, 1]"] ;
378 -> 388 ;
26 [label="effect_Delays <= 0.5\ngini = 0.08\nsamples = 4251\nvalue = [4073, 178]"] ;
11 -> 26 ;
151 [label="cause_Waterlogging <= 0.5\ngini = 0.096\nsamples = 1305\nvalue = [1239, 66]"] ;
26 -> 151 ;
163 [label="effect_TrafficImpact <= 0.5\ngini = 0.101\nsamples = 1221\nvalue = [1156, 65]"] ;
151 -> 163 ;
227 [label="agency_GtvOEQAFZ0GtU6u4AXwvPg <= 0.5\ngini = 0.094\nsamples = 995\nvalue = [946, 49]"] ;
163 -> 227 ;
645 [label="cause_VehicularAccident <= 0.5\ngini = 0.094\nsamples = 966\nvalue = [918, 48]"] ;
227 -> 645 ;
761 [label="gini = 0.095\nsamples = 796\nvalue = [756, 40]"] ;
645 -> 761 ;
762 [label="gini = 0.09\nsamples = 170\nvalue = [162, 8]"] ;
645 -> 762 ;
646 [label="gini = 0.067\nsamples = 29\nvalue = [28, 1]"] ;
227 -> 646 ;
228 [label="cause_StreetWorks <= 0.5\ngini = 0.132\nsamples = 226\nvalue = [210, 16]"] ;
163 -> 228 ;
229 [label="cause_Flood <= 0.5\ngini = 0.16\nsamples = 160\nvalue = [146, 14]"] ;
228 -> 229 ;
401 [label="gini = 0.18\nsamples = 90\nvalue = [81, 9]"] ;
229 -> 401 ;
402 [label="gini = 0.133\nsamples = 70\nvalue = [65, 5]"] ;
229 -> 402 ;
230 [label="gini = 0.059\nsamples = 66\nvalue = [64, 2]"] ;
228 -> 230 ;
164 [label="gini = 0.024\nsamples = 84\nvalue = [83, 1]"] ;
151 -> 164 ;
152 [label="cause_Demonstration <= 0.5\ngini = 0.073\nsamples = 2946\nvalue = [2834, 112]"] ;
26 -> 152 ;
455 [label="cause_Incident <= 0.5\ngini = 0.074\nsamples = 2889\nvalue = [2778, 111]"] ;
152 -> 455 ;
613 [label="cause_FallenTree <= 0.5\ngini = 0.073\nsamples = 2493\nvalue = [2399, 94]"] ;
455 -> 613 ;
795 [label="cause_VehicularAccident <= 0.5\ngini = 0.072\nsamples = 2394\nvalue = [2304, 90]"] ;
613 -> 795 ;
815 [label="gini = 0.07\nsamples = 166\nvalue = [160, 6]"] ;
795 -> 815 ;
816 [label="gini = 0.073\nsamples = 2228\nvalue = [2144, 84]"] ;
795 -> 816 ;
796 [label="gini = 0.078\nsamples = 99\nvalue = [95, 4]"] ;
613 -> 796 ;
614 [label="gini = 0.082\nsamples = 396\nvalue = [379, 17]"] ;
455 -> 614 ;
456 [label="gini = 0.034\nsamples = 57\nvalue = [56, 1]"] ;
152 -> 456 ;
12 [label="cause_Fire <= 0.5\ngini = 0.097\nsamples = 6624\nvalue = [6287, 337]"] ;
5 -> 12 ;
19 [label="cause_Overturn <= 0.5\ngini = 0.092\nsamples = 6448\nvalue = [6135, 313]"] ;
12 -> 19 ;
21 [label="effect_Delays <= 0.5\ngini = 0.088\nsamples = 6303\nvalue = [6011, 292]"] ;
19 -> 21 ;
71 [label="cause_VehicularAccident <= 0.5\ngini = 0.097\nsamples = 4631\nvalue = [4394, 237]"] ;
21 -> 71 ;
191 [label="cause_Demonstration <= 0.5\ngini = 0.094\nsamples = 4113\nvalue = [3910, 203]"] ;
71 -> 191 ;
219 [label="agency_NuuRQ2I1Q0a50Kv-AVKlLA <= 0.5\ngini = 0.079\nsamples = 997\nvalue = [956, 41]"] ;
191 -> 219 ;
221 [label="cause_EmergencyServices <= 0.5\ngini = 0.111\nsamples = 528\nvalue = [497, 31]"] ;
219 -> 221 ;
223 [label="gini = 0.137\nsamples = 312\nvalue = [289, 23]"] ;
221 -> 223 ;
224 [label="gini = 0.071\nsamples = 216\nvalue = [208, 8]"] ;
221 -> 224 ;
222 [label="gini = 0.042\nsamples = 469\nvalue = [459, 10]"] ;
219 -> 222 ;
220 [label="agency_NuuRQ2I1Q0a50Kv-AVKlLA <= 0.5\ngini = 0.099\nsamples = 3116\nvalue = [2954, 162]"] ;
191 -> 220 ;
225 [label="agency_GewRJAw5tUmC4Ku4AX1-SQ <= 0.5\ngini = 0.086\nsamples = 1115\nvalue = [1065, 50]"] ;
220 -> 225 ;
249 [label="gini = 0.069\nsamples = 504\nvalue = [486, 18]"] ;
225 -> 249 ;
250 [label="gini = 0.099\nsamples = 611\nvalue = [579, 32]"] ;
225 -> 250 ;
226 [label="gini = 0.106\nsamples = 2001\nvalue = [1889, 112]"] ;
220 -> 226 ;
192 [label="gini = 0.123\nsamples = 518\nvalue = [484, 34]"] ;
71 -> 192 ;
72 [label="cause_EmergencyServices <= 0.5\ngini = 0.064\nsamples = 1672\nvalue = [1617, 55]"] ;
21 -> 72 ;
329 [label="agency_NuuRQ2I1Q0a50Kv-AVKlLA <= 0.5\ngini = 0.06\nsamples = 1460\nvalue = [1415, 45]"] ;
72 -> 329 ;
339 [label="agency_GtvOEQAFZ0GtU6u4AXwvPg <= 0.5\ngini = 0.051\nsamples = 844\nvalue = [822, 22]"] ;
329 -> 339 ;
341 [label="gini = 0.026\nsamples = 304\nvalue = [300, 4]"] ;
339 -> 341 ;
342 [label="cause_Waterlogging <= 0.5\ngini = 0.064\nsamples = 540\nvalue = [522, 18]"] ;
339 -> 342 ;
693 [label="gini = 0.059\nsamples = 231\nvalue = [224, 7]"] ;
342 -> 693 ;
694 [label="gini = 0.069\nsamples = 309\nvalue = [298, 11]"] ;
342 -> 694 ;
340 [label="cause_VehicularAccident <= 0.5\ngini = 0.072\nsamples = 616\nvalue = [593, 23]"] ;
329 -> 340 ;
519 [label="gini = 0.063\nsamples = 340\nvalue = [329, 11]"] ;
340 -> 519 ;
520 [label="gini = 0.083\nsamples = 276\nvalue = [264, 12]"] ;
340 -> 520 ;
330 [label="gini = 0.09\nsamples = 212\nvalue = [202, 10]"] ;
72 -> 330 ;
22 [label="gini = 0.248\nsamples = 145\nvalue = [124, 21]"] ;
19 -> 22 ;
20 [label="gini = 0.236\nsamples = 176\nvalue = [152, 24]"] ;
12 -> 20 ;
6 [label="effect_CirculationRestored <= 0.5\ngini = 0.081\nsamples = 66000\nvalue = [63204, 2796]"] ;
2 -> 6 ;
37 [label="agency_GtvOEQAFZ0GtU6u4AXwvPg <= 0.5\ngini = 0.084\nsamples = 56685\nvalue = [54199, 2486]"] ;
6 -> 37 ;
49 [label="agency_GewRJAw5tUmC4Ku4AX1-SQ <= 0.5\ngini = 0.091\nsamples = 24862\nvalue = [23680, 1182]"] ;
37 -> 49 ;
75 [label="cause_EmergencyServices <= 0.5\ngini = 0.09\nsamples = 24653\nvalue = [23490, 1163]"] ;
49 -> 75 ;
85 [label="cause_Fire <= 0.5\ngini = 0.088\nsamples = 23134\nvalue = [22064, 1070]"] ;
75 -> 85 ;
99 [label="cause_VehicularAccident <= 0.5\ngini = 0.088\nsamples = 23047\nvalue = [21986, 1061]"] ;
85 -> 99 ;
123 [label="cause_Flood <= 0.5\ngini = 0.083\nsamples = 13256\nvalue = [12679, 577]"] ;
99 -> 123 ;
161 [label="cause_StreetWorks <= 0.5\ngini = 0.082\nsamples = 12907\nvalue = [12352, 555]"] ;
123 -> 161 ;
209 [label="effect_TrafficImpact <= 0.5\ngini = 0.084\nsamples = 11986\nvalue = [11461, 525]"] ;
161 -> 209 ;
271 [label="cause_Event <= 0.5\ngini = 0.087\nsamples = 8564\nvalue = [8176, 388]"] ;
209 -> 271 ;
283 [label="cause_Waterlogging <= 0.5\ngini = 0.087\nsamples = 8465\nvalue = [8079, 386]"] ;
271 -> 283 ;
353 [label="agency_NuuRQ2I1Q0a50Kv-AVKlLA <= 0.5\ngini = 0.086\nsamples = 8303\nvalue = [7927, 376]"] ;
283 -> 353 ;
411 [label="cause_Incident <= 0.5\ngini = 0.088\nsamples = 6416\nvalue = [6119, 297]"] ;
353 -> 411 ;
415 [label="effect_SuspensionOfService <= 0.5\ngini = 0.09\nsamples = 6004\nvalue = [5721, 283]"] ;
411 -> 415 ;
517 [label="effect_Delays <= 0.5\ngini = 0.09\nsamples = 5912\nvalue = [5632, 280]"] ;
415 -> 517 ;
671 [label="cause_March <= 0.5\ngini = 0.091\nsamples = 5504\nvalue = [5242, 262]"] ;
517 -> 671 ;
685 [label="gini = 0.09\nsamples = 5211\nvalue = [4964, 247]"] ;
671 -> 685 ;
686 [label="gini = 0.097\nsamples = 293\nvalue = [278, 15]"] ;
671 -> 686 ;
672 [label="cause_Demonstration <= 0.5\ngini = 0.084\nsamples = 408\nvalue = [390, 18]"] ;
517 -> 672 ;
673 [label="cause_Overturn <= 0.5\ngini = 0.076\nsamples = 329\nvalue = [316, 13]"] ;
672 -> 673 ;
675 [label="gini = 0.061\nsamples = 190\nvalue = [184, 6]"] ;
673 -> 675 ;
676 [label="gini = 0.096\nsamples = 139\nvalue = [132, 7]"] ;
673 -> 676 ;
674 [label="gini = 0.119\nsamples = 79\nvalue = [74, 5]"] ;
672 -> 674 ;
518 [label="gini = 0.063\nsamples = 92\nvalue = [89, 3]"] ;
415 -> 518 ;
416 [label="effect_Delays <= 0.5\ngini = 0.066\nsamples = 412\nvalue = [398, 14]"] ;
411 -> 416 ;
843 [label="gini = 0.067\nsamples = 115\nvalue = [111, 4]"] ;
416 -> 843 ;
844 [label="gini = 0.065\nsamples = 297\nvalue = [287, 10]"] ;
416 -> 844 ;
412 [label="effect_CirculationShutdown <= 0.5\ngini = 0.08\nsamples = 1887\nvalue = [1808, 79]"] ;
353 -> 412 ;
413 [label="gini = 0.103\nsamples = 366\nvalue = [346, 20]"] ;
412 -> 413 ;
414 [label="gini = 0.075\nsamples = 1521\nvalue = [1462, 59]"] ;
412 -> 414 ;
354 [label="agency_NuuRQ2I1Q0a50Kv-AVKlLA <= 0.5\ngini = 0.116\nsamples = 162\nvalue = [152, 10]"] ;
283 -> 354 ;
365 [label="gini = 0.094\nsamples = 101\nvalue = [96, 5]"] ;
354 -> 365 ;
366 [label="gini = 0.15\nsamples = 61\nvalue = [56, 5]"] ;
354 -> 366 ;
284 [label="gini = 0.04\nsamples = 99\nvalue = [97, 2]"] ;
271 -> 284 ;
272 [label="cause_Pilgrimage <= 0.5\ngini = 0.077\nsamples = 3422\nvalue = [3285, 137]"] ;
209 -> 272 ;
445 [label="cause_Demonstration <= 0.5\ngini = 0.078\nsamples = 3246\nvalue = [3114, 132]"] ;
272 -> 445 ;
447 [label="cause_March <= 0.5\ngini = 0.084\nsamples = 1405\nvalue = [1343, 62]"] ;
445 -> 447 ;
509 [label="cause_Incident <= 0.5\ngini = 0.098\nsamples = 270\nvalue = [256, 14]"] ;
447 -> 509 ;
695 [label="gini = 0.102\nsamples = 204\nvalue = [193, 11]"] ;
509 -> 695 ;
696 [label="gini = 0.087\nsamples = 66\nvalue = [63, 3]"] ;
509 -> 696 ;
510 [label="gini = 0.081\nsamples = 1135\nvalue = [1087, 48]"] ;
447 -> 510 ;
448 [label="gini = 0.073\nsamples = 1841\nvalue = [1771, 70]"] ;
445 -> 448 ;
446 [label="gini = 0.055\nsamples = 176\nvalue = [171, 5]"] ;
272 -> 446 ;
210 [label="effect_CirculationShutdown <= 0.5\ngini = 0.063\nsamples = 921\nvalue = [891, 30]"] ;
161 -> 210 ;
245 [label="effect_LaneReduction <= 0.5\ngini = 0.055\nsamples = 772\nvalue = [750, 22]"] ;
210 -> 245 ;
595 [label="effect_TrafficImpact <= 0.5\ngini = 0.059\nsamples = 625\nvalue = [606, 19]"] ;
245 -> 595 ;
765 [label="gini = 0.056\nsamples = 311\nvalue = [302, 9]"] ;
595 -> 765 ;
766 [label="gini = 0.062\nsamples = 314\nvalue = [304, 10]"] ;
595 -> 766 ;
596 [label="gini = 0.04\nsamples = 147\nvalue = [144, 3]"] ;
245 -> 596 ;
246 [label="gini = 0.102\nsamples = 149\nvalue = [141, 8]"] ;
210 -> 246 ;
162 [label="gini = 0.118\nsamples = 349\nvalue = [327, 22]"] ;
123 -> 162 ;
124 [label="effect_Delays <= 0.5\ngini = 0.094\nsamples = 9791\nvalue = [9307, 484]"] ;
99 -> 124 ;
185 [label="gini = 0.116\nsamples = 780\nvalue = [732, 48]"] ;
124 -> 185 ;
186 [label="agency_NuuRQ2I1Q0a50Kv-AVKlLA <= 0.5\ngini = 0.092\nsamples = 9011\nvalue = [8575, 436]"] ;
124 -> 186 ;
607 [label="gini = 0.092\nsamples = 8735\nvalue = [8314, 421]"] ;
186 -> 607 ;
608 [label="gini = 0.103\nsamples = 276\nvalue = [261, 15]"] ;
186 -> 608 ;
100 [label="gini = 0.185\nsamples = 87\nvalue = [78, 9]"] ;
85 -> 100 ;
86 [label="effect_Delays <= 0.5\ngini = 0.115\nsamples = 1519\nvalue = [1426, 93]"] ;
75 -> 86 ;
363 [label="gini = 0.105\nsamples = 668\nvalue = [631, 37]"] ;
86 -> 363 ;
364 [label="gini = 0.123\nsamples = 851\nvalue = [795, 56]"] ;
86 -> 364 ;
76 [label="gini = 0.165\nsamples = 209\nvalue = [190, 19]"] ;
49 -> 76 ;
50 [label="cause_Demonstration <= 0.5\ngini = 0.079\nsamples = 31823\nvalue = [30519, 1304]"] ;
37 -> 50 ;
51 [label="cause_March <= 0.5\ngini = 0.066\nsamples = 16573\nvalue = [16004, 569]"] ;
50 -> 51 ;
97 [label="agency_NuuRQ2I1Q0a50Kv-AVKlLA <= 0.5\ngini = 0.06\nsamples = 10627\nvalue = [10296, 331]"] ;
51 -> 97 ;
179 [label="effect_Delays <= 0.5\ngini = 0.064\nsamples = 8420\nvalue = [8143, 277]"] ;
97 -> 179 ;
183 [label="cause_Incident <= 0.5\ngini = 0.055\nsamples = 3678\nvalue = [3574, 104]"] ;
179 -> 183 ;
335 [label="cause_BrokenVehicle <= 0.5\ngini = 0.051\nsamples = 2880\nvalue = [2804, 76]"] ;
183 -> 335 ;
543 [label="cause_StreetWorks <= 0.5\ngini = 0.053\nsamples = 2615\nvalue = [2544, 71]"] ;
335 -> 543 ;
743 [label="agency_JUR9bFXmVkWDHqu4AXaY0g <= 0.5\ngini = 0.052\nsamples = 1734\nvalue = [1688, 46]"] ;
543 -> 743 ;
753 [label="cause_VehicularAccident <= 0.5\ngini = 0.051\nsamples = 1383\nvalue = [1347, 36]"] ;
743 -> 753 ;
755 [label="cause_CycleRide <= 0.5\ngini = 0.052\nsamples = 1001\nvalue = [974, 27]"] ;
753 -> 755 ;
773 [label="cause_Sinkhole <= 0.5\ngini = 0.054\nsamples = 688\nvalue = [669, 19]"] ;
755 -> 773 ;
799 [label="cause_Maintenance <= 0.5\ngini = 0.055\nsamples = 533\nvalue = [518, 15]"] ;
773 -> 799 ;
855 [label="gini = 0.055\nsamples = 318\nvalue = [309, 9]"] ;
799 -> 855 ;
856 [label="gini = 0.054\nsamples = 215\nvalue = [209, 6]"] ;
799 -> 856 ;
800 [label="gini = 0.05\nsamples = 155\nvalue = [151, 4]"] ;
773 -> 800 ;
774 [label="gini = 0.05\nsamples = 313\nvalue = [305, 8]"] ;
755 -> 774 ;
756 [label="gini = 0.046\nsamples = 382\nvalue = [373, 9]"] ;
753 -> 756 ;
754 [label="gini = 0.055\nsamples = 351\nvalue = [341, 10]"] ;
743 -> 754 ;
744 [label="effect_CirculationShutdown <= 0.5\ngini = 0.055\nsamples = 881\nvalue = [856, 25]"] ;
543 -> 744 ;
835 [label="gini = 0.055\nsamples = 675\nvalue = [656, 19]"] ;
744 -> 835 ;
836 [label="gini = 0.057\nsamples = 206\nvalue = [200, 6]"] ;
744 -> 836 ;
544 [label="gini = 0.037\nsamples = 265\nvalue = [260, 5]"] ;
335 -> 544 ;
336 [label="effect_TrafficImpact <= 0.5\ngini = 0.068\nsamples = 798\nvalue = [770, 28]"] ;
183 -> 336 ;
747 [label="gini = 0.063\nsamples = 244\nvalue = [236, 8]"] ;
336 -> 747 ;
748 [label="gini = 0.07\nsamples = 554\nvalue = [534, 20]"] ;
336 -> 748 ;
184 [label="cause_Waterlogging <= 0.5\ngini = 0.07\nsamples = 4742\nvalue = [4569, 173]"] ;
179 -> 184 ;
273 [label="cause_EmergencyServices <= 0.5\ngini = 0.068\nsamples = 4401\nvalue = [4245, 156]"] ;
184 -> 273 ;
301 [label="cause_Flood <= 0.5\ngini = 0.066\nsamples = 3844\nvalue = [3713, 131]"] ;
273 -> 301 ;
319 [label="cause_VehicularAccident <= 0.5\ngini = 0.064\nsamples = 3618\nvalue = [3498, 120]"] ;
301 -> 319 ;
321 [label="cause_CycleRide <= 0.5\ngini = 0.052\nsamples = 944\nvalue = [919, 25]"] ;
319 -> 321 ;
609 [label="cause_Leak <= 0.5\ngini = 0.054\nsamples = 831\nvalue = [808, 23]"] ;
321 -> 609 ;
811 [label="gini = 0.053\nsamples = 623\nvalue = [606, 17]"] ;
609 -> 811 ;
812 [label="gini = 0.056\nsamples = 208\nvalue = [202, 6]"] ;
609 -> 812 ;
610 [label="gini = 0.035\nsamples = 113\nvalue = [111, 2]"] ;
321 -> 610 ;
322 [label="gini = 0.069\nsamples = 2674\nvalue = [2579, 95]"] ;
319 -> 322 ;
320 [label="gini = 0.093\nsamples = 226\nvalue = [215, 11]"] ;
301 -> 320 ;
302 [label="gini = 0.086\nsamples = 557\nvalue = [532, 25]"] ;
273 -> 302 ;
274 [label="gini = 0.095\nsamples = 341\nvalue = [324, 17]"] ;
184 -> 274 ;
180 [label="cause_Incident <= 0.5\ngini = 0.048\nsamples = 2207\nvalue = [2153, 54]"] ;
97 -> 180 ;
181 [label="agency_JUR9bFXmVkWDHqu4AXaY0g <= 0.5\ngini = 0.044\nsamples = 2096\nvalue = [2049, 47]"] ;
180 -> 181 ;
331 [label="cause_Waterlogging <= 0.5\ngini = 0.049\nsamples = 1590\nvalue = [1550, 40]"] ;
181 -> 331 ;
409 [label="effect_Delays <= 0.5\ngini = 0.053\nsamples = 1240\nvalue = [1206, 34]"] ;
331 -> 409 ;
637 [label="gini = 0.044\nsamples = 265\nvalue = [259, 6]"] ;
409 -> 637 ;
638 [label="cause_VehicularAccident <= 0.5\ngini = 0.056\nsamples = 975\nvalue = [947, 28]"] ;
409 -> 638 ;
869 [label="gini = 0.056\nsamples = 175\nvalue = [170, 5]"] ;
638 -> 869 ;
870 [label="gini = 0.056\nsamples = 800\nvalue = [777, 23]"] ;
638 -> 870 ;
410 [label="gini = 0.034\nsamples = 350\nvalue = [344, 6]"] ;
331 -> 410 ;
332 [label="gini = 0.027\nsamples = 506\nvalue = [499, 7]"] ;
181 -> 332 ;
182 [label="gini = 0.118\nsamples = 111\nvalue = [104, 7]"] ;
180 -> 182 ;
98 [label="agency_JUR9bFXmVkWDHqu4AXaY0g <= 0.5\ngini = 0.077\nsamples = 5946\nvalue = [5708, 238]"] ;
51 -> 98 ;
261 [label="agency_NuuRQ2I1Q0a50Kv-AVKlLA <= 0.5\ngini = 0.078\nsamples = 5628\nvalue = [5398, 230]"] ;
98 -> 261 ;
555 [label="effect_TrafficImpact <= 0.5\ngini = 0.078\nsamples = 5336\nvalue = [5120, 216]"] ;
261 -> 555 ;
557 [label="gini = 0.072\nsamples = 1313\nvalue = [1264, 49]"] ;
555 -> 557 ;
558 [label="gini = 0.08\nsamples = 4023\nvalue = [3856, 167]"] ;
555 -> 558 ;
556 [label="effect_CirculationShutdown <= 0.5\ngini = 0.091\nsamples = 292\nvalue = [278, 14]"] ;
261 -> 556 ;
627 [label="gini = 0.081\nsamples = 141\nvalue = [135, 6]"] ;
556 -> 627 ;
628 [label="gini = 0.1\nsamples = 151\nvalue = [143, 8]"] ;
556 -> 628 ;
262 [label="gini = 0.049\nsamples = 318\nvalue = [310, 8]"] ;
98 -> 262 ;
52 [label="agency_JUR9bFXmVkWDHqu4AXaY0g <= 0.5\ngini = 0.092\nsamples = 15250\nvalue = [14515, 735]"] ;
50 -> 52 ;
73 [label="effect_CirculationShutdown <= 0.5\ngini = 0.089\nsamples = 14384\nvalue = [13709, 675]"] ;
52 -> 73 ;
103 [label="effect_TrafficImpact <= 0.5\ngini = 0.075\nsamples = 3238\nvalue = [3111, 127]"] ;
73 -> 103 ;
231 [label="agency_GewRJAw5tUmC4Ku4AX1-SQ <= 0.5\ngini = 0.053\nsamples = 510\nvalue = [496, 14]"] ;
103 -> 231 ;
653 [label="gini = 0.06\nsamples = 225\nvalue = [218, 7]"] ;
231 -> 653 ;
654 [label="gini = 0.048\nsamples = 285\nvalue = [278, 7]"] ;
231 -> 654 ;
232 [label="agency_NuuRQ2I1Q0a50Kv-AVKlLA <= 0.5\ngini = 0.079\nsamples = 2728\nvalue = [2615, 113]"] ;
103 -> 232 ;
563 [label="gini = 0.081\nsamples = 2518\nvalue = [2412, 106]"] ;
232 -> 563 ;
564 [label="gini = 0.064\nsamples = 210\nvalue = [203, 7]"] ;
232 -> 564 ;
104 [label="agency_NuuRQ2I1Q0a50Kv-AVKlLA <= 0.5\ngini = 0.093\nsamples = 11146\nvalue = [10598, 548]"] ;
73 -> 104 ;
105 [label="gini = 0.09\nsamples = 9473\nvalue = [9026, 447]"] ;
104 -> 105 ;
106 [label="gini = 0.113\nsamples = 1673\nvalue = [1572, 101]"] ;
104 -> 106 ;
74 [label="gini = 0.129\nsamples = 866\nvalue = [806, 60]"] ;
52 -> 74 ;
38 [label="agency_jLjibFoim0iwWau4AWoEdQ <= 0.5\ngini = 0.064\nsamples = 9315\nvalue = [9005, 310]"] ;
6 -> 38 ;
297 [label="agency_GtvOEQAFZ0GtU6u4AXwvPg <= 0.5\ngini = 0.064\nsamples = 9092\nvalue = [8793, 299]"] ;
38 -> 297 ;
427 [label="agency_NuuRQ2I1Q0a50Kv-AVKlLA <= 0.5\ngini = 0.058\nsamples = 2460\nvalue = [2386, 74]"] ;
297 -> 427 ;
429 [label="cause_Event <= 0.5\ngini = 0.062\nsamples = 2215\nvalue = [2144, 71]"] ;
427 -> 429 ;
663 [label="cause_March <= 0.5\ngini = 0.062\nsamples = 2194\nvalue = [2124, 70]"] ;
429 -> 663 ;
679 [label="cause_Demonstration <= 0.5\ngini = 0.062\nsamples = 2149\nvalue = [2080, 69]"] ;
663 -> 679 ;
769 [label="gini = 0.059\nsamples = 298\nvalue = [289, 9]"] ;
679 -> 769 ;
770 [label="gini = 0.063\nsamples = 1851\nvalue = [1791, 60]"] ;
679 -> 770 ;
680 [label="gini = 0.043\nsamples = 45\nvalue = [44, 1]"] ;
663 -> 680 ;
664 [label="gini = 0.091\nsamples = 21\nvalue = [20, 1]"] ;
429 -> 664 ;
430 [label="gini = 0.024\nsamples = 245\nvalue = [242, 3]"] ;
427 -> 430 ;
428 [label="cause_March <= 0.5\ngini = 0.066\nsamples = 6632\nvalue = [6407, 225]"] ;
297 -> 428 ;
453 [label="agency_NuuRQ2I1Q0a50Kv-AVKlLA <= 0.5\ngini = 0.065\nsamples = 6301\nvalue = [6090, 211]"] ;
428 -> 453 ;
599 [label="gini = 0.064\nsamples = 5690\nvalue = [5502, 188]"] ;
453 -> 599 ;
600 [label="gini = 0.072\nsamples = 611\nvalue = [588, 23]"] ;
453 -> 600 ;
454 [label="gini = 0.081\nsamples = 331\nvalue = [317, 14]"] ;
428 -> 454 ;
298 [label="gini = 0.094\nsamples = 223\nvalue = [212, 11]"] ;
38 -> 298 ;
}